weigvec 126500
0.415985
0.395511
0.146519
0.006556
0.129157
0.403637
0.252237
0.064910
0.215837
0.034073
-0.096686
0.078020
0.015847
0.222861
-0.031435
0.024040
0.173008
-0.142252
0.064070
0.286457
0.051234
-0.247650
0.181424
0.060293
0.460257
0.205041
0.098293
0.072102
-0.238293
-0.131589
0.109468
-0.077850
-0.046049
-0.067330
-0.205260
0.312621
-0.222282
-0.171165
0.091980
-0.205022
0.013832
-0.061354
-0.285320
-0.021385
-0.106662
-0.263562
-0.188895
-0.095318
0.022467
-0.056068
-0.206788
0.109344
0.197530
-0.190718
-0.138452
-0.031851
-0.175064
0.013718
0.041948
0.249460
0.088159
-0.126960
0.095572
0.492037
-0.000995
-0.113852
-0.100199
0.007657
0.017949
0.046743
0.188347
0.030868
-0.169203
0.157138
0.244126
-0.126432
-0.011515
-0.000688
-0.066206
0.294042
0.212321
0.295331
0.118515
-0.007298
0.390146
0.373865
-0.120001
-0.248932
-0.054770
0.046559
-0.037222
0.029086
0.091667
-0.085042
-0.291833
-0.014079
0.092745
-0.153232
-0.094355
0.013758
-0.102132
-0.219440
-0.149215
-0.003288
-0.038306
-0.303602
0.066788
0.007042
-0.131131
-0.032434
0.054214
-0.025625
-0.090721
-0.105657
0.038508
-0.050394
0.011986
-0.127077
-0.195584
-0.227079
0.053570
-0.021900
-0.124141
-0.193260
-0.016591
0.108838
-0.029580
-0.008500
0.167149
0.067909
0.146944
-0.054740
0.005743
0.178990
0.272022
0.098162
0.189098
0.028205
0.027387
0.199655
0.157322
0.099847
-0.177874
0.035517
0.058498
0.173152
-0.021258
0.200016
-0.049768
-0.064559
0.004146
0.003196
0.030179
0.015465
0.212987
0.083654
0.072965
-0.082310
-0.067588
-0.180427
-0.050743
0.142677
0.112923
0.107495
0.104967
0.063416
0.091348
-0.068805
-0.069482
-0.051440
-0.167655
0.006575
0.320154
0.250978
-0.079833
-0.149280
0.026176
0.001243
-0.304996
-0.045037
0.048319
0.013012
0.197155
0.297470
0.290049
-0.089126
-0.048773
-0.104829
-0.072988
-0.091871
-0.305388
-0.164391
0.015040
0.105241
0.165750
0.037182
0.034327
-0.031269
-0.090498
0.087400
-0.110131
-0.107256
0.003974
-0.140254
0.067608
0.242516
-0.091430
0.075161
-0.045489
-0.005559
0.258429
0.033203
-0.064378
0.076049
-0.170070
0.053683
-0.166456
-0.055446
0.072580
-0.090027
0.078343
0.325456
0.183661
0.230136
-0.010537
-0.124111
0.106939
-0.057251
-0.087055
0.051239
-0.091378
0.157287
0.240532
0.025724
0.178578
0.060805
-0.138331
0.144219
-0.087993
-0.364797
0.052458
-0.000515
0.083965
0.027731
0.037189
0.258449
0.205439
-0.246766
0.195806
0.072322
-0.152090
0.024333
0.184403
-0.247906
-0.080108
0.383857
0.069606
-0.153620
-0.112983
0.000699
-0.053293
0.012094
0.042373
-0.011189
-0.041528
0.059311
0.253174
0.068890
0.001516
-0.226101
-0.203344
0.073049
0.070212
0.114217
0.087033
-0.081528
-0.182715
0.021506
0.060156
0.102910
-0.035968
-0.102797
-0.045748
-0.029413
-0.162980
-0.067318
0.083509
0.071054
0.098396
0.016248
0.134335
0.081868
0.158005
0.079976
0.093605
0.171368
-0.039699
0.132985
0.025963
0.072430
-0.026258
-0.122646
-0.166512
0.062537
-0.017781
0.021290
0.035410
0.038201
0.152336
0.333337
0.300180
-0.107399
-0.253469
-0.273396
0.029309
0.121786
0.055478
-0.043749
0.041574
0.317504
0.443941
0.296911
0.146866
-0.003957
-0.112187
0.015783
0.130928
0.139850
-0.029320
0.014243
0.450800
0.383519
0.241457
0.022474
0.010329
-0.203407
-0.087364
0.032962
-0.077861
-0.111142
-0.064117
0.453142
0.230814
-0.160272
-0.190188
-0.007927
-0.157034
-0.033259
-0.083312
0.030401
-0.100350
-0.023288
0.029583
-0.003737
-0.053511
-0.159800
0.022268
0.073781
0.017396
0.077542
-0.025140
-0.060522
-0.165796
-0.301480
-0.315749
0.017644
-0.358771
-0.172678
0.075701
-0.013217
-0.041957
0.006175
0.054483
0.019700
-0.252923
-0.256008
-0.003263
-0.153506
-0.206965
-0.055282
-0.085769
-0.089474
0.117997
-0.011661
0.031315
-0.214569
-0.493578
-0.301472
-0.222625
-0.047584
0.056283
0.032437
-0.028063
-0.020914
-0.081940
-0.124690
-0.506148
-0.741165
-0.278098
-0.051811
0.082909
0.173652
0.138858
0.225381
0.146357
-0.153726
-0.013280
-0.417826
-0.331118
0.123479
-0.204927
-0.075106
0.081192
0.066257
-0.083312
-0.045007
-0.154305
0.066868
-0.209394
-0.255907
-0.187688
-0.414764
-0.303496
-0.093940
0.219588
0.107960
0.010461
-0.101888
-0.098545
-0.054396
-0.111885
-0.122273
0.028928
0.029240
-0.004524
0.108365
-0.007060
0.007749
0.033909
0.004732
0.141504
0.084266
0.289169
0.186750
0.056133
-0.090436
-0.003206
-0.112695
-0.030618
-0.042245
0.173931
-0.121144
-0.309211
0.042852
0.089489
0.024487
-0.035202
-0.007278
0.027738
-0.078134
-0.051867
0.064513
-0.193703
-0.216781
0.269155
0.076785
0.142861
0.172176
0.055320
-0.022179
-0.078137
0.045762
-0.025731
0.060975
-0.066800
0.345941
-0.026814
0.039770
0.020320
-0.030255
-0.065441
0.049862
0.019878
0.001228
-0.068433
-0.130505
0.355732
0.112717
0.058844
0.265812
-0.083226
-0.120145
-0.000757
-0.029553
0.070216
0.122667
0.041404
0.260717
0.201089
0.152082
0.105083
0.021526
-0.004130
0.038660
-0.017620
0.036060
-0.085829
-0.231660
0.149815
0.169643
-0.027752
-0.139791
-0.004059
0.089338
-0.097697
-0.045074
0.068374
-0.056390
-0.841054
-0.687188
-0.327289
-0.632920
-0.342149
-0.085143
0.069775
0.123941
0.230082
0.365117
0.026471
-0.531662
-0.465789
-0.063963
-0.270028
-0.073903
0.279137
0.252465
0.254185
0.292244
-0.042968
0.003845
-0.516235
-0.148695
0.345571
0.166884
0.204480
0.250418
0.026995
0.116665
0.135643
0.017719
0.150739
-0.331559
-0.117891
0.410313
0.271360
0.036306
0.235526
0.113018
0.121321
0.162375
-0.024456
0.182513
-0.232005
-0.270044
-0.021473
-0.121772
0.067691
0.065007
0.129219
-0.034984
0.178437
-0.064729
0.334070
-0.226599
-0.324092
-0.100751
-0.222027
-0.252368
0.121534
-0.055912
-0.208759
0.121804
0.047472
0.335059
-0.006052
0.145227
0.149110
-0.118575
-0.011834
0.107732
0.025693
0.049635
0.226077
-0.094104
0.284119
-0.055066
0.122612
0.179606
-0.096608
0.102775
0.321317
0.093642
0.042264
0.204471
-0.129282
0.375799
-0.045594
0.240418
0.538448
0.067077
0.253727
0.330527
0.150157
-0.087876
0.054405
-0.149416
0.389032
0.159298
0.292316
0.309294
-0.092977
-0.062829
0.080786
-0.072772
-0.120432
0.088064
0.140152
0.175209
-0.028697
0.070770
-0.003978
0.131799
-0.123916
-0.216044
-0.090564
-0.083221
0.080920
-0.169313
0.177619
-0.051006
-0.075578
0.077040
0.295093
-0.021983
0.098873
0.224794
0.203264
0.075901
0.178862
0.063268
-0.090517
0.056479
0.333667
0.361322
0.006891
0.131716
0.114372
-0.016592
-0.180448
0.054968
0.041699
-0.030083
0.016247
0.220965
0.159929
0.026027
-0.056554
0.106438
0.222609
0.091829
0.061251
0.341213
0.262588
-0.009957
-0.123810
0.093498
-0.040419
-0.089936
0.084203
-0.009439
0.033650
0.098706
0.270677
0.121081
0.031509
-0.008705
-0.021616
-0.028228
-0.077592
-0.113113
-0.082889
0.034156
0.007491
0.032251
-0.081956
0.067642
-0.211443
-0.031375
0.067636
-0.043699
0.048082
-0.113086
-0.054665
0.052228
-0.091098
0.000815
-0.032420
-0.065510
-0.039794
-0.180336
0.016284
0.065507
0.047374
-0.060810
0.163438
-0.101313
0.023358
0.176165
-0.079299
0.064506
0.057530
-0.031603
0.045930
-0.027688
-0.188113
-0.179724
-0.252108
-0.002572
0.341332
-0.200937
0.015015
0.188449
0.024224
-0.047637
-0.055530
-0.075038
0.050603
-0.085724
0.170216
0.469322
-0.002712
-0.145758
0.177506
0.071672
-0.027181
-0.004630
-0.038239
-0.033321
0.006778
0.197431
0.443716
-0.068520
-0.091780
0.018364
0.181575
-0.031540
-0.056478
0.037411
-0.010519
-0.297875
-0.048986
-0.366444
0.089942
-0.145739
-0.289264
-0.153624
0.048345
-0.036771
-0.034963
-0.037387
0.062545
0.239409
0.066103
0.149333
0.263826
0.280108
-0.018946
0.062939
0.017429
0.141266
-0.027170
-0.040080
0.127791
0.173888
-0.105655
-0.133310
0.053030
-0.048143
-0.036870
0.071954
-0.066726
0.036827
-0.047971
-0.025815
-0.323208
-0.245591
-0.082681
0.026362
-0.007700
-0.018457
-0.061896
-0.031156
-0.016680
-0.101552
-0.199149
-0.389898
-0.241768
0.116372
0.383295
0.151640
0.106223
-0.093980
-0.080455
-0.017041
0.026274
-0.263663
-0.488454
0.093681
0.126731
0.057499
0.023088
0.161404
0.097264
0.104131
-0.005830
-0.205938
-0.353630
-0.436102
0.188174
-0.052811
-0.127612
-0.216642
-0.178037
-0.170583
0.078292
0.028607
-0.307642
-0.517229
0.014356
0.402050
-0.042603
-0.142043
-0.138440
-0.091802
0.025959
-0.034429
0.011235
-0.115289
-0.148963
0.116576
0.376862
0.030257
-0.035365
-0.149146
-0.062849
-0.042532
0.058309
-0.081472
0.071803
0.195068
0.352143
0.191420
-0.040283
0.237514
-0.055808
-0.177980
-0.003917
-0.142350
-0.016563
-0.193915
-0.101270
-0.043818
-0.023249
0.047593
0.277093
-0.065479
-0.027187
0.023753
-0.041209
-0.057281
0.193098
0.230967
-0.380185
-0.242168
-0.100261
0.148185
0.140331
0.174517
0.097566
0.064788
-0.050376
-0.021440
0.182297
0.121653
-0.112370
-0.130891
-0.049436
0.068650
-0.101921
-0.039824
-0.022968
-0.007479
-0.280851
-0.120324
0.347789
-0.042048
-0.203459
-0.053317
-0.159163
-0.015721
0.028615
0.246849
0.094605
0.030206
0.206915
0.256188
-0.030393
0.068668
0.044716
0.026990
0.077994
-0.022000
0.011801
-0.008999
0.446616
0.423519
0.110188
0.159140
0.179442
0.112895
0.074655
0.242287
-0.018073
0.020094
0.023625
0.150305
0.140775
0.134765
0.117798
-0.076663
-0.053670
0.024374
0.011388
0.033890
-0.113874
-0.064952
0.174802
0.083675
-0.035515
-0.122375
-0.104808
-0.022092
0.123971
-0.048821
-0.023232
-0.209569
-0.013923
-0.057414
-0.558664
-0.392029
-0.087807
-0.165711
0.001815
0.098471
-0.051694
-0.057995
-0.160280
0.026168
0.042417
-0.239861
-0.285812
0.063971
-0.056586
0.123964
0.081804
0.043653
-0.031538
0.050601
-0.022218
0.110451
0.177142
0.203661
-0.086616
-0.110352
-0.120083
-0.059803
-0.038714
0.028195
0.097157
-0.037959
0.332742
0.486111
0.216841
-0.248313
-0.272220
0.014435
-0.127188
0.008238
-0.067213
0.048477
-0.105283
0.097277
0.118101
0.053813
-0.049839
0.001585
0.041121
0.051675
0.016205
-0.060450
0.054136
0.084242
0.665088
0.217153
-0.291037
0.050490
0.061215
0.064782
-0.025194
-0.135969
-0.093181
0.191277
-0.043830
-0.008264
-0.381417
-0.449820
-0.358853
-0.473859
-0.363570
-0.231174
-0.101801
0.067872
0.093401
0.311121
-0.079910
0.026064
0.443022
0.175319
0.042269
-0.049325
0.031313
0.076035
0.076975
-0.034721
0.101306
0.405374
0.553668
0.366801
0.012257
-0.235777
-0.266675
-0.102029
0.025569
-0.099000
-0.194539
-0.249998
0.383162
0.402752
0.211922
0.055830
-0.155530
-0.432115
-0.362080
-0.164274
-0.063160
-0.143636
-0.125635
0.092324
-0.074666
-0.092481
-0.043935
-0.022454
0.054984
-0.003877
-0.138026
0.011204
-0.082635
-0.048241
-0.198801
-0.573836
-0.230312
-0.156666
-0.004559
0.136527
0.002794
-0.082613
0.114730
0.090119
0.171717
-0.012115
-0.588920
-0.140412
0.142914
0.259223
0.293917
0.183002
0.240214
0.095093
-0.032871
0.172089
0.516788
0.129466
0.181240
0.016256
0.174282
0.274254
0.387179
0.275199
0.186641
0.107862
0.126220
0.514260
0.329705
0.491719
-0.023900
-0.008982
0.094238
0.091567
0.011558
0.048290
-0.145311
-0.097664
0.218451
0.044700
0.143261
-0.213821
-0.086300
-0.128440
-0.108109
-0.081764
-0.100107
0.079816
-0.028886
-0.091465
-0.449087
-0.366881
-0.534488
-0.479636
-0.406028
-0.227111
-0.114956
-0.010069
0.052886
0.060711
-0.111587
-0.344227
-0.185681
-0.329218
-0.067942
-0.025835
-0.019691
-0.095517
0.040231
0.054288
-0.003035
-0.185054
-0.480813
-0.139526
-0.153739
0.056380
0.153343
-0.001114
-0.113347
0.106561
0.042337
-0.022540
0.102700
-0.018531
0.314712
-0.213493
-0.423743
-0.143603
-0.250579
-0.178966
-0.167730
0.012193
0.004357
0.380326
0.261253
0.373817
0.223469
0.167720
-0.002792
0.073793
0.113631
0.158834
-0.024535
0.021917
0.016234
-0.251520
0.137183
0.296985
0.318584
0.117926
0.169008
0.181384
0.105059
-0.020211
-0.189972
-0.065578
-0.055205
0.045509
-0.199582
0.032430
-0.029131
0.011478
0.013229
-0.166030
-0.058391
-0.005759
-0.174102
0.162471
0.301311
0.019610
0.126924
0.168261
0.173579
0.088574
-0.009934
-0.154189
-0.012706
-0.287896
-0.019923
0.346955
0.209343
0.243946
0.138608
0.161190
-0.064265
0.042861
0.074244
0.019908
-0.045692
0.209504
0.533022
0.370595
0.408752
-0.093182
0.147689
-0.125762
-0.012024
0.024762
-0.167009
0.178818
0.358739
0.227957
0.018210
0.297244
0.105446
0.245783
0.095148
-0.093278
0.082702
-0.245551
0.089008
0.029307
-0.034995
-0.024803
0.375107
0.217649
0.154663
0.098539
0.020684
0.098790
-0.052375
0.537739
0.343705
-0.291821
-0.135033
0.092825
-0.083511
-0.181430
0.153594
0.101088
0.000902
-0.249739
0.127541
0.031525
-0.126996
0.129622
0.095763
0.026399
-0.198736
0.016847
0.070647
0.083803
-0.146132
-0.141100
0.049070
0.186099
0.335119
0.034583
0.132799
0.128227
-0.117525
0.032679
0.014007
-0.065449
0.252454
0.190079
-0.073449
-0.230734
-0.088192
0.153546
0.179961
0.193105
-0.030102
0.062064
-0.075832
0.189261
0.291438
-0.150092
-0.410301
-0.214911
-0.023764
-0.103465
-0.171857
-0.047800
0.113164
-0.044841
0.212681
0.279909
-0.371101
-0.508867
-0.173664
-0.027504
-0.173474
-0.189749
-0.142009
-0.009050
0.106576
0.140421
0.047246
-0.425600
-0.257202
0.014877
0.082174
0.002081
-0.032532
0.176764
0.031659
-0.033183
-0.067620
-0.101857
-0.329419
-0.031661
0.024663
0.020994
0.063420
-0.031303
0.212914
0.106448
0.003991
0.301107
0.158006
0.198468
0.108064
-0.066986
0.153190
0.166236
0.002118
0.285393
0.103097
0.011933
0.083623
-0.000626
0.100404
0.042144
-0.481679
-0.238714
-0.185269
-0.274357
-0.045560
0.077706
0.064529
-0.247147
-0.318318
-0.209120
-0.295742
-0.425824
-0.322744
-0.008928
-0.076174
-0.022721
-0.040854
0.149717
-0.111323
-0.087350
-0.240609
-0.015472
0.053803
0.128254
0.151980
-0.009130
0.086591
0.053776
0.090018
-0.457658
-0.388468
-0.110523
0.390316
0.125851
-0.171484
-0.099137
0.053319
0.213950
0.120026
0.111930
-0.227202
-0.058516
0.039058
-0.024481
-0.219192
-0.482224
-0.108434
0.013705
-0.007649
-0.060740
-0.020219
0.073107
0.313599
0.281673
0.149002
0.158859
-0.174225
-0.256122
-0.089741
-0.124170
-0.059554
-0.029636
0.140545
0.618566
0.397252
0.260971
0.266013
-0.180638
-0.280050
0.143225
0.179017
0.051099
-0.096442
0.027983
0.272751
0.115024
0.143992
0.364366
0.291511
0.034411
-0.142621
-0.196403
-0.207832
0.082110
-0.675823
-0.389919
-0.164911
-0.163859
0.201232
0.484003
0.146270
-0.120977
-0.024844
0.000830
0.177781
-0.364065
-0.226566
0.002485
-0.094136
0.097456
0.091056
0.009805
0.072530
-0.048385
0.002488
0.008211
0.023929
0.092847
0.288769
0.305985
0.252054
0.100848
-0.027445
-0.124644
0.041830
0.021415
-0.108809
-0.059583
0.282955
0.366399
0.543549
0.422600
0.069549
-0.070128
0.058539
-0.128980
-0.179840
0.092777
-0.009446
0.172088
0.126928
0.346631
0.223956
0.033838
0.055888
-0.126885
0.013193
-0.053478
-0.031516
-0.149117
-0.140971
-0.187842
0.174134
0.048694
-0.076571
-0.253798
-0.097884
-0.171147
-0.160781
-0.060735
-0.553057
-0.428943
-0.188625
0.206217
0.162643
0.021879
0.012475
0.079687
-0.043417
-0.129589
-0.094582
-0.463495
-0.221256
0.181983
0.268712
0.577870
0.419354
0.363610
0.320656
0.076770
0.115211
0.031680
-0.130414
-0.028879
0.285954
0.131411
0.192033
-0.013891
-0.167553
-0.116867
-0.171271
-0.130053
0.024370
0.278825
0.440190
-0.066554
-0.374692
0.039758
-0.076712
-0.218622
-0.077963
0.049013
0.053185
0.002737
0.383290
0.472126
-0.132025
-0.301102
-0.317049
-0.236498
-0.219951
-0.193349
-0.291257
-0.131863
-0.117110
0.597082
0.591976
0.188675
-0.039191
-0.100390
-0.137796
0.065832
-0.111195
-0.112191
-0.233075
-0.076944
0.275804
0.156969
0.151903
0.281644
0.051655
-0.004477
0.187847
0.046488
0.166814
0.014470
0.093165
0.177411
-0.202495
-0.160062
0.495189
0.462722
0.414432
0.240159
-0.001087
-0.081438
0.021444
-0.123957
0.167751
-0.115922
-0.520448
-0.104644
0.377629
0.297504
0.127426
0.089455
0.025839
-0.074796
0.035590
0.182890
-0.050216
-0.491986
-0.230250
-0.319290
-0.300499
0.039054
-0.041870
0.105380
0.070764
0.140881
0.274810
0.225338
-0.160911
-0.381236
-0.424975
-0.202366
-0.068956
-0.080603
0.081753
0.125852
0.134823
0.297521
0.470641
0.144338
-0.315049
-0.142594
-0.076535
-0.218747
-0.207047
-0.057370
-0.021752
-0.113358
-0.232236
-0.137506
0.114527
0.206412
0.103488
-0.010522
-0.047108
0.062068
0.027138
-0.091848
0.048848
-0.594207
-0.317456
0.095126
0.213682
0.104746
-0.019287
-0.131529
0.048729
-0.023412
-0.012927
-0.023449
0.779875
0.906775
0.214948
0.255805
-0.002734
-0.196594
-0.103338
-0.233796
-0.145719
-0.093147
-0.125400
-0.283081
-0.278745
-0.327532
0.262464
0.015431
-0.036169
0.086057
0.097949
0.066982
0.156021
0.023751
-0.595996
-0.635464
-0.472235
-0.173636
-0.037750
-0.064285
-0.178717
-0.054377
0.040028
-0.029619
-0.066923
0.243575
0.299617
-0.030692
-0.070600
-0.156738
-0.087739
0.066067
-0.049255
0.172391
0.152391
0.041642
-0.032133
0.177874
0.237279
0.042091
0.103499
0.104352
-0.099155
-0.004184
0.015461
-0.077572
0.064373
0.158912
0.406501
0.340338
0.116971
-0.088681
0.025774
0.108933
0.049961
-0.027189
-0.025219
-0.011329
-0.440717
0.103868
0.672201
0.411784
0.210072
0.033932
-0.072137
-0.032889
-0.021592
0.053923
0.019343
-0.497145
-0.209415
-0.057676
-0.061850
0.080699
0.108471
0.065008
0.073822
-0.038555
-0.034617
-0.027732
-0.301284
0.117213
0.182351
-0.064587
-0.012850
0.096365
-0.009701
0.031143
0.006853
0.187037
0.011730
-0.237115
-0.063372
-0.303442
-0.201720
-0.111097
-0.382481
0.084201
0.108861
-0.068799
0.001537
-0.163878
-0.015779
0.277937
-0.299138
-0.567818
0.463311
0.233194
0.036699
0.077481
-0.099796
-0.096054
0.129580
0.090874
0.579044
0.425740
-0.088779
0.597086
0.072193
0.125339
0.066071
-0.250330
0.090461
0.046479
0.474055
0.610158
-0.150140
-0.485633
0.012816
-0.175885
-0.069742
-0.112000
-0.052718
0.034157
-0.173214
0.346741
0.758440
-0.164077
-1.003471
-0.377011
0.040094
0.131941
0.172778
0.002734
-0.114232
-0.133409
-0.148187
0.443571
0.215015
-0.714715
-0.367061
-0.192657
0.110309
-0.059534
-0.133244
0.036357
-0.205464
-0.602057
-0.181234
0.056600
-0.212603
-0.024655
-0.149419
0.196007
-0.221630
-0.090174
0.011273
-0.018546
-0.617048
-0.207804
0.047937
0.186909
0.392943
0.028048
0.194236
0.024434
0.104568
-0.041433
-0.022486
-0.682223
-0.394218
-0.034636
0.065710
0.417748
-0.142581
0.175161
-0.153183
0.010903
0.116203
0.171023
-0.901305
-0.697973
-0.322247
-0.136684
0.062607
-0.296478
0.179248
-0.152883
0.104876
-0.089753
0.003153
-0.433139
0.099443
0.097688
-0.396362
-0.186390
0.032141
-0.016154
-0.020447
0.105475
-0.095453
-0.164231
-0.235800
0.662208
0.253952
-0.692282
-0.550426
-0.247590
-0.105662
-0.055307
-0.184086
-0.148244
0.110528
-0.697582
-0.168892
-0.512230
-0.486234
-0.191257
-0.128185
-0.056624
0.027490
0.140524
-0.034469
-0.048144
0.131274
0.221590
-0.345884
-0.309140
-0.219682
-0.050185
0.204224
-0.182995
0.093609
-0.049726
0.027345
0.365897
0.688090
-0.072158
0.394484
0.296883
0.070812
0.083722
0.108631
-0.055322
0.224757
0.105420
-0.235486
0.428077
0.329947
0.086387
0.174435
-0.143526
-0.035557
-0.002086
0.119129
-0.057207
-0.049202
0.023828
0.720924
0.584853
-0.118796
0.125190
0.048384
-0.135472
-0.333386
0.061404
0.035924
-0.103399
-0.197310
0.187724
-0.098158
-0.050368
0.100802
0.175732
0.276099
0.153727
0.127125
-0.002705
0.204740
0.067750
0.285251
-0.129948
0.323221
0.057979
-0.013044
0.066251
-0.096623
0.032050
0.076868
-0.081712
0.275066
0.172370
-0.371262
0.238647
0.286861
0.197376
0.024181
-0.069812
-0.013868
-0.162584
-0.051062
-0.014798
0.049922
-0.257575
0.029232
-0.025025
0.056164
0.047217
0.031264
0.077996
-0.010159
0.136245
0.155432
0.260309
0.029009
0.279525
-0.043503
-0.072681
0.013593
0.175287
-0.051991
-0.080989
-0.045714
-0.146950
-0.116429
-0.126800
0.153823
0.058249
0.101277
-0.030026
-0.149453
-0.027116
-0.007630
0.208398
0.732424
-0.137023
-0.792624
0.249757
0.304350
0.514202
0.410973
0.068427
0.060590
0.187058
0.002008
1.008009
0.486967
-0.012272
0.251910
0.530227
0.687202
0.134590
0.307656
0.212934
0.213168
0.011861
0.729276
0.587448
0.225732
0.489876
0.419886
0.573218
-0.080768
-0.133406
-0.188365
0.011791
-0.101156
-0.101251
0.106290
0.745288
0.924481
0.756869
0.339548
0.267401
0.193125
0.089865
-0.023838
0.099892
-0.421459
-0.312447
0.355169
-0.170744
-0.269899
-0.086492
0.005485
0.199668
0.032166
-0.164493
-0.005978
0.060067
-0.491856
-0.463670
-0.706503
-0.518885
-0.227305
0.103569
-0.057076
-0.083977
-0.035282
-0.085471
0.466320
-0.231645
-0.535252
-0.307572
-0.052300
-0.239041
0.045931
0.111521
0.112141
-0.109470
-0.036137
0.013527
-0.613748
0.214283
0.539868
0.181529
-0.081208
0.104924
-0.142116
-0.003765
-0.014424
0.034450
0.232187
-0.394218
0.281905
0.042576
0.038547
-0.020709
0.216714
0.097663
-0.075041
-0.136486
-0.015434
0.247249
-0.184639
-0.180383
-0.448266
-0.257776
-0.103937
0.165370
0.192203
0.026794
0.003264
0.007401
0.061778
-0.118080
-0.283336
-0.949570
-0.518809
-0.610796
-0.358246
-0.252647
-0.138189
-0.048488
-0.154307
-0.160228
-0.061410
0.337158
-0.716350
-0.486396
-0.367711
0.103228
0.077072
-0.091309
0.155674
-0.001669
0.108042
-0.034854
0.417394
-0.458689
-0.221148
0.089951
0.213505
0.205210
0.183742
-0.035317
-0.205560
0.125707
-0.117067
-0.095824
-0.032639
0.545635
0.391869
0.123281
-0.130749
0.029294
-0.026239
0.241361
0.306494
0.087433
-0.190570
-0.426280
0.158945
0.216299
0.333847
0.165984
0.201314
-0.031467
0.130341
-0.179664
-0.508512
-0.510949
-0.549437
-0.187847
0.001697
0.099404
0.129085
0.119331
-0.137630
-0.071137
0.149154
-0.306613
-0.620588
-0.685478
-0.205660
-0.025030
0.084343
0.135082
0.119356
-0.081865
0.047493
0.176141
-0.271429
-0.383515
-0.383010
-0.086184
0.010885
0.117925
0.196744
0.106257
0.134140
-0.059629
0.100494
0.032469
-0.011242
-0.450639
-0.114913
-0.058922
0.061294
-0.044640
0.060043
-0.053221
0.041689
0.091031
-0.412021
-0.235182
-0.177235
0.099481
0.013495
-0.003093
0.002907
0.055725
0.047519
-0.106072
-0.047604
-0.584536
-0.179266
0.132382
-0.062396
-0.003409
0.066946
0.109090
-0.118691
-0.072853
0.047323
0.189514
-0.118434
0.022691
-0.070212
-0.025976
0.114952
-0.161437
-0.032429
-0.047963
-0.028858
0.041612
0.131196
-0.597380
-0.572285
-0.271823
-0.196547
0.082977
0.125151
-0.008025
0.098835
0.001147
0.020640
0.090590
0.339989
0.086276
-0.285828
-0.327467
-0.245079
-0.300727
-0.057084
-0.057245
0.120067
-0.269631
0.101316
0.264657
-0.048769
-0.308170
-0.465239
-0.390186
-0.510844
-0.169605
0.191520
0.174484
-0.144674
0.089889
0.237145
0.045648
-0.316395
-0.424811
-0.125988
-0.080546
-0.148159
-0.058321
0.069712
0.017267
0.352151
0.386624
-0.173794
-0.407418
-0.483238
-0.021110
0.189398
0.225686
-0.019018
-0.125664
-0.140491
0.110668
0.091068
-0.292935
-0.372867
-0.246546
-0.191793
0.143219
0.032642
-0.122754
-0.062829
0.113570
-0.168869
-0.287373
-0.306230
-0.088516
0.045775
0.043574
-0.031033
-0.039413
0.005453
-0.024097
-0.018102
-0.052796
-0.193854
-0.060542
0.029695
0.068758
0.118788
0.107560
0.236646
0.081999
0.035852
0.178280
-0.201823
-0.036101
0.269817
0.154580
0.202261
0.093991
-0.001199
-0.084302
-0.087274
-0.174795
0.003605
0.100849
0.277112
0.235938
-0.006685
0.039530
0.064879
-0.032236
-0.182709
-0.228112
-0.225237
0.013288
0.100664
0.439604
0.185454
-0.219180
0.133244
0.081454
-0.090231
-0.026678
-0.127310
0.215840
0.099751
0.121892
0.144260
-0.055864
0.009962
0.068373
0.082308
0.066013
0.305694
0.234258
0.134819
-0.022545
-0.066952
-0.087653
-0.097434
0.256435
0.089428
0.064090
0.008188
0.107983
0.078468
0.065459
-0.037027
-0.260681
-0.316997
-0.252546
0.114660
0.148816
-0.007760
0.070465
-0.028756
0.074097
0.012448
-0.020456
-0.173159
-0.160901
-0.087793
0.246358
0.382036
0.137133
-0.020706
0.016347
0.221292
-0.031531
-0.059848
-0.038190
-0.117404
0.151766
0.147221
0.351033
0.289872
0.101478
0.038143
-0.009403
0.011732
-0.123704
0.052955
0.047545
0.110413
-0.022409
-0.024535
-0.027788
0.084747
0.092600
0.072244
0.115045
0.080429
0.035768
0.099211
0.044762
0.077400
-0.163017
-0.110106
-0.048651
-0.016865
-0.073812
-0.043295
-0.097452
-0.016519
0.137613
-0.015516
-0.096694
-0.007870
-0.071586
0.171090
0.249619
0.081387
0.028579
0.109466
0.139430
0.166927
0.228451
0.087452
0.119123
0.006459
-0.110037
-0.078000
-0.003403
0.043730
0.023772
0.021757
0.059951
0.300818
-0.083527
0.016805
0.003218
0.116282
0.102292
-0.022830
-0.112030
0.042313
-0.060509
0.065776
0.047662
-0.192890
-0.068365
0.056229
0.148197
0.139160
0.062007
-0.077096
0.087420
-0.079853
0.103905
0.214900
-0.016737
-0.070357
0.115240
-0.045253
-0.195994
-0.067916
0.075504
-0.006281
-0.208401
0.198032
0.396282
0.112116
0.196262
0.033253
-0.024652
-0.059262
0.064069
-0.051240
-0.049715
-0.907316
0.424971
0.275472
-0.396226
0.140456
0.193547
0.041336
-0.130113
-0.120128
-0.064098
0.034035
-0.228253
1.098435
0.979801
0.479350
0.508669
0.196253
0.113877
0.105356
0.011759
-0.062316
0.150576
-0.700622
0.192612
0.150427
0.062433
-0.116157
-0.140447
-0.305869
-0.156812
0.057333
0.069870
-0.051210
-0.873639
-0.470450
-0.096449
0.314446
-0.118325
-0.004086
0.112145
-0.001132
0.167526
0.082171
-0.015596
-0.439971
-0.677063
-1.256770
-0.244384
-0.327920
0.101508
0.118096
0.036067
-0.112153
0.064307
0.070109
-0.383294
-0.123194
-0.916017
-0.366812
-0.119900
0.033449
-0.089707
-0.030748
-0.211327
-0.129040
-0.004309
0.296363
0.945110
-0.054161
-0.078254
0.123069
0.128220
0.050293
0.060588
0.094399
0.155868
0.019195
1.374034
1.636898
-0.074559
0.279990
0.163768
0.200609
-0.042418
0.068082
-0.030968
-0.073352
-0.125186
1.549432
0.994384
-1.192393
-0.102798
-0.282341
-0.035969
-0.159419
-0.099976
-0.125950
0.068753
-0.047316
0.390337
-0.113220
-0.711567
0.370696
-0.160177
0.074620
-0.014571
0.061760
0.069125
0.097964
0.031731
-0.776694
-0.577173
0.082117
0.091972
0.296292
0.164830
-0.061459
0.030321
-0.083000
-0.040507
-0.013723
-0.495410
0.102230
0.154482
-0.143134
0.144094
0.061630
0.159868
-0.009505
-0.043407
0.015458
-0.077213
-0.757512
-0.167612
0.301151
-0.117424
-0.246649
0.149665
-0.003188
0.123382
-0.008640
-0.031976
0.134316
-0.802604
-0.017836
0.407351
0.002983
-0.012268
0.044839
-0.023004
0.038185
0.062296
0.049252
0.103365
-0.810863
-0.062160
0.181086
-0.297102
-0.076333
-0.027171
-0.055390
0.088141
-0.070547
0.061564
-0.006407
-0.432666
0.046981
0.129724
-0.341822
0.101037
0.102411
-0.064332
-0.179671
0.067476
-0.035325
-0.064196
0.053889
0.118515
0.052594
0.087287
0.205968
-0.086482
0.081645
-0.099007
-0.053598
-0.042351
0.025608
-0.009039
-0.070464
0.083073
0.119373
0.100009
-0.248715
0.129289
0.035580
0.136585
-0.028327
-0.051449
0.273051
0.029067
-0.081707
0.263049
0.289812
-0.149600
-0.172398
-0.077499
0.054119
-0.066748
0.026549
-0.098103
-0.058675
0.011158
-0.122212
-0.090353
-0.061120
0.000837
0.033660
0.018097
-0.040192
0.037132
-0.122461
0.023977
0.374969
-0.144258
-0.226413
-0.036499
0.079783
0.099150
-0.030476
-0.163849
0.104078
0.337756
-0.149589
0.106844
0.100601
-0.121573
-0.027887
-0.103344
0.090223
0.018433
-0.045084
-0.015687
0.276456
-0.162355
0.030787
0.141716
-0.218618
0.017375
0.085670
-0.087120
-0.019033
0.023189
-0.084513
-0.482848
-0.299717
0.049707
0.110824
-0.224243
-0.107969
-0.030204
0.098886
-0.087516
0.022546
-0.103111
-0.378771
-0.235849
-0.285731
0.069943
-0.089775
0.076187
0.136291
-0.091663
-0.169407
0.193439
0.300380
0.141516
0.226859
-0.173010
-0.194456
-0.133642
-0.033014
-0.051134
0.057140
-0.004977
-0.097409
-0.035170
0.189389
0.461501
-0.115683
-0.399710
-0.260606
-0.012657
-0.005287
-0.104531
0.087954
-0.037525
-0.176671
-0.114229
0.156114
-0.204212
-0.062236
-0.127372
-0.159605
-0.188893
-0.020808
-0.183554
-0.061874
-0.149346
-0.145815
-0.013077
-0.212564
0.062557
0.059474
0.054123
0.218211
0.171799
0.062817
0.056830
0.099217
-0.120582
-0.019709
-0.130144
-0.049189
0.086373
0.028831
0.093917
-0.059835
-0.001864
0.016752
0.097537
0.062329
0.242672
-0.265033
-0.060903
0.156988
0.130844
0.096184
0.106918
0.240426
0.012683
-0.162494
0.299925
0.478117
0.002015
0.112368
0.303197
0.031792
-0.105827
-0.274437
-0.136934
0.095619
0.109685
0.267245
0.423768
0.302776
0.213121
0.083825
-0.018201
-0.071763
-0.198820
-0.045662
0.186218
0.054985
-0.135864
0.110997
-0.061896
0.016883
0.191395
0.170477
0.063030
0.069593
0.263600
0.087926
-0.054148
-0.151067
0.237044
0.071023
0.131950
0.166782
-0.166279
0.051382
0.046301
0.074043
-0.043780
-0.023283
-0.339922
0.140972
0.074676
0.139370
0.050169
-0.008629
0.002668
0.170438
-0.074733
-0.189297
-0.035820
-0.544224
0.004081
0.367148
0.179278
0.045071
0.004602
0.088343
0.143379
-0.020866
-0.101272
-0.091402
-0.490665
0.116339
0.325227
0.132128
0.028246
-0.065093
0.067534
0.014783
0.057020
0.172299
0.107762
-0.715786
-0.323910
-0.026861
-0.069586
0.039126
-0.039258
0.100786
-0.142658
0.089794
0.232086
0.145293
-0.349172
0.074217
-0.008849
-0.086865
-0.005177
-0.171236
0.165102
-0.020884
-0.001508
-0.029579
0.255525
-0.208576
0.128621
0.008023
-0.179983
0.224222
0.053602
0.139196
0.092505
0.046184
0.049375
0.081866
-0.175106
0.266327
0.161488
0.013252
0.019010
-0.091527
-0.139334
-0.016978
0.066628
0.056947
0.130721
-0.208742
0.399866
0.290472
0.016025
0.190955
0.005649
0.148394
0.088162
-0.032687
0.002130
0.111967
-0.035809
0.282370
0.279116
-0.119272
0.104266
0.104244
0.084406
-0.003016
0.041044
0.024474
0.160053
0.005368
0.221935
0.115417
-0.172030
0.111119
0.061030
0.033019
0.031438
0.112576
-0.093550
0.053305
0.106601
0.337136
0.144401
-0.095543
0.061999
-0.038156
0.086259
0.016548
0.069489
-0.077448
0.159108
-0.109331
-0.053935
-0.538044
-0.003357
-0.271977
-0.176378
-0.181946
-0.100985
-0.051559
-0.116831
0.034822
-0.066908
-0.312093
-0.508935
0.009261
-0.398721
-0.580830
-0.170035
0.061620
0.072550
0.035865
-0.004996
-0.280016
-0.271894
-0.043382
0.965432
0.422750
-0.045216
0.006345
-0.132871
-0.058203
0.050184
0.059038
0.577803
0.678437
-0.064655
0.970422
0.697237
0.115440
0.042024
-0.043270
0.209241
0.154036
-0.078031
0.916541
0.795008
-0.826087
-0.413450
-0.137342
-0.308915
-0.202853
0.003214
-0.053559
0.100682
-0.018547
0.359133
0.300534
-0.810194
-1.043618
-0.569845
-0.119468
0.147711
0.121574
0.042113
-0.110301
-0.008002
0.076360
-0.055562
-0.808310
-0.563753
0.010493
0.154261
0.025261
0.058545
-0.097988
-0.012136
-0.117359
-0.078620
0.054786
-0.142447
-0.095963
0.078477
0.081490
0.148353
0.133061
-0.101391
0.055605
-0.039996
-0.227956
-0.048252
-0.104064
-0.404597
-0.032372
0.060938
0.137801
0.096251
-0.045926
-0.050244
0.125290
-0.474724
0.537946
0.945301
-0.532333
-0.697809
-0.238868
-0.045991
0.043463
0.083396
0.111493
-0.177204
-0.379469
0.782579
0.893725
-0.470211
-0.624546
-0.231057
-0.078522
0.030964
-0.126100
-0.037909
-0.071834
-0.385187
0.248828
0.345740
0.034841
-0.100760
-0.022207
0.069019
0.021577
-0.076137
-0.138114
0.025089
0.061845
-0.137254
-0.255277
0.103015
-0.152903
0.240400
0.023444
-0.026194
-0.026371
0.085483
0.025218
0.538915
0.309341
-0.302937
-0.003258
-0.101787
-0.035958
0.087019
0.277363
0.010829
0.043075
-0.176723
0.007702
-0.361024
-0.486162
0.208923
0.243712
-0.132519
-0.186563
-0.222230
-0.064533
0.058685
0.071689
-0.089708
-0.497966
-0.653385
-0.295436
-0.118552
-0.162554
-0.132262
-0.176106
-0.209607
0.031195
-0.202297
0.044270
0.075266
-0.414640
-0.329158
0.092781
0.120304
0.090478
0.062415
-0.086115
-0.069615
-0.091725
-0.062140
0.105208
0.128455
0.239443
0.421870
0.108107
-0.222913
-0.148537
-0.090122
0.033882
0.009387
0.208046
0.289609
0.623040
-0.082065
-0.089076
0.008307
0.081137
0.134405
0.030999
0.044589
-0.058860
0.101092
-0.047593
-0.007636
-0.163111
-0.021362
-0.063449
-0.284362
-0.068391
0.077857
0.066059
-0.100008
-0.245873
-0.222144
0.087531
0.511637
0.246985
-0.074160
-0.186161
-0.107983
-0.022289
-0.036622
-0.044295
-0.125611
-0.243118
0.048733
0.362165
0.130241
-0.134892
-0.025941
-0.054299
-0.191176
-0.117929
-0.021659
0.015915
-0.063385
-0.065185
0.176738
0.289869
0.039905
-0.127181
-0.011654
-0.022812
-0.013621
0.164312
-0.207100
-0.080838
0.808897
0.474133
0.893398
0.497107
-0.070834
-0.205531
-0.208329
-0.009679
0.075323
0.728281
0.744727
1.161885
0.696664
0.863480
0.854472
0.118429
-0.285709
-0.185045
0.059312
0.090946
0.433192
0.187714
0.888802
1.285177
0.702530
0.323984
0.057082
-0.197898
-0.303750
-0.254455
-0.343093
0.290684
-0.445578
0.395078
1.459795
1.046735
0.516066
0.078117
-0.079538
-0.210079
-0.223003
-0.084394
-0.075185
-0.736293
0.031453
0.787716
0.490688
0.273398
0.516165
0.253547
-0.025888
-0.229585
-0.101556
-0.381854
-0.487095
0.275685
0.257344
-0.268804
-0.428321
0.068175
0.114289
0.233344
0.120203
0.008736
-0.196264
-0.297425
0.281273
-0.194915
-0.096115
-0.126592
-0.128840
-0.135987
-0.016097
0.100744
0.177277
-0.113422
-0.305779
0.059482
-0.270344
0.064339
0.046993
0.042670
-0.259238
0.111616
0.128079
0.193323
0.055770
-0.070117
0.283789
-0.434506
-0.081652
-0.069790
-0.067117
0.044540
0.063186
-0.069442
0.131185
-0.018355
-0.144765
0.166380
-0.285245
-0.000800
0.050797
-0.160333
0.010852
-0.007089
-0.009375
0.161264
0.087920
-0.201497
-0.100599
-0.285934
0.161763
-0.063025
-0.277512
0.039774
0.076822
0.098820
0.004552
0.314383
-0.359708
-0.203348
-0.353762
-0.260011
-0.094879
-0.134673
-0.078673
-0.020187
-0.038093
-0.209150
0.008925
-0.536472
0.076387
0.038438
0.034272
-0.100670
-0.018630
0.083900
0.112827
0.147945
0.104283
0.260396
-0.069451
0.404826
0.543248
0.366225
0.142533
0.267878
-0.057811
-0.011262
-0.154911
-0.117732
-0.277170
-0.530514
0.645546
0.178936
-0.015387
0.257238
0.243819
-0.119981
0.028967
-0.314708
0.156960
0.169871
-0.157777
-0.037398
-0.516127
-0.108425
-0.243038
-0.182205
-0.055999
0.172297
0.152450
0.072869
0.214744
-0.249427
-0.345524
-0.495559
-0.062376
-0.221214
-0.070374
0.009336
-0.052152
-0.048876
0.213766
0.250905
-0.189112
0.152096
0.117129
0.131497
-0.115881
0.128341
0.097257
-0.006673
0.118025
0.023705
0.234367
-0.273753
0.019815
0.178957
0.106238
-0.036072
0.108738
0.002051
0.079465
0.063468
-0.026161
0.136478
-0.048341
-0.058236
-0.299733
-0.154166
-0.008497
0.048001
0.066939
-0.170999
-0.038383
-0.317728
0.242445
-0.303007
-0.315858
-0.258826
0.039590
-0.121254
-0.057840
0.058943
0.133757
0.179864
0.090822
0.158933
-0.176449
-0.183307
-0.385081
-0.077680
-0.294711
-0.160197
0.095221
-0.091769
-0.003995
-0.165036
0.479393
0.121108
0.085833
-0.469085
-0.047118
0.194713
0.235438
0.104249
0.077810
0.055924
0.014815
-0.060011
-0.336668
-0.334067
0.239561
0.532680
0.103072
-0.457213
-0.114585
0.095569
0.088446
-0.008406
0.077638
0.079587
-0.313381
0.025820
0.405863
0.175385
-0.252570
-0.091144
0.219153
0.306239
-0.082723
0.009911
-0.043950
-0.265169
0.142361
0.195936
-0.052296
-0.270589
-0.089569
0.265546
0.232614
-0.175938
-0.059820
-0.124285
-0.328471
0.056413
0.142654
-0.169106
-0.347319
-0.267546
0.204520
0.364557
-0.019583
-0.213862
-0.276100
-0.110708
-0.015408
0.024214
0.025639
0.231281
0.054732
-0.054277
-0.021233
0.175982
-0.253941
-0.253656
0.046177
-0.108505
-0.265885
0.118908
0.429369
0.060239
-0.121992
-0.044790
0.183999
-0.110207
0.024573
0.231496
0.044918
-0.364889
0.084816
0.412190
0.259449
-0.013820
-0.042388
-0.089133
0.036949
0.294218
0.201054
0.026775
-0.367771
-0.011165
0.275912
-0.006249
-0.086468
-0.237592
0.056132
0.127496
0.294344
0.259001
0.085250
-0.261521
0.018286
0.398140
-0.074778
-0.547603
-0.186763
0.158775
-0.141579
0.349421
0.521813
-0.300469
-0.513700
0.260378
0.660819
-0.052508
-0.384934
-0.294925
0.285117
-0.108730
0.526513
0.485113
-0.324131
-0.525996
0.071703
0.454842
0.002625
-0.164066
-0.153338
0.061680
-0.103820
0.309408
0.497336
-0.145476
-0.427209
-0.351182
-0.227081
0.233849
0.140638
0.005990
-0.234434
0.065011
0.053839
0.181142
0.215335
0.055227
-0.265346
-0.377315
-0.294300
0.097220
0.130844
-0.034486
0.024943
-0.273107
-0.136980
0.354000
0.094738
0.027492
0.002469
0.105157
0.206897
-0.122903
-0.147806
-0.442051
-0.478641
0.130746
0.055715
-0.141763
-0.126582
-0.228288
0.096637
0.157737
-0.125360
-0.120784
-0.297393
-0.291956
-0.003848
-0.072506
0.229039
0.291427
-0.114510
-0.203458
0.079552
-0.037506
0.038051
-0.009815
-0.143163
-0.014910
0.147522
0.193706
0.377325
-0.199863
-0.285618
0.021048
0.137306
0.289358
0.174270
0.296349
0.037678
0.044181
-0.132495
0.097330
0.133258
0.147155
0.136681
-0.084602
0.022314
0.249918
0.111460
-0.213026
-0.378066
-0.105350
0.057004
0.091110
0.183502
0.115420
-0.155233
-0.091722
0.046275
-0.011618
-0.128512
-0.181776
-0.177011
0.005410
0.120004
-0.020795
0.034264
0.021097
0.024300
-0.081973
-0.154625
0.036549
0.270890
-0.073667
-0.182507
-0.233192
-0.186476
0.120569
0.117082
-0.112876
-0.174306
-0.219597
0.086506
0.284328
0.116033
-0.097095
-0.321074
-0.113172
0.163535
0.069224
0.118015
0.140555
0.145805
0.018760
-0.340226
-0.279268
0.073335
0.378382
0.370122
0.093020
-0.118968
-0.255355
-0.306234
-0.255431
-0.243550
-0.324330
0.083470
-0.019648
-0.104230
0.083712
0.062633
-0.099214
0.296683
0.899538
1.024889
0.756615
-0.513851
-0.250445
-0.191470
0.265022
0.333910
0.235856
0.076871
0.226884
1.314282
1.405091
0.632515
-0.474405
0.116369
0.120921
0.195452
0.041048
-0.054007
-0.041642
0.163042
0.794486
0.318900
-0.017245
-0.269874
0.271445
0.146638
0.107251
0.130736
0.145811
0.080428
-0.206862
-0.455756
-1.148777
-0.456736
-0.297368
-0.230331
-0.299728
-0.259002
-0.151627
0.059102
0.098480
-0.081108
-0.454242
-1.382499
-1.029309
-0.764521
-0.792334
-0.592502
-0.449644
-0.314673
-0.132908
0.036926
-0.028015
-0.166347
-0.888616
-0.799209
-0.499308
-0.594765
-0.521154
-0.244823
-0.055765
0.099471
-0.064023
0.066005
0.253153
-0.512887
-0.212461
0.002154
-0.302241
-0.204847
-0.008169
-0.070419
0.026763
0.008349
0.098919
0.338641
-0.482931
-0.202516
0.235086
-0.024675
0.070079
0.273905
-0.063785
0.063884
-0.158041
0.005820
0.426887
-0.295293
-0.298556
-0.194543
-0.145755
-0.100064
0.059688
-0.125584
0.093556
-0.135589
-0.055600
0.153726
-0.133391
0.191886
-0.092532
-0.358129
-0.378294
-0.255508
-0.319466
-0.193527
-0.213332
-0.138495
0.245472
-0.039109
0.081397
0.224922
0.012930
-0.151312
-0.255704
-0.040444
-0.094776
-0.082705
-0.103905
0.591490
-0.036754
-0.395425
-0.345271
0.005189
0.014426
-0.109029
-0.173757
-0.074499
-0.194868
-0.079293
-0.061666
-0.181659
-0.002463
-0.230003
-0.343456
-0.074755
-0.126806
0.054264
-0.092016
-0.039343
0.050069
0.275754
0.693384
0.542206
0.190458
0.024610
0.005665
-0.144235
-0.202986
-0.124651
0.002510
0.018813
-0.253696
-0.181620
-0.041810
0.032399
0.127361
-0.058290
0.226938
0.122762
-0.169892
0.018344
-0.070130
-0.031172
0.207866
-0.091793
-0.084650
-0.053288
-0.108371
-0.026887
0.044687
0.007392
0.033300
-0.114043
-0.337369
0.141246
0.239889
-0.261494
0.136573
-0.070494
0.094943
-0.074771
-0.248841
0.114590
-0.103964
-0.346246
0.137846
0.139079
-0.087429
0.184118
0.013802
0.058342
0.001684
0.080296
0.019787
-0.101308
-0.422942
0.122896
-0.010084
-0.135065
0.119066
0.127422
-0.135362
0.016074
-0.126391
0.007692
0.058824
-0.097382
0.286972
0.134232
0.277474
-0.198942
0.036526
-0.043679
0.108001
0.160968
0.168304
0.088383
-0.034685
0.122986
-0.104798
0.136376
0.125979
0.113466
0.023941
0.202183
0.026524
-0.186768
0.022966
-0.005056
-0.425593
-0.647283
-0.187386
-0.328913
-0.148547
-0.066293
-0.080434
-0.004433
-0.077547
-0.007231
0.631609
0.682500
0.031134
0.145980
0.773225
0.264523
0.042349
0.195823
0.136670
0.016474
-0.015431
-0.066970
-0.159691
0.026506
-0.088403
0.241354
0.066290
0.056767
-0.119092
-0.030688
0.055068
-0.041635
-0.221813
-0.301310
-0.132383
-0.260620
-0.367708
-0.279098
-0.171927
-0.035409
0.032117
0.009175
0.076260
-0.287777
-0.485937
-0.103418
-0.457582
-0.579216
0.002863
0.014498
-0.038072
-0.003238
-0.092592
0.005878
-0.260593
-0.440075
0.093858
-0.012123
-0.309699
-0.101556
0.205877
0.018414
0.090523
0.024548
0.121200
-0.105627
-0.335001
0.041645
0.163184
-0.034029
0.034892
-0.033237
-0.064089
0.047106
-0.151450
0.017997
-0.270681
-0.500854
0.050033
0.187961
0.072671
0.153584
0.022610
0.057603
-0.015195
-0.065300
0.212535
-0.246242
-0.518362
-0.126308
0.166702
0.122797
0.017521
-0.076944
0.014413
0.152912
0.009685
0.050293
0.269651
-0.022179
-0.054544
0.147872
0.027198
-0.053156
-0.103734
-0.016049
0.073323
-0.142191
0.003578
1.017816
0.522905
0.044599
0.056780
0.136013
0.056061
-0.057757
-0.005753
0.197530
-0.086784
0.042472
0.284606
0.002648
-0.060040
-0.011315
0.394990
0.244461
-0.035946
-0.149176
0.105680
0.099835
0.000896
-0.397145
-0.504868
-0.184334
-0.169501
0.276184
0.101416
-0.145600
-0.054974
-0.004397
-0.100339
0.009293
-0.093329
0.007289
0.102304
-0.130043
0.155574
-0.172574
-0.102460
-0.002423
-0.232422
0.051967
0.037001
0.200026
0.450426
0.278270
-0.060408
0.216251
-0.067111
-0.092976
-0.005708
-0.047455
-0.002893
-0.203030
-0.018790
0.127268
0.185242
-0.378237
0.072385
-0.102317
-0.032752
-0.026930
-0.189490
-0.040478
-0.131124
-0.049273
0.130662
0.182498
-0.034881
0.351465
0.281520
0.065927
0.005732
0.041070
0.117753
0.180370
-0.051864
0.270401
0.609713
0.080527
0.186295
-0.010064
-0.096376
0.154816
0.091377
0.077803
0.084070
-0.408913
-0.141049
0.459644
-0.032820
-0.012855
-0.122776
-0.075396
0.084470
-0.072299
0.005954
-0.147597
-0.328853
-0.153305
0.391636
-0.113053
0.008766
-0.189114
0.184871
0.054859
-0.073663
0.066557
0.002941
-0.361496
-0.456514
0.056782
-0.227163
0.037496
-0.027169
0.193289
0.119393
-0.022218
0.083754
-0.020909
-0.320931
-0.055869
0.083188
-0.389652
-0.000742
0.038022
0.287534
0.061662
0.053173
-0.037951
-0.014164
-0.136894
0.051623
0.400168
-0.120141
-0.043051
0.054613
-0.039344
0.007899
0.080029
-0.013648
-0.057834
-0.319316
-0.039813
0.220788
-0.275741
-0.226384
-0.028906
-0.102463
-0.201830
-0.012846
0.002880
-0.072677
0.257334
0.279696
0.656546
0.350593
0.011322
-0.315494
0.075381
-0.023333
-0.157418
-0.109044
0.027365
0.375516
0.059462
0.365138
0.604676
0.275979
-0.069775
-0.016499
0.147173
0.124307
-0.198622
0.113115
0.914175
0.617973
0.600650
0.432111
0.453435
0.078578
0.105552
0.041743
0.148005
0.197348
0.164807
0.480993
0.369584
0.394392
0.454926
0.447636
0.182177
0.235489
0.071506
0.017622
0.158518
0.160792
-0.132524
-0.098923
0.457419
0.421003
0.206874
0.234988
0.365508
0.257212
0.337881
0.032579
-0.019310
-0.296486
-0.135364
0.759287
0.285920
0.309327
0.152734
0.209063
0.076055
0.412810
0.340256
0.221102
0.006758
-0.077613
0.465555
0.135204
-0.148829
-0.135107
0.024325
0.040556
0.232078
0.118628
-0.005555
0.367166
0.300805
0.104442
-0.079492
0.069450
-0.119692
0.067375
-0.056094
-0.034776
0.127675
-0.045473
0.460076
0.422029
-0.079476
-0.413165
-0.026416
-0.216585
-0.204888
-0.056367
-0.000234
-0.089974
-0.194112
-0.133370
-0.040911
0.097750
-0.307031
-0.004294
-0.242250
-0.231622
0.199680
0.104473
-0.176010
-0.067450
-0.617575
-0.186637
1.109939
0.204704
-0.020931
-0.225191
0.063707
0.139892
0.087639
0.014542
0.149283
-0.748771
-0.348932
1.138500
0.168209
-0.302378
-0.137492
0.067947
-0.168052
0.062054
-0.027132
-0.019425
-0.780937
-0.706287
0.362916
0.040380
0.097843
0.165310
0.119353
0.102588
0.274641
0.130357
-0.112056
-0.517678
-0.376868
-0.057904
-0.011890
0.104971
0.258328
-0.050118
0.045422
-0.006439
-0.092814
-0.045488
0.645726
0.191602
-0.129092
0.175249
-0.067496
-0.311293
-0.046460
-0.089575
-0.058771
-0.236111
-0.074582
0.255978
0.101900
0.493444
0.481292
-0.284358
-0.306284
0.043850
-0.036115
0.004978
-0.146839
-0.274653
-0.005276
-0.119555
0.592690
0.594958
-0.106580
-0.077817
0.162154
0.081311
-0.137118
0.114819
0.000039
0.369619
-0.044375
-0.067251
0.295330
-0.110201
-0.267167
0.013003
0.017335
0.135849
0.049030
-0.008735
0.213936
-0.111156
-0.091962
0.075001
-0.172652
-0.143861
0.081197
-0.022741
0.062416
0.064147
-0.096669
0.079799
-0.088128
0.036380
0.226334
0.245857
0.147721
-0.042329
0.065229
-0.009038
-0.119553
-0.054520
0.412130
0.192323
-0.261182
-0.129371
0.037028
0.220228
-0.034481
-0.168357
-0.123976
0.001773
0.293009
0.236205
-0.131206
-0.303679
-0.193707
0.110852
-0.033651
-0.110371
0.032313
0.210011
-0.040499
0.069650
0.111425
-0.020138
0.064479
-0.077929
-0.085150
-0.076555
0.162683
0.055631
0.023218
-0.088043
0.087436
0.117219
0.195038
0.307967
0.413447
0.108210
0.033279
-0.034761
-0.252960
-0.142001
-0.092382
-0.076385
0.229594
0.353422
0.388442
0.272368
0.194601
-0.088150
-0.080286
-0.016496
-0.002948
-0.108308
-0.199080
0.406274
0.612187
0.473773
0.085902
0.140257
-0.168394
-0.005197
0.180205
0.113756
-0.120529
0.096444
0.275028
0.532434
0.210622
-0.181325
-0.121378
-0.071918
0.153086
0.062167
0.135534
-0.065507
0.133580
-0.055772
-0.091894
0.000527
-0.213632
-0.191655
-0.040200
-0.073815
-0.070228
0.051494
-0.082629
0.036181
-0.299328
-0.356307
-0.088738
-0.173380
-0.160959
-0.015022
-0.009257
0.068231
-0.086862
0.039010
-0.032837
-0.249219
-0.262449
-0.026424
-0.177792
-0.181459
-0.141823
-0.064181
-0.054429
-0.101818
-0.045655
-0.261330
-0.041765
-0.075215
0.261278
-0.004948
-0.238156
-0.299515
-0.111542
-0.058143
0.017551
-0.091601
-0.105632
-0.174656
-0.275869
0.125076
0.099011
-0.157996
-0.242956
-0.292359
-0.161440
0.041788
-0.065236
0.046172
-0.224066
-0.345601
-0.080762
0.018901
-0.132361
-0.171343
-0.151349
-0.285343
-0.117485
0.101722
-0.109732
0.042223
-0.069047
-0.181573
0.120785
0.052784
0.096732
0.314272
0.017791
-0.118101
-0.136025
0.044093
-0.185532
-0.226633
-0.175542
0.168188
0.057450
-0.021280
0.090790
0.053136
0.058024
0.042795
0.142532
-0.068756
-0.167979
-0.208687
0.059936
0.075589
-0.021343
-0.076273
-0.249569
0.060105
0.033595
0.037903
0.047207
-0.064019
-0.091502
-0.155382
-0.072709
-0.039203
-0.122586
-0.143144
0.001366
-0.139997
0.033877
0.080139
-0.046743
-0.214914
-0.060095
0.021999
-0.073403
-0.061887
0.006682
0.137198
-0.077077
0.013482
-0.009426
-0.144090
-0.089427
0.105906
0.004334
0.024959
0.108845
0.004153
0.102784
-0.121045
-0.112445
0.038452
0.018000
0.053737
-0.004125
0.188894
0.144693
0.009020
-0.030764
-0.049878
-0.028520
-0.106261
0.005518
0.206678
0.259541
0.127294
0.222558
0.152434
0.132246
0.076378
-0.052936
-0.036542
-0.009368
0.024368
0.267350
0.274508
0.147748
0.054928
-0.020527
-0.109471
0.069310
0.028740
0.071848
0.100800
0.101148
0.039375
0.168683
0.060460
0.095123
0.090296
0.161828
0.174986
0.150535
0.071795
-0.032894
-0.064817
-0.017255
-0.179225
-0.320066
-0.075510
0.184137
0.044096
-0.082332
0.001387
0.022431
0.052184
0.043666
0.019462
-0.132725
-0.367102
0.034447
0.130684
0.145859
0.038503
-0.078809
-0.071536
-0.100682
0.200632
0.343253
0.259554
0.016773
0.004506
0.260557
0.307664
0.184460
0.172743
0.065172
0.006891
-0.112574
-0.156069
-0.091385
0.000767
-0.368724
-0.006369
0.058268
0.224648
-0.068847
0.045781
0.034557
0.294010
-0.038059
-0.258305
0.070973
-0.264086
0.015842
-0.102117
0.098028
0.087926
0.104286
0.087882
0.268712
0.147302
0.112031
0.505106
0.353955
0.549686
0.284311
0.290538
0.319068
0.193842
-0.000211
0.113279
0.016575
0.193785
0.638073
0.385952
0.230893
0.351271
0.290371
0.118817
-0.005984
0.049993
0.208327
0.219183
0.147435
-0.025280
0.218090
0.256145
0.244431
0.011347
-0.011180
0.161849
0.186456
0.144206
0.184513
0.307846
-0.121999
-0.027724
-0.071140
-0.068114
-0.203374
0.036460
-0.191341
-0.017882
0.114842
0.053133
-0.179762
-0.556411
-0.245284
-0.268489
-0.279344
-0.278183
-0.164410
-0.129517
-0.040636
-0.479853
-0.500599
-0.206228
-0.297061
0.074175
-0.002800
-0.078230
0.084040
-0.054302
-0.120982
-0.029107
-0.264015
0.069508
0.543443
0.221639
0.432004
0.032179
-0.166247
-0.011974
-0.042446
0.065847
0.150321
-0.143043
0.197691
0.705861
0.267176
-0.308608
-0.540334
-0.299047
-0.310447
-0.320763
0.022015
0.085556
-0.019433
0.017579
-0.031004
-0.434405
-0.748350
-0.506736
-0.097720
0.100106
-0.019225
0.131323
0.010954
0.541830
0.194069
-0.395282
-0.569133
-0.785588
-0.620901
-0.401190
-0.191542
-0.245926
-0.099401
0.035589
1.038825
0.869173
0.010035
-0.262389
0.162988
0.130724
-0.209671
-0.145018
-0.111881
-0.087815
-0.254183
0.466071
0.161142
-0.259175
0.236203
0.583226
0.260310
0.280127
0.181571
0.168811
0.085100
-0.075927
-0.158597
-0.525820
-0.379974
-0.168293
-0.125938
-0.151341
-0.017215
-0.159416
-0.030944
0.051917
-0.017732
0.011242
0.093231
0.177271
-0.388832
-0.150721
-0.019776
-0.025218
-0.149039
0.142226
0.079325
0.097654
-0.213123
-0.094202
0.218058
0.028805
0.069410
0.040229
-0.143805
0.028897
0.007518
-0.055641
0.004223
-0.137185
-0.215032
-0.105072
0.007277
0.006209
-0.156089
-0.156892
0.038473
0.048633
0.054389
-0.074902
0.285965
-0.078055
-0.091342
-0.001792
-0.144460
-0.180512
0.264456
0.149517
-0.155849
-0.025239
0.293670
-0.017191
-0.152684
-0.083405
-0.170248
0.122678
-0.024452
0.034305
-0.103284
-0.039367
-0.131241
-0.093062
-0.111862
-0.228929
-0.065078
-0.176504
0.106021
-0.162590
-0.024124
-0.155238
0.036254
0.063987
0.054557
-0.328746
-0.301573
-0.082321
-0.340001
-0.244811
-0.002493
-0.007510
-0.107124
-0.056611
0.086603
0.052758
-0.084801
-0.262627
0.016125
-0.234825
-0.188109
-0.262720
-0.076901
0.200728
0.121062
-0.001134
-0.012788
-0.032925
0.172391
0.469195
-0.078762
0.163447
0.408599
0.184058
0.266552
-0.004106
0.156257
0.216002
0.078133
-0.074867
-0.435483
-0.710719
-0.598278
-0.060295
0.066801
0.204360
-0.035887
-0.245970
-0.046359
0.111174
-0.220699
-0.530991
-0.375531
-0.230339
-0.082725
-0.151602
-0.103783
-0.260329
-0.071326
0.020213
0.225237
-0.354354
-0.260916
-0.136924
-0.274524
-0.011994
-0.027378
0.036029
0.094957
0.008740
0.097425
-0.118634
-0.669137
-0.578443
-0.145677
-0.002553
0.053323
-0.137190
-0.147491
-0.083401
0.013141
0.369472
0.040592
-0.061633
-0.260810
0.134965
0.163827
0.428843
0.207026
0.062425
0.232013
0.109746
0.164947
0.262774
0.375460
0.186793
0.124375
0.208055
0.351395
0.405475
0.215172
0.303922
-0.016078
-0.081357
0.298803
0.406815
0.256686
0.239070
0.327727
0.197902
0.198436
0.183864
0.068580
0.020422
0.080609
0.015366
0.115500
0.093045
0.239289
0.237338
0.158975
0.126622
0.309347
0.044159
0.054126
0.227979
0.052129
0.117799
0.468890
0.408037
0.238140
0.088937
0.380584
0.291854
0.123617
0.209634
0.052628
-0.025773
0.041908
0.425092
0.366040
0.382168
0.249495
0.397355
0.501438
0.309126
0.125789
0.042939
0.254270
0.054722
0.460833
0.474890
0.309935
0.289221
0.287141
0.252399
0.135140
-0.052279
0.322338
0.241898
-0.025087
0.172817
0.188174
0.341068
0.194837
0.299823
0.269885
0.261699
0.044695
0.116336
0.047800
-0.216998
-0.275801
-0.160698
-0.098777
0.042427
-0.033416
0.032698
0.052768
0.049857
-0.078423
0.210786
0.347682
0.220857
-0.026303
0.057985
0.042864
0.204260
0.373550
0.171335
0.117774
-0.067979
0.242266
0.295954
0.184903
0.076197
0.461117
0.093758
0.032615
0.085273
0.127567
0.220199
0.199173
0.043667
-0.045575
0.267634
0.223469
0.418205
0.227204
0.222899
0.103952
0.058652
0.311444
0.259493
-0.093460
-0.154780
0.012440
0.187618
0.147044
0.095622
-0.146039
0.031307
0.031463
0.016904
0.170335
0.251074
-0.019641
-0.199977
0.082975
0.015216
-0.021686
0.017788
0.064397
0.312844
0.083443
-0.013418
0.227568
0.009951
0.066748
0.000111
-0.137417
-0.021581
-0.073817
-0.009296
-0.037337
0.031931
-0.136594
0.053210
0.136678
0.071274
-0.205321
-0.124416
0.191963
0.131771
0.049770
0.022110
0.330296
-0.128949
0.234762
0.108284
0.088421
0.133697
-0.009261
-0.001092
0.051390
-0.146522
-0.110996
0.023127
0.072159
-0.112877
-0.576582
-0.320888
0.169887
0.075002
0.242997
0.156999
-0.016239
-0.048274
-0.120566
0.003856
0.651766
-0.138788
-0.310133
0.345413
-0.158117
-0.196704
0.005066
-0.122956
0.019472
-0.134648
-0.016576
0.658779
0.071280
-0.386895
0.120285
-0.151067
0.128461
0.247926
-0.036897
-0.060005
0.128673
0.023198
0.461746
-0.045603
-0.508812
0.042672
-0.106928
-0.133555
-0.166199
-0.145973
-0.035503
-0.063545
0.060177
0.081353
-0.278019
-0.250081
0.249841
-0.120583
-0.204531
-0.071338
0.043876
0.033425
0.070515
0.064820
0.132720
0.030331
-0.064565
0.270321
-0.199713
-0.137696
0.023722
0.097886
-0.003073
-0.015148
-0.050759
0.774354
0.307177
-0.249666
0.136172
0.307335
0.071040
0.004428
-0.043859
0.096687
-0.029396
0.033120
0.629046
0.434830
-0.119289
0.025383
0.015895
0.085739
0.067463
-0.036585
0.104529
-0.137516
0.000844
0.131226
-0.017792
-0.170408
-0.222572
-0.320147
0.043592
-0.065629
0.086713
0.171067
-0.056719
-0.013479
-0.115435
-0.082856
-0.002723
-0.217001
-0.172002
0.066364
-0.103666
-0.074786
0.038403
-0.069803
-0.292230
-0.086173
-0.070431
0.248839
0.249706
-0.068142
0.116706
0.118188
-0.095164
0.065630
0.029146
0.090093
0.173263
0.099331
0.191705
0.242489
-0.342912
0.072611
0.224809
0.010539
-0.001276
0.117876
0.004288
0.310892
0.066903
-0.134685
0.159935
-0.305265
-0.025131
0.040541
0.007027
0.033992
0.075922
0.056853
-0.292400
-0.375602
-0.161590
-0.031272
0.144387
0.293984
0.096015
-0.087233
-0.158187
-0.218368
-0.103101
-0.496171
-0.455534
-0.166718
0.245538
0.034594
0.085301
0.092007
0.057973
0.015189
0.181731
0.033995
0.502923
0.280456
-0.181390
0.058528
-0.187331
-0.246598
-0.050459
0.061757
-0.062049
0.066979
0.085017
0.116281
0.160554
0.104189
0.104029
0.149497
0.022559
0.013200
0.034559
-0.148469
-0.135430
0.084520
-0.138675
-0.044114
-0.079962
0.069514
0.340650
0.082962
-0.191563
0.164431
-0.046465
-0.030590
0.021298
-0.488969
-0.368611
-0.303400
0.195533
0.221367
-0.064967
-0.313362
0.044279
-0.187539
-0.079263
-0.007177
-0.321626
-0.161437
0.009269
-0.051892
-0.054675
-0.074467
-0.264963
0.057229
-0.156070
0.084393
-0.035307
-0.172968
0.073738
0.093165
0.120688
-0.045379
-0.210675
-0.025937
0.001371
0.008139
0.042869
-0.022121
-0.129790
-0.031820
-0.078992
0.104166
0.352727
-0.015525
-0.087291
0.030124
-0.111270
-0.043432
0.032354
-0.121063
0.094739
-0.340622
0.033269
0.432158
-0.044990
-0.323176
0.104335
-0.078923
-0.031734
0.044288
-0.928376
-0.726547
-0.280020
0.216123
0.191730
-0.234559
-0.188143
0.139242
-0.157467
0.139930
-0.032046
0.117788
-0.042327
0.040380
0.125379
-0.239023
-0.066265
0.150300
-0.133250
-0.217339
0.097181
-0.071745
-0.076377
-0.013355
0.313386
0.242721
-0.321540
-0.241517
-0.079620
-0.157019
-0.166596
-0.082131
-0.128516
-0.179622
-0.278537
0.249218
0.121179
-0.192244
-0.175036
0.104505
-0.019452
-0.001554
-0.069747
0.069516
-0.043775
-0.054366
0.108013
0.249985
0.066355
-0.215859
-0.021065
0.078232
0.061147
0.059826
0.125441
0.044134
-0.088838
0.099049
0.155456
0.143113
0.122735
0.119801
0.054293
-0.077438
0.051243
0.010830
-0.188876
-0.145484
0.005048
0.096203
0.084591
-0.115956
-0.062517
-0.043225
0.048339
0.035322
0.061317
-0.308967
-0.312177
-0.197795
-0.042370
0.319661
0.065232
-0.056850
0.176020
0.197642
0.093765
-0.027870
-0.156022
-0.269913
-0.297641
0.020048
0.533294
0.254855
-0.033162
0.098102
0.148638
0.063590
0.080049
0.111600
-0.146692
-0.434627
-0.224814
0.414701
0.127728
-0.160532
0.072739
-0.004640
-0.069888
-0.056701
0.290133
0.102082
-0.394778
-0.421692
0.252025
-0.053223
-0.081784
0.139962
-0.093827
-0.092836
0.016015
-0.032645
-0.121530
-0.336703
0.052342
0.413339
0.193529
0.006230
0.095645
-0.024025
0.085134
-0.129199
-0.280073
-0.334313
-0.203580
-0.187870
0.001194
0.159373
0.006915
-0.050267
0.016850
0.019883
0.018243
0.183880
-0.061041
-0.209692
-0.316307
-0.280902
-0.142467
-0.137218
0.019379
0.154604
-0.006782
-0.020534
0.453241
0.458875
0.211394
-0.231068
-0.327288
-0.124825
-0.117896
-0.247516
-0.101490
-0.148754
-0.152427
0.133356
0.225475
0.297921
-0.243443
-0.226847
-0.035419
-0.068608
0.009454
-0.044139
0.017410
-0.023215
0.093215
0.306712
0.292219
-0.075682
-0.053259
-0.156703
0.046776
0.101043
-0.109391
-0.032328
0.092103
0.257312
0.423991
0.623829
0.230516
-0.068428
-0.044429
0.066806
0.035787
-0.117485
-0.146254
0.031034
0.139532
0.353521
0.461682
0.312778
-0.046666
-0.160263
-0.217411
-0.092184
0.117202
0.153241
-0.032142
0.123062
0.051715
0.073289
0.172714
0.313134
0.058183
-0.174478
0.098462
0.001360
0.085248
0.104427
-0.225599
-0.137706
0.025029
0.062182
0.054395
-0.128422
-0.057376
0.111657
0.077510
-0.037894
0.096696
-0.421985
-0.320628
-0.102559
-0.064204
-0.185526
0.094975
0.059812
-0.076786
-0.178904
-0.165716
0.077657
-0.274038
-0.341160
-0.046978
0.034193
0.014689
0.171761
0.049182
0.083411
-0.103575
-0.095804
-0.000971
0.059532
-0.121937
-0.160416
0.111757
0.129155
0.033890
-0.063838
0.093776
0.096505
0.025356
-0.112906
0.290206
-0.105229
-0.218995
0.205271
0.240868
0.317232
0.054336
-0.104543
0.051723
0.003893
0.173956
0.149889
0.230670
0.350523
0.367924
0.168766
0.167143
0.222716
0.062089
0.207266
-0.084464
0.127023
0.034495
0.099384
0.405554
0.106554
-0.049360
-0.001520
0.071892
-0.029363
0.239868
0.028484
0.061021
0.243958
0.086317
-0.250941
-0.214179
0.018904
-0.002282
0.164428
0.224001
0.022666
-0.071976
0.187013
0.161848
0.057357
-0.397267
-0.344404
-0.153125
-0.136329
0.141758
0.126880
-0.048968
-0.050394
-0.001924
-0.275383
-0.320486
-0.196662
0.125396
0.075017
-0.148581
-0.047551
-0.055929
0.004944
-0.010948
0.159529
-0.275255
-0.377526
-0.000623
-0.072058
-0.016976
0.008699
0.074478
0.173534
0.111040
0.122769
-0.017997
-0.383946
-0.418925
-0.060366
-0.276464
-0.235719
0.068850
0.002094
-0.029869
-0.001297
0.044719
-0.128783
-0.244228
-0.260372
-0.188131
-0.006502
0.000542
0.044033
-0.046311
-0.070444
-0.015077
0.005809
-0.054899
0.264727
0.092312
-0.144601
0.005836
0.145802
-0.025026
-0.035972
0.056859
-0.069029
-0.104198
0.259188
0.477601
0.230570
-0.011699
0.076343
0.107516
0.208254
0.053029
0.047823
0.049545
0.079568
-0.141084
0.135698
-0.084838
-0.006319
0.136418
0.032924
-0.111865
-0.247835
-0.078456
0.029963
0.205982
0.068540
-0.373475
-0.413327
-0.124163
-0.118487
-0.075037
-0.056376
-0.047851
0.089139
-0.222412
-0.107556
-0.067693
-0.135164
-0.274908
-0.383789
-0.316534
-0.229583
-0.167632
0.007626
-0.119716
-0.118700
-0.019457
-0.129623
-0.143107
-0.035504
-0.072488
-0.032011
-0.070011
-0.108783
-0.043501
-0.025499
-0.021920
-0.098262
-0.051343
0.110547
0.168689
0.320085
0.048629
-0.009660
0.153031
0.101987
0.027553
-0.098420
0.075582
-0.028713
0.071788
0.172587
0.019277
-0.000287
-0.001081
0.005359
0.018970
-0.125411
0.039240
-0.097930
0.000368
0.086490
0.213773
0.021132
-0.053823
-0.085946
-0.193632
-0.277129
-0.150093
0.028090
-0.063377
-0.069342
0.071348
0.145216
-0.098100
-0.048192
-0.108522
-0.128460
-0.171283
-0.021612
-0.199156
-0.041730
-0.081574
-0.193451
0.012111
-0.128492
-0.114321
-0.232789
-0.428141
-0.321754
-0.085471
-0.249100
-0.259184
0.020457
-0.082415
0.219856
0.123821
-0.063075
-0.223027
-0.211769
-0.380164
-0.372672
-0.326254
-0.239777
-0.320602
0.016219
0.171459
0.003479
-0.403727
-0.210692
-0.256235
-0.292315
-0.294553
-0.301305
-0.094761
-0.013114
0.032146
0.158225
-0.192374
-0.664453
-0.329060
-0.525737
-0.670446
-0.595369
-0.466294
-0.333626
-0.419744
-0.100622
0.044524
0.124481
0.046723
-0.204013
0.169682
0.184804
-0.177059
-0.058368
0.089586
-0.093584
0.068013
0.090570
-0.070696
0.096162
-0.048681
0.026648
0.163371
-0.009478
-0.054390
0.043067
0.041988
-0.266569
-0.095215
0.136200
0.163196
0.232982
0.031098
0.029574
0.031248
-0.160219
0.116233
0.186292
-0.143275
-0.066611
-0.230380
-0.055999
0.083832
-0.143580
0.089881
-0.069524
-0.191529
-0.170907
0.104071
-0.097810
-0.181971
-0.231885
-0.041093
0.084413
-0.121316
-0.198268
0.105094
-0.011726
0.024965
-0.073016
-0.329636
-0.084530
0.116522
0.071444
0.329693
0.188427
0.097004
-0.070825
-0.066569
0.103889
0.055578
-0.283444
-0.038397
0.136196
0.069838
0.200860
0.377885
0.112749
-0.076073
0.040145
-0.094004
0.019889
0.043391
0.235965
0.087429
-0.167835
-0.010106
0.215656
0.170901
0.089234
0.074705
0.114408
-0.078421
0.414732
0.590380
-0.014398
-0.384140
-0.157874
-0.082645
0.100728
0.056052
0.238302
-0.093656
-0.259721
0.425095
0.507381
-0.180742
-0.233901
-0.374609
-0.295311
0.011060
0.066821
0.254508
0.046463
-0.185135
0.390791
0.300595
-0.405767
-0.432442
-0.287147
-0.297600
-0.085944
0.088450
0.193732
0.167197
0.103100
0.333246
0.369765
-0.306001
-0.489804
-0.328169
-0.217281
-0.072706
-0.025567
0.080215
0.238295
0.143820
0.067869
0.066353
-0.115100
-0.253188
-0.334698
-0.135635
-0.023513
0.088793
-0.130833
-0.098790
-0.098778
-0.285477
-0.187631
-0.195688
-0.278305
-0.215430
-0.004883
0.320829
0.184434
0.112262
-0.018618
-0.161988
-0.723257
-0.706511
-0.141689
0.328136
0.330306
0.045575
-0.074770
-0.101367
-0.033872
0.163651
0.119698
-0.428453
-0.563063
-0.067134
0.341396
0.200853
0.077186
-0.072123
-0.017517
-0.075352
-0.136949
-0.178581
-0.071087
-0.172224
0.015804
0.152833
0.179244
-0.004439
-0.160549
-0.100298
-0.130005
-0.068819
0.013607
-0.020650
0.049225
0.156297
0.163090
0.317515
0.324837
0.038472
-0.038782
0.170985
-0.060098
0.060274
0.057714
0.179717
0.201494
0.225656
0.045272
0.127462
-0.073489
-0.088471
0.094598
0.070520
0.065730
-0.016096
-0.019947
0.233231
0.115926
0.041828
0.115603
-0.043806
-0.147336
0.072134
-0.027281
0.043282
0.046992
-0.139290
0.074878
0.166049
0.151694
-0.007018
-0.071269
-0.061170
0.034487
-0.147297
0.189933
-0.110901
0.000463
0.255511
0.152053
-0.040419
-0.022523
-0.098643
-0.130691
-0.066748
-0.078732
0.152187
0.445109
0.290562
0.284986
-0.088729
-0.186019
-0.464442
-0.053458
0.065680
0.072040
0.126331
0.237093
0.426515
0.191000
0.025881
-0.124879
-0.019438
-0.202259
-0.321617
0.008483
0.036412
-0.144748
-0.019488
0.022175
-0.420995
-0.233903
-0.010278
0.080892
0.349856
0.473922
-0.132122
-0.138686
-0.076883
0.016025
-0.604629
-1.073927
-0.428380
-0.215187
-0.321568
0.048577
-0.018416
-0.021181
0.092146
0.167594
-0.014475
0.001942
-0.670732
-0.941385
-0.587601
-0.215471
-0.256363
-0.038126
0.159266
0.063081
0.087371
-0.002217
0.307603
0.212710
-0.190139
-0.040825
-0.060481
-0.057348
0.096632
-0.052752
0.064038
0.212218
-0.123901
0.585963
0.765018
0.530034
0.615149
0.799388
0.356114
0.185251
-0.108694
-0.111845
-0.081270
-0.071411
0.282096
0.760789
0.603937
0.343841
0.735684
0.405109
0.436035
0.276725
0.110884
0.043303
-0.051870
-0.130352
0.328506
0.330804
-0.348084
-0.071740
-0.048194
-0.026946
0.004748
-0.138493
-0.057336
-0.138029
-0.081890
0.734268
0.791909
-0.073266
-0.126746
-0.062321
0.185784
0.019625
0.087165
0.075526
0.065789
0.219679
0.798239
0.798145
0.693436
0.624681
0.192262
0.075255
0.151555
0.296184
0.000474
0.139775
-0.061873
0.197087
0.381406
0.673675
0.548979
0.384380
0.367365
0.521970
0.383147
0.197791
0.390681
-0.189238
-0.117514
0.584284
0.630579
0.441806
0.323815
0.420317
0.227638
0.056631
-0.008021
0.223547
0.266478
0.257500
0.303967
0.409809
0.338963
-0.144563
-0.097064
-0.207714
-0.111002
-0.041048
-0.120372
0.370438
0.209071
0.146502
-0.449525
-0.303948
-0.314151
-0.189667
0.108614
0.011331
-0.083362
0.105718
-0.113913
-0.128810
0.417934
0.057113
-0.008346
0.168677
0.054512
0.044425
0.026417
-0.023311
0.159872
-0.034653
-0.348260
-0.183690
-0.315673
-0.229761
-0.031091
-0.130999
-0.039690
-0.123829
-0.189986
-0.026909
-0.034585
-0.106574
-0.183132
-0.296288
-0.189425
-0.028474
-0.286463
-0.228030
-0.085529
-0.099294
0.013640
-0.107273
-0.185039
0.107218
-0.240489
-0.224995
-0.006000
0.021654
-0.081598
0.041544
0.062391
-0.068089
0.060804
-0.101026
-0.165506
-0.147490
-0.090252
-0.051778
-0.100090
0.008985
-0.176198
-0.018220
0.021220
-0.116521
-0.054542
-0.088619
-0.050737
-0.150966
0.089289
0.027909
-0.012203
0.125454
0.017551
-0.061914
-0.088244
-0.334089
-0.487316
-0.148095
-0.247318
-0.231717
-0.067500
-0.063956
-0.051124
0.095437
-0.127327
0.167562
-0.063954
-0.246408
0.192527
-0.029053
0.088902
0.048829
-0.115568
-0.025233
-0.101196
0.061158
0.315987
0.090623
-0.296878
-0.030103
0.008241
-0.299467
-0.058798
-0.315665
-0.075483
0.057677
-0.307461
0.270313
0.323341
-0.178663
0.556020
0.960231
1.139089
1.058470
0.740147
0.374718
0.342367
0.244310
0.590357
0.840931
0.845838
1.229963
1.136136
1.085170
0.707782
0.409380
0.004729
-0.290109
-0.171996
0.673736
0.995366
0.741136
0.620635
0.480444
0.293079
-0.182834
-0.401491
-0.443826
-0.322304
-0.162016
-0.002941
0.321672
0.218894
-0.080493
-0.139647
-0.161655
-0.197911
-0.282527
-0.586518
-0.499767
-0.644771
-0.147145
0.056385
0.202641
0.093160
0.046117
0.019982
0.016977
-0.048876
-0.420904
-0.264611
-0.543957
-0.108168
-0.178784
-0.230172
0.080197
-0.021090
-0.109542
-0.410510
-0.232493
-0.583657
-0.256254
-0.449708
0.021724
-0.015379
-0.347294
-0.350417
-0.678011
-0.397131
-0.385177
-0.352078
-0.239266
-0.088652
-0.236108
0.109270
0.365528
0.038514
-0.121953
-0.132600
0.197188
0.009590
-0.053738
-0.114389
0.148527
0.041602
-0.063876
0.136911
0.049836
0.116303
-0.004604
-0.193903
-0.184362
-0.069402
-0.037294
-0.006161
-0.167253
-0.072179
-0.051390
-0.139119
-0.166259
-0.139194
-0.047011
-0.066977
-0.068102
-0.160566
-0.090158
-0.103710
-0.133095
-0.027540
-0.103005
0.191399
0.082316
-0.024591
-0.270325
-0.007305
0.076813
-0.031613
-0.030530
-0.135524
0.173045
0.113940
0.042982
-0.181688
-0.008865
-0.059261
-0.057476
0.032871
0.141081
0.179945
-0.038409
-0.128033
-0.320107
-0.054687
0.005486
-0.065817
-0.083765
0.092890
-0.092194
-0.041173
-0.154006
0.121872
0.147674
0.009313
0.067400
-0.089493
0.007153
0.005340
0.028289
-0.032312
0.023296
0.005479
0.151407
0.323101
0.013373
0.004843
-0.102433
0.028139
-0.032285
-0.015536
0.049128
0.058633
0.143813
-0.318852
-0.006156
-0.031186
0.021136
0.077553
0.050769
-0.061167
0.107137
0.015615
0.031085
-0.083435
-0.235726
-0.020680
-0.381867
-0.352278
-0.057206
0.020099
0.101004
0.010895
-0.056482
0.030503
-0.131602
-0.142164
0.109281
0.058617
0.150673
0.000709
0.052816
-0.021280
-0.163388
0.077989
0.109338
0.099001
-0.105062
0.228342
0.204639
0.220041
-0.012666
0.096016
0.171224
0.093588
0.091121
0.020663
0.087598
-0.120395
-0.018588
-0.186366
0.115104
-0.050634
0.003408
-0.113998
-0.035111
-0.088945
-0.008886
0.021476
-0.350833
-0.012281
0.010986
0.112166
0.044664
0.062912
-0.078723
0.012661
0.058482
-0.014428
-0.002837
-0.126241
0.305904
-0.050154
-0.069105
0.050117
-0.111015
-0.160995
0.025081
-0.020896
-0.128213
0.093393
-0.622589
-0.336898
-0.162513
-0.033067
-0.120253
-0.084986
0.006262
0.094366
-0.143213
0.104460
-0.075944
-0.502324
-0.517507
-0.290214
-0.087858
0.157175
-0.037434
-0.019426
0.026104
-0.149614
-0.023268
-0.093574
0.329175
0.000198
-0.618272
-0.559464
0.132295
0.001392
-0.196642
-0.162042
0.102617
0.012665
-0.045911
-0.085418
-0.047089
-0.243583
-0.183881
0.045170
-0.123839
-0.068889
-0.006793
-0.100144
-0.009163
0.108364
0.253589
0.228973
-0.139957
-0.207541
0.064826
0.020314
0.082738
0.039417
-0.020526
-0.020724
-0.048275
-0.055095
0.277478
-0.041632
-0.288306
0.080724
0.333250
0.372586
0.068576
0.039804
0.001574
-0.022907
0.455776
0.782690
0.270131
-0.365920
0.021089
0.033817
0.120266
-0.022854
-0.077931
-0.110467
-0.142128
0.202563
0.559608
-0.018477
-0.211981
0.204277
0.009421
0.056579
-0.148079
-0.055158
0.032440
0.023527
-0.285143
0.084973
0.000619
-0.173972
0.084864
-0.031116
-0.060822
-0.057789
0.076410
0.033840
0.101727
-0.370120
-0.150891
0.042757
-0.443496
0.028940
-0.015413
0.190877
-0.064839
0.075349
0.201074
0.072129
-0.062254
0.025432
-0.263163
-0.623549
-0.128358
0.290682
0.141289
-0.167347
-0.202255
-0.032459
0.082862
0.219149
0.315970
-0.120086
-0.446787
-0.016482
-0.090447
-0.157260
-0.159791
-0.015319
-0.024154
-0.029754
0.492158
0.702202
-0.026445
0.108504
0.266612
-0.108991
-0.080265
-0.009446
0.124469
-0.059387
-0.136550
0.076217
0.106955
0.053633
0.496232
0.449677
-0.230780
-0.017267
-0.050713
-0.012375
0.004224
0.021053
-0.020572
0.027301
-0.110119
0.337377
0.432541
-0.262373
-0.159510
0.111985
0.013396
-0.105703
0.163329
0.149959
0.085069
-0.375081
-0.148450
0.241615
0.012059
-0.025065
0.129870
0.027617
0.003052
-0.050276
-0.059999
0.014948
-0.038054
-0.187940
0.075447
-0.008290
0.194275
0.010265
-0.055962
-0.020107
0.090813
-0.197773
0.184464
0.162685
0.034523
0.042482
0.050225
0.194741
-0.174477
0.148541
0.012368
-0.049584
-0.299851
-0.172572
-0.002986
-0.100627
-0.074545
-0.164802
-0.177868
-0.178807
0.156446
0.025063
-0.017593
-0.116200
-0.548574
-0.265400
0.521797
0.204920
-0.202135
0.006729
0.127282
0.107591
-0.033100
-0.085364
0.226220
-0.225342
-0.243164
0.217195
-0.189402
-0.167893
0.026934
0.006663
-0.083789
-0.029591
0.088583
0.242644
-0.096244
0.039973
0.037859
-0.352833
-0.115488
0.031313
-0.056252
-0.046463
0.002190
-0.015722
-0.036092
-0.415266
0.103650
0.436851
-0.248059
-0.199293
-0.012299
0.003286
0.103805
0.036571
0.013003
0.249455
-0.174273
0.245395
0.639302
-0.095318
-0.202988
0.145803
0.142876
-0.003616
0.063507
-0.108115
0.874835
-0.714172
-0.739661
0.171595
0.140392
-0.200440
0.049237
0.065121
-0.095731
-0.026252
-0.073611
-0.256593
-1.931069
-1.126997
-0.688734
-0.095012
-0.186001
-0.123110
-0.219509
-0.077968
0.158308
-0.111201
0.393774
-1.251027
-0.503819
-0.123278
0.248160
-0.261647
-0.094795
0.188532
-0.028397
-0.010305
0.080826
0.673743
-0.742956
-0.057737
-0.421202
0.140537
0.094574
-0.169650
0.203380
-0.045703
-0.122072
0.044166
0.938684
-0.302911
0.192434
-0.081065
0.420938
0.012089
-0.191037
0.171199
0.093688
-0.127923
0.208212
0.562218
-0.572819
0.228394
-0.174401
0.116250
0.063932
-0.209342
0.135781
0.009110
-0.067070
-0.005021
-0.054622
-1.287169
0.000777
-0.122478
0.113256
0.158315
0.087558
0.180595
0.041500
0.074671
0.116327
0.083646
-1.060161
0.107307
0.024286
0.436294
0.005644
-0.004555
-0.022521
0.018835
0.135646
-0.074833
0.451929
-0.563292
0.193038
-0.053399
0.142467
-0.158827
-0.088731
-0.117517
-0.136572
0.006072
0.035400
0.212179
-0.377763
0.717460
-0.135982
-0.093704
-0.140803
0.083999
0.181347
-0.123042
0.103663
0.067578
0.613190
-0.275636
0.409433
-0.114255
-0.149612
-0.091875
-0.156377
0.084886
-0.124194
-0.072598
-0.057523
0.983679
-0.001765
0.459625
-0.211239
0.026581
-0.116256
0.016091
-0.080383
-0.119287
-0.087324
-0.047027
1.006631
-0.556280
-0.094090
-0.080181
0.093093
0.208085
0.141801
-0.200533
0.021842
0.069922
-0.068820
0.996526
-0.872523
-0.333227
-0.348475
-0.066957
0.018926
-0.145790
-0.024520
0.113548
-0.018116
0.030076
0.911665
-0.726655
0.132562
-0.218352
-0.054383
0.047136
0.008912
0.085849
-0.079230
-0.007458
0.136745
0.434066
-1.090649
0.037990
-0.184761
0.037827
0.151874
0.027587
0.063380
0.190316
-0.052903
-0.052079
0.652053
-0.981132
0.093842
-0.117824
0.069541
0.184003
-0.077391
0.033177
0.071781
-0.096575
0.037852
0.846689
-0.801733
-0.027819
-0.045364
-0.148187
0.070026
-0.063148
0.043804
0.083815
-0.150083
-0.033008
0.759219
-1.239524
0.087627
0.395548
-0.117103
-0.021068
-0.024297
-0.072992
0.135714
-0.022337
0.028128
0.688200
-0.956327
0.068237
0.300445
-0.194734
0.155908
0.044762
0.039732
0.012509
0.028038
-0.072853
0.350428
-1.207092
0.287741
0.270605
-0.450327
-0.085864
-0.088448
-0.056358
-0.051477
-0.075644
-0.043473
0.646166
-0.867607
0.024571
0.197358
-0.290993
0.086634
-0.289237
-0.026170
-0.049169
0.026698
0.035028
0.627864
-1.089210
-0.263237
0.039468
-0.393728
-0.125354
-0.214428
0.025429
-0.051435
-0.045325
-0.204013
0.111535
0.020669
0.064976
0.033229
-0.084409
-0.137903
-0.226916
-0.263450
-0.186314
0.066288
-0.172068
-0.655803
-0.565926
-0.233561
-0.128688
0.369153
0.476351
0.094751
0.038347
0.224875
-0.023082
-0.096378
-0.444170
-0.265553
0.305397
-0.045774
0.271214
0.703273
0.191384
-0.250712
-0.151495
-0.015417
-0.050943
-0.167238
0.131525
0.451053
-0.129650
0.304097
0.285179
-0.061857
0.008608
0.261175
0.094937
-0.163608
0.240578
0.395578
0.193486
-0.011945
0.578480
0.486782
-0.277828
-0.270184
-0.036334
-0.057962
-0.196681
0.173332
0.152580
-0.149937
-0.204846
0.427884
0.297400
0.043953
0.034997
0.155059
0.067797
0.010415
-0.101362
-0.205237
-0.246110
-0.203175
0.118671
0.150467
0.132742
0.212284
0.038160
-0.108325
0.074531
0.198133
0.006782
-0.120561
0.132579
0.240133
0.128486
0.243571
0.187537
0.053952
0.013969
-0.072161
0.283513
0.207294
0.299718
0.265906
0.168886
0.000166
0.121666
-0.060224
0.172972
0.088845
-0.183739
-0.030344
0.263044
0.364573
0.432822
0.075218
-0.232837
-0.084581
-0.025336
-0.098337
0.066904
0.004804
0.116181
0.149744
-0.216020
-0.059180
-0.037000
-0.258240
-0.188167
0.070230
0.100656
-0.126669
-0.091080
0.294228
0.310751
-0.309428
-0.228390
-0.006372
-0.261767
-0.181543
-0.160669
-0.038148
0.024895
-0.053072
0.295034
0.423582
0.090396
-0.008552
0.221525
0.274044
0.086015
-0.129430
0.114484
0.234337
0.179790
0.111960
-0.102676
-0.255409
-0.056253
0.096014
0.113050
0.027262
0.004989
-0.077737
-0.080389
0.005931
0.208684
0.366741
0.290299
0.049831
-0.084716
-0.263900
-0.220939
-0.055540
-0.085849
-0.127219
0.133384
-0.044446
0.291559
0.095680
-0.107986
-0.104300
-0.019593
0.068359
0.226768
-0.054178
-0.036028
0.016109
-0.127308
-0.130505
-0.176651
-0.056161
0.021521
0.209989
0.019578
-0.037866
-0.112883
-0.023063
0.113374
-0.065593
0.223097
0.023117
-0.099605
0.093710
0.102343
0.107525
0.007048
-0.169114
-0.074186
0.133676
-0.128019
0.185609
0.068801
-0.068267
-0.085318
-0.055000
0.012632
0.057914
-0.077412
-0.158499
-0.130254
0.049210
0.064416
-0.081527
0.106590
0.093360
-0.163403
-0.246773
-0.049256
-0.141109
0.065904
0.087173
0.257025
0.002828
-0.170971
0.257214
-0.210240
-0.295526
-0.084555
0.117266
0.263128
-0.004363
-0.019415
-0.199998
-0.220212
0.132434
0.514399
-0.132050
0.046320
0.000335
-0.118578
-0.221252
0.026232
-0.047193
-0.088268
-0.023722
0.115333
0.357601
0.264969
0.317030
0.069345
-0.077501
0.010697
-0.037205
0.163770
-0.022566
-0.172077
0.125165
0.108937
0.007026
-0.073629
0.101279
0.078996
0.055054
-0.013425
0.051965
0.402531
0.045857
0.072217
0.056460
0.314294
-0.083409
-0.050966
-0.037888
-0.173836
-0.203301
-0.042695
0.070008
-0.256467
-0.289208
-0.207965
-0.118490
-0.248496
-0.012075
0.039353
-0.054756
-0.007564
0.064457
0.047521
-0.680688
-0.677287
-0.287694
-0.188054
-0.117328
0.095593
-0.149120
-0.106493
-0.057695
-0.201768
-0.305960
-1.018552
-0.514182
-0.190013
-0.025367
0.011114
-0.032195
-0.040199
-0.029988
0.048478
-0.016476
-0.280904
-0.737277
-0.300825
-0.198951
-0.049162
-0.102226
-0.124099
-0.035548
0.187129
-0.117574
-0.109011
-0.318980
-0.661667
-0.325034
-0.401381
-0.191561
-0.011526
-0.211223
-0.084024
-0.038793
-0.155750
-0.110517
-0.317122
-0.837398
-0.537320
-0.237644
-0.202346
-0.100913
-0.262540
0.014925
-0.026009
-0.082642
-0.027999
-0.282298
-0.599810
-0.307396
-0.549845
-0.469617
-0.260362
-0.170452
-0.115231
-0.251388
-0.084406
-0.100516
-0.156529
-0.399202
0.023551
0.039276
-0.194018
-0.123386
-0.016880
-0.038554
0.062484
0.200737
-0.101109
0.176126
-0.042739
0.119881
0.145360
-0.110946
0.133367
-0.048811
-0.073605
-0.060976
-0.050167
-0.116250
0.580760
0.427567
0.342430
0.133402
0.127623
0.101867
-0.045800
0.070549
0.042415
0.110750
-0.177103
-0.042364
-0.172780
-0.147075
-0.025755
-0.002076
0.079754
0.034737
0.062117
-0.091470
-0.072151
-0.059853
0.439483
0.376888
0.340178
0.091061
0.078016
0.072929
0.089193
0.091292
-0.015378
0.118045
0.006607
0.513093
0.198188
0.347862
0.305602
0.117421
0.143136
-0.177904
-0.080548
-0.063521
-0.048291
0.069672
0.329045
0.007318
0.089765
0.198377
0.179081
0.172277
-0.008343
-0.096458
0.119034
0.043199
-0.152854
0.208042
0.146384
0.161338
0.195501
-0.066306
0.084625
0.073250
0.128163
0.165591
0.093777
0.050464
0.043859
-0.313174
0.047902
-0.065586
-0.014211
0.132794
0.143165
-0.068926
-0.020368
-0.107333
0.098204
-0.272092
-0.711956
-0.174742
0.137409
-0.138422
-0.153829
0.018698
0.000551
0.050928
0.111453
-0.019226
-0.121087
-0.533208
-0.059891
0.078447
-0.041460
0.063957
0.199876
0.141728
-0.021386
-0.032775
0.207667
0.247000
-0.088285
0.224237
0.487494
0.202052
-0.154313
0.098090
0.181126
0.143071
-0.160779
0.267112
0.347872
0.468130
0.423513
0.163008
0.083644
0.220658
0.221932
-0.040573
-0.013767
-0.052376
0.036618
0.088496
0.329157
0.936030
0.590358
0.166488
0.346757
0.202894
-0.015350
0.184172
-0.009758
0.045401
-0.113741
0.460882
0.218691
0.069936
0.182003
-0.032484
0.124494
-0.035772
-0.056265
0.050867
-0.083208
-0.223440
0.277264
-0.427066
-0.398391
-0.003022
-0.179857
0.039418
-0.035449
0.040741
-0.027396
-0.031071
-0.532213
0.026264
-0.157392
-0.264728
0.023621
0.129662
-0.120689
0.019047
0.079635
-0.037977
-0.039916
0.006559
0.488205
0.129233
0.058307
-0.113859
-0.087159
-0.092752
0.043331
-0.136535
-0.053253
0.078227
0.160549
0.973627
0.521896
0.040235
-0.154677
-0.031604
0.044172
0.063428
0.032446
0.065301
0.125281
0.400292
0.865991
0.149927
-0.336572
-0.029721
0.158673
0.114655
0.025465
0.078946
-0.044423
-0.064486
0.257972
0.387166
0.009315
-0.180686
-0.027713
0.051485
-0.124259
-0.036719
0.067541
0.012608
-0.112163
-0.440872
-0.300650
0.252230
0.162821
-0.042089
-0.132253
0.014183
0.001069
-0.004500
0.034949
-0.062091
-0.894249
-0.817350
0.058194
0.268102
0.016366
-0.031474
-0.150071
-0.063657
-0.092656
0.011887
-0.021590
-0.219487
-0.519834
-0.478836
0.186533
0.296305
-0.158438
0.016266
-0.139998
-0.100750
-0.032262
0.038046
0.618863
0.384966
-0.052787
0.205118
0.186531
0.133509
0.241096
0.044206
-0.008426
-0.123308
0.120910
0.396711
0.419559
0.171993
0.029230
-0.019471
-0.159748
-0.159184
0.113600
0.039898
0.048895
-0.040116
-0.626861
-0.697549
-0.210187
0.096366
-0.151794
-0.164410
-0.021859
-0.014378
0.022117
0.031557
-0.100572
-0.297068
-0.440575
-0.037656
0.413338
0.179704
0.162263
0.109677
-0.010684
0.072327
-0.071187
-0.006195
0.397335
0.285535
-0.468068
-0.330170
-0.258505
-0.027754
0.071612
-0.040025
-0.065328
-0.032764
0.016757
-1.253518
-1.284314
-0.673998
-0.275139
-0.320663
-0.155362
-0.225020
-0.187274
-0.065715
0.031742
-0.104582
-1.198550
-1.252300
-0.883612
-0.313033
-0.090404
0.022384
0.100157
-0.026912
-0.061397
0.096353
-0.097946
-0.647358
-0.591781
-0.588000
-0.590545
-0.207453
-0.202012
-0.072341
-0.114815
-0.127766
0.050517
-0.178827
-0.248432
-0.523884
-0.553331
-0.183066
-0.161043
-0.376306
-0.289470
-0.056857
-0.023131
-0.006645
0.025138
0.003440
0.037747
0.010961
0.158729
0.286360
0.054640
0.103123
0.067935
0.135320
-0.112176
0.019535
0.976269
1.277450
0.702614
0.232815
0.309317
0.192810
0.123096
0.198131
0.057616
0.025323
0.049156
1.256436
1.629422
1.079342
0.219402
0.183351
0.132963
0.058979
0.147043
0.107553
-0.049115
0.122557
0.568314
0.753865
0.716082
0.082947
-0.029534
0.226346
-0.007584
-0.047065
-0.036501
-0.087706
0.094952
-0.073089
0.189369
0.220452
0.137635
-0.029886
-0.062609
-0.047127
-0.075502
-0.127718
0.305004
0.370269
0.023573
0.139994
-0.085280
-0.029233
-0.082947
-0.235988
-0.089395
-0.188967
-0.337625
-0.128302
0.269902
0.113856
0.018943
0.019761
-0.015194
-0.094580
-0.024027
-0.100496
-0.128571
-0.277875
-0.293515
-0.049741
0.067169
-0.038835
-0.094492
0.214819
0.172667
-0.084011
-0.041719
-0.031013
-0.217381
-0.070022
0.086173
0.092057
-0.094206
-0.053047
0.246000
0.181887
0.048589
0.215806
0.146586
-0.172243
0.013022
0.230214
0.021315
0.071636
0.032475
0.158828
0.025824
-0.044356
0.116896
0.173600
0.094959
-0.114366
0.075162
-0.030825
-0.021218
-0.050006
0.021095
-0.023413
0.016987
0.066743
0.074823
0.078334
0.078530
-0.058561
0.155908
0.066355
-0.115227
-0.016047
0.069970
-0.054577
0.075122
0.194026
0.216939
0.093514
0.101333
0.171537
0.054556
0.086573
-0.041331
-0.059577
-0.009987
0.061236
0.117932
0.233143
0.127611
-0.105293
0.147167
0.009804
-0.015478
0.016383
-0.115250
0.014982
-0.001452
-0.100118
0.038591
-0.038558
-0.099063
-0.014764
-0.159351
-0.158246
-0.087199
-0.096790
-0.097304
0.012416
-0.001372
-0.053382
0.018337
0.050657
0.029497
-0.186223
-0.002482
-0.017209
-0.071641
0.052003
0.098172
0.041404
0.019107
0.109128
-0.043206
0.088628
0.056796
0.028532
0.063167
-0.111561
-0.066300
0.090128
0.138800
0.147308
-0.000827
-0.126830
-0.047605
-0.013630
0.114854
-0.108387
0.012706
-0.102009
-0.080774
-0.047120
-0.054428
0.000002
0.101644
-0.078666
0.029655
-0.012483
-0.122203
-0.049430
0.152390
0.053973
-0.140717
0.043428
0.145628
-0.039742
-0.119433
-0.104358
-0.155334
-0.177347
0.036963
-0.063264
0.127495
-0.116348
0.017681
0.069887
0.052404
-0.014123
0.065655
-0.084017
0.005930
-0.039132
0.017072
-0.078636
-0.026371
0.028051
0.155183
0.178153
-0.208914
-0.082589
0.011830
-0.018268
-0.016521
0.018850
0.023643
-0.048238
0.053955
-0.008229
0.033403
-0.187543
-0.056255
0.016123
-0.074387
-0.082630
-0.104731
-0.194189
-0.097186
-0.058720
-0.079722
0.031473
-0.105553
0.030708
-0.034153
-0.032664
-0.033009
0.001590
-0.139704
-0.025262
0.057299
-0.101209
0.104816
-0.077862
-0.156615
0.035278
0.002945
-0.020532
-0.043437
-0.108789
-0.010597
-0.127494
-0.279142
0.224002
-0.050862
0.018052
0.090985
0.035846
-0.004658
-0.097652
0.006089
-0.129965
-0.122544
-0.112969
0.103610
-0.051361
-0.164411
-0.023812
0.082026
0.015324
0.017286
-0.037828
-0.030391
-0.216922
-0.160961
0.157256
-0.094059
0.033101
-0.483598
-0.685649
-0.573829
-0.435808
-0.281158
-0.013002
-0.116132
-0.073374
0.132877
-0.078584
-0.211229
-0.586430
-0.871067
-0.600324
-0.114711
0.026621
0.331108
0.293585
-0.041989
0.186733
-0.275864
-0.118435
-0.546031
-0.665115
-0.525094
-0.054423
0.327508
0.340527
0.604475
0.431170
0.359608
0.324759
0.591567
-0.245974
-0.298366
-0.100846
0.204387
0.381533
0.375402
0.644939
0.462127
0.523578
0.555419
0.915512
0.113081
-0.147094
0.077150
0.259461
0.369941
0.254244
0.488304
0.140403
0.331647
0.349208
0.478168
0.182683
0.056752
0.093002
-0.116070
-0.071474
-0.105711
0.067944
0.080074
0.146056
-0.240345
-0.085133
0.028445
0.118065
0.164254
-0.002002
0.044100
0.010454
-0.013525
-0.112265
0.033401
-0.419683
-0.204212
-0.235758
-0.025096
0.140641
0.162632
0.024374
0.088768
0.009735
-0.171690
-0.015372
-0.139395
-0.174152
-0.094776
0.001352
-0.104174
0.079747
0.048506
-0.047324
0.052963
-0.095846
-0.030616
0.184007
0.414763
-0.183199
0.020738
0.039973
-0.069521
-0.027951
0.042725
0.107298
-0.006269
-0.015105
0.283672
0.316975
0.053638
0.179371
0.065631
0.028065
0.035392
0.002951
-0.033719
-0.229296
-0.193390
-0.262425
0.124419
0.260058
0.245668
0.184974
0.034323
-0.096183
-0.161294
-0.189542
-0.075054
-0.179252
-0.370918
-0.122532
0.027447
0.052884
-0.075052
-0.088641
0.056668
0.153380
0.169717
-0.003970
-0.072716
0.014194
0.365471
0.144090
-0.198300
-0.240745
0.033530
0.190653
0.018542
-0.010692
0.095302
0.106161
0.255357
0.393179
-0.126928
0.014730
0.011620
0.014783
-0.037183
-0.081889
0.246984
-0.078760
0.120049
-0.196362
0.045579
0.038343
0.294063
0.034457
-0.032775
-0.193033
-0.086813
-0.170846
-0.136191
-0.107066
-0.325153
-0.133740
-0.261124
0.090152
0.132538
0.086780
-0.006338
-0.066879
-0.214094
-0.002201
-0.012334
-0.129690
0.163975
-0.111415
-0.072062
-0.105532
0.082729
0.177029
0.082008
0.077074
0.090463
0.023518
0.077782
0.288611
-0.120386
0.096042
-0.100816
-0.198166
0.012192
0.170781
-0.006792
-0.030425
0.060847
-0.111039
-0.034107
-0.446196
-0.048847
0.098924
-0.078528
0.060288
0.027903
-0.080237
-0.050825
-0.122859
-0.088986
0.144374
0.002111
0.004456
-0.012511
0.010191
0.044702
-0.006406
0.080422
-0.022745
0.050385
-0.118668
0.096819
0.018374
-0.045514
-0.018396
-0.144035
0.112672
-0.001959
0.104246
0.019869
0.004109
-0.346538
-0.000255
0.194133
0.097511
-0.058729
-0.017906
0.044276
0.007431
-0.085616
0.065915
0.001764
1.137114
2.079485
0.811052
0.538485
0.245517
0.064805
-0.100311
-0.095027
-0.012459
-0.066821
0.053847
-0.652965
-0.029403
-0.112097
0.155859
0.147386
0.258962
-0.017921
-0.068197
-0.034918
0.014970
0.027014
-1.208696
-0.846594
0.319735
0.805926
0.158142
0.182479
0.028947
0.034376
0.085818
0.019052
-0.005139
-0.607626
-0.265050
0.378949
0.306325
-0.259966
0.370484
0.249273
0.317286
0.046998
-0.038598
-0.193362
-0.069915
0.149492
-0.058887
0.366423
-0.052469
0.189552
-0.094705
-0.144459
-0.186065
-0.011277
-0.116218
0.272180
1.115475
0.208315
0.691091
0.238480
0.138140
0.038944
0.099174
-0.084291
0.136557
0.133696
0.706800
1.582091
0.370017
0.521480
0.217168
0.064059
-0.076059
0.152410
0.056832
-0.022988
0.016246
-0.081212
0.841428
-0.559025
-0.317910
-0.039116
-0.132358
-0.013178
0.141411
-0.091219
0.007990
-0.135663
-0.394602
0.266907
-0.990821
-0.873743
-0.828633
-0.620268
-0.171738
0.144645
-0.292724
0.040958
0.095965
-0.908854
-0.358093
-0.540671
-0.927942
-0.563139
-0.154226
-0.308472
0.010114
-0.108089
0.078695
0.020605
-0.818582
-0.679461
-0.894308
-0.576049
-0.306336
0.068841
-0.039731
-0.174485
-0.071387
-0.003546
-0.094422
0.469114
0.237084
-0.580738
-0.122970
0.002071
-0.005584
-0.015163
0.053690
-0.018025
-0.133493
-0.016506
0.131427
0.646086
0.713729
0.541494
0.248090
0.448992
-0.040043
-0.113395
0.003348
0.090663
-0.039836
-0.012735
0.588498
0.451957
0.791259
0.556115
0.314325
0.115222
-0.070717
-0.035746
0.034801
-0.059993
-0.064453
0.549693
-0.117083
0.089269
0.303095
0.102218
0.103490
-0.057825
0.094855
-0.117887
0.128294
-0.541841
-0.145161
-0.328466
-0.334695
-0.409142
-0.238714
-0.150510
-0.124716
0.038205
-0.067725
-0.120467
0.026502
0.204535
0.195419
0.008156
-0.353944
-0.175567
-0.040200
-0.063944
-0.053185
-0.082158
-0.049819
-0.045241
0.151849
-0.085148
-0.163069
-0.031852
0.023139
-0.136149
-0.025950
-0.113310
0.054710
0.017876
0.242588
0.041088
-0.388321
0.361631
0.250909
0.109685
-0.032807
0.017886
0.042364
0.039727
0.119830
-0.210978
0.111303
0.127834
0.002586
-0.117809
-0.057592
-0.067059
0.050451
0.034422
-0.109029
0.055925
0.000114
0.264038
0.039889
0.082790
0.161429
-0.083739
-0.170466
0.076088
-0.135418
-0.032088
0.046014
0.391361
-0.079737
-0.022546
-0.130002
-0.246628
-0.046782
-0.030722
-0.053163
0.126947
-0.072402
0.046858
-0.288798
-0.371585
0.320152
0.308918
0.084982
0.156698
0.065772
-0.076291
0.160673
0.049889
-0.034213
-0.516650
0.656928
0.704812
-0.293720
0.014713
0.129408
-0.201825
0.176561
-0.044256
0.006746
0.022920
-0.372843
-0.486205
-1.023493
0.055738
0.232987
0.266860
0.004379
0.119319
0.000091
0.105987
0.063967
-0.682646
-0.763927
-1.477064
-0.785118
-0.814261
-0.593413
-0.469015
-0.262424
-0.312414
-0.093582
-0.180798
0.344933
1.042414
0.137368
-0.050330
-0.000199
0.033376
0.137725
0.210313
0.092385
0.002368
0.138851
0.843483
2.013752
1.478559
1.068242
0.971326
0.684343
0.707242
0.459488
0.413049
0.317435
0.387627
0.173938
1.231298
0.962076
0.988126
0.703886
0.509627
0.484120
0.457884
0.552049
0.067128
0.321588
-0.135499
0.742678
0.753720
0.583482
0.492482
0.539129
0.341314
0.258115
0.385570
0.158364
0.345910
-0.270489
0.164063
-0.344614
-0.051199
-0.122070
0.042806
0.177920
0.088497
0.084152
0.008103
0.142024
-0.625909
-0.375832
-0.464050
-0.097910
0.030281
0.054649
0.229478
0.165610
0.052447
0.065964
-0.067836
-0.510262
0.380892
0.248393
0.169551
0.149797
0.126868
0.243948
0.042263
0.088444
-0.022225
0.314138
-0.012513
0.682733
0.525682
0.834825
0.608855
0.173294
0.102614
-0.009838
0.351158
0.044788
0.172671
0.272846
0.715060
0.292357
0.503558
0.156001
-0.104633
0.170079
-0.148986
-0.082275
-0.045277
-0.074952
-0.253197
-0.170958
0.108772
0.070629
-0.174905
-0.263532
-0.195497
-0.134229
-0.143345
-0.107783
-0.370916
-0.654780
-0.265636
-0.131913
-0.500473
-0.483483
-0.312600
-0.258992
-0.162599
-0.259192
0.033188
-0.237796
-0.342203
0.151253
0.006260
0.010673
-0.110115
-0.060918
-0.155732
-0.104987
-0.139927
-0.058750
-0.074439
0.507186
0.390524
-0.427923
-0.143830
0.084262
0.151921
0.075203
0.061846
-0.041071
0.137752
-0.023171
-0.180205
-0.219584
-0.142408
0.016205
-0.175784
-0.061257
-0.084656
0.067679
-0.033254
-0.056397
-0.043201
0.136865
-0.002925
-0.588441
-0.281561
-0.127672
-0.081763
-0.171755
-0.162235
-0.140745
-0.025145
-0.104737
-0.059100
0.087555
0.070842
-0.002311
0.014701
-0.094215
-0.071332
0.022830
0.049621
-0.023944
0.088748
0.016916
0.125114
0.051813
-0.169994
0.096255
0.138592
0.065809
0.111631
-0.078313
0.091172
-0.049708
-0.086997
-0.120490
-0.164858
-0.127455
0.032396
0.049707
-0.059641
-0.014327
-0.015344
0.077615
0.044436
0.134454
0.152670
0.183055
-0.075142
-0.073616
-0.108324
0.076020
0.109128
-0.109244
0.008361
-0.048525
-0.020124
-0.109947
0.258416
-0.003522
0.093148
0.093509
-0.102320
0.061120
0.091019
-0.031351
0.073346
0.290527
0.776985
0.602596
0.309608
0.095988
0.027576
-0.114537
-0.045720
0.015120
-0.081703
-0.020039
-0.119479
0.013806
-0.231854
-0.320600
-0.279195
-0.193245
-0.097105
-0.109001
-0.096307
-0.062930
-0.019479
-0.111737
0.091255
0.145233
0.237978
0.266140
0.088771
0.093060
0.090142
0.116294
-0.095659
-0.055092
0.025863
0.561771
0.577982
0.219930
0.030019
-0.081517
-0.002355
0.016088
0.089479
0.090823
0.236915
0.027887
0.264238
-0.060382
-0.096566
-0.140832
-0.131820
-0.142436
-0.237686
-0.142672
-0.076644
-0.139461
-0.308062
-0.418371
-0.812268
-0.742615
-0.656042
-0.450763
-0.098952
-0.025493
0.027169
-0.061554
-0.058721
-0.476258
-0.628484
-0.575240
-0.375279
-0.094425
-0.095574
0.003206
0.020480
-0.000972
0.012320
-0.061949
-0.208088
-0.372958
-0.244950
0.328173
0.528136
0.390331
0.256499
0.251220
0.212404
0.128537
0.313311
0.208766
0.363435
0.211903
0.600420
0.806051
0.557713
0.490495
0.477100
0.347432
0.239555
0.405225
0.704418
1.036726
0.833043
0.443348
0.042670
0.298935
0.208388
0.182704
0.080280
0.023757
0.106280
0.899259
0.975062
0.053114
-0.201723
-0.593278
-0.304257
-0.488871
-0.443465
-0.230883
-0.230685
-0.352001
-0.177187
-0.222580
-0.650238
-0.481279
-0.474164
-0.451349
-0.411246
-0.253276
-0.229968
-0.060072
-0.019775
-0.704594
-0.436516
-0.052788
0.142471
0.114139
0.212461
0.376022
0.088358
0.045973
0.024894
-0.019283
-0.138450
0.211860
0.197007
-0.173364
-0.205674
-0.188059
-0.335021
-0.162555
-0.056386
-0.008858
-0.118918
-0.084666
0.147750
0.053710
-0.069169
0.126825
0.166959
0.157111
0.121848
0.114817
0.045509
0.005404
-0.059256
0.295613
0.459306
0.579390
0.463469
0.240905
0.134156
-0.000251
0.165799
0.073191
0.116580
-0.173557
0.035207
-0.171459
0.011424
-0.094672
-0.261251
-0.100920
-0.099749
-0.090615
0.011674
-0.013202
-0.119304
-0.239106
-0.327637
-0.255683
-0.231314
0.011148
0.131123
0.182724
-0.035480
0.042496
-0.006652
-0.131509
-0.111653
0.117808
0.058033
0.044648
-0.029378
0.013872
0.069440
0.025844
-0.065757
0.010498
-0.241640
-0.244136
-0.247409
-0.125370
-0.057525
0.017745
-0.054513
-0.083373
0.052284
0.030263
-0.050015
-0.006158
0.281295
0.011710
-0.064503
0.103898
0.129612
-0.026410
-0.022907
0.035273
-0.070098
0.052378
-0.007131
0.179162
0.087407
-0.084634
-0.076316
-0.043313
0.086619
-0.087393
-0.000969
0.126663
-0.042179
-0.351138
-0.124647
0.273987
0.437067
0.241671
0.095170
0.065504
0.149910
0.052472
-0.046815
-0.039608
0.498376
0.355336
0.066481
-0.088179
-0.123382
-0.181352
-0.084826
0.197845
0.095500
0.050666
0.013111
-0.224735
-0.300618
0.158947
0.214304
0.292123
0.029115
0.145532
0.335468
0.058106
-0.044079
-0.022226
0.025266
-0.022671
0.048685
-0.168367
-0.142577
-0.116106
-0.164290
-0.016037
-0.107886
0.024293
-0.139742
0.507261
0.233842
0.159690
0.068863
0.122715
-0.161090
-0.210742
0.102425
0.201255
0.214789
0.152307
0.541443
0.303927
-0.202270
-0.182616
-0.080662
-0.109972
-0.030204
0.016531
0.028845
-0.083597
0.018429
0.023647
-0.236346
-0.368259
-0.500770
-0.244388
-0.050585
0.028554
0.074795
-0.007627
-0.019803
-0.079294
-0.527901
-0.787475
-0.678051
-0.403715
-0.225964
0.263604
0.289710
0.278585
0.123005
-0.042546
0.065655
-0.460638
-0.568278
-0.373301
-0.312987
-0.088883
0.303860
0.184301
0.006189
0.055545
0.002652
-0.130183
-0.139748
-0.093273
-0.203312
0.141091
0.234815
0.556063
0.429656
-0.007234
0.114363
0.065302
0.100466
0.164668
0.246329
0.315431
0.460789
0.433454
0.337608
0.184933
-0.072327
-0.325820
-0.297997
-0.001037
0.563763
0.413097
0.123943
0.108292
0.298255
0.269419
0.028063
-0.190942
-0.381414
-0.181297
-0.050763
0.305977
0.233819
-0.019220
-0.093835
-0.052082
0.114198
-0.001970
-0.079496
-0.120394
0.097103
-0.035503
0.597684
0.655021
0.239923
-0.074318
-0.340926
-0.178105
-0.108720
0.045782
0.077619
-0.023122
-0.089808
0.135047
0.292011
0.335413
0.098972
-0.224193
-0.140692
-0.161343
-0.034709
-0.039509
-0.053408
-0.030402
-0.680527
-0.641016
-0.090501
0.014922
-0.045958
-0.232753
-0.368136
-0.102504
0.010402
0.186014
0.225884
-0.235783
-0.135953
0.027187
0.021392
0.090261
-0.177096
-0.366747
0.009674
0.139513
0.043150
0.056494
0.151378
0.216899
-0.138427
-0.391134
-0.023284
0.000661
-0.063851
0.075419
0.070783
-0.077635
-0.090173
-0.137864
-0.012457
-0.071149
-0.032805
-0.080949
-0.067060
0.059841
0.170280
-0.065678
-0.070874
-0.042638
0.164073
0.416969
0.344406
0.356650
0.158670
-0.063795
0.020224
0.060079
-0.092976
-0.052888
-0.003590
-0.273071
0.087004
-0.022923
-0.163027
-0.062527
-0.104863
-0.136388
-0.048581
-0.047373
0.029617
0.107181
-0.211183
-0.185457
-0.170761
-0.065084
-0.073091
-0.065970
-0.170963
0.052591
0.106796
0.066434
0.004077
-0.198579
-0.129457
-0.241738
-0.027680
0.076843
-0.008361
0.079512
-0.013956
0.026660
0.107299
0.046983
0.111251
0.383291
0.293295
0.270313
0.187431
0.326912
0.242811
0.007828
-0.129764
-0.014333
-0.039791
0.031423
-0.151244
0.084994
0.193572
-0.075635
-0.242215
-0.011671
-0.124434
0.126399
0.092397
-0.075659
-0.261840
-0.150588
0.117068
0.306398
0.360515
0.158205
0.039838
0.068764
0.119133
-0.217643
0.141996
-0.002771
0.215660
0.865423
0.362413
0.305669
0.091193
0.051326
-0.198549
0.025530
-0.075731
0.046350
0.131479
0.039603
0.051186
-0.153015
0.153806
0.143501
0.014311
-0.424844
-0.139460
0.039578
0.033871
0.019925
-0.181276
-0.054479
-0.118073
0.111847
0.140983
0.161364
0.122916
0.110363
0.002586
-0.005714
-0.041500
-0.161745
0.132266
0.247421
0.053772
0.134289
0.148025
0.190000
0.003060
0.082873
0.115639
-0.079590
-0.230512
-0.096017
0.079937
0.163194
0.266067
0.150632
0.171223
0.094185
-0.050161
-0.093010
0.025404
-0.254233
-0.220053
0.036755
0.137134
0.111599
0.176024
0.086836
0.091340
0.060943
-0.036154
-0.076024
-0.101545
0.010089
0.006525
0.054249
0.140498
0.115374
0.153780
0.214122
0.133622
-0.136825
-0.055716
-0.276823
-0.366897
-0.326841
-0.143947
0.206158
0.167352
-0.031749
0.068158
-0.003874
0.002519
0.122509
-0.138435
-0.340320
-0.661084
-0.558873
-0.314147
-0.168697
-0.198575
0.022470
0.081658
0.000471
-0.191369
-0.460539
-0.318636
-0.383392
-0.445711
0.120061
0.136244
-0.092774
0.020278
-0.027946
-0.148456
-0.085637
-0.103721
0.263166
0.116679
-0.043314
0.006956
0.115510
-0.041977
-0.036726
0.093091
0.002046
0.230351
0.159660
0.006339
0.071191
-0.024952
-0.049570
0.029518
0.058260
0.008454
-0.055173
-0.151139
-0.159799
-0.083365
-0.275198
0.006408
0.112638
0.165325
0.068510
-0.076257
-0.050867
0.086803
0.185148
-0.295643
-0.172267
-0.391293
-0.136908
0.192408
0.388918
0.152657
0.016346
-0.038306
-0.094156
-0.087283
-0.427458
-0.571182
-0.547857
-0.304783
-0.020568
0.089081
0.161328
0.089663
0.030415
0.031671
0.040760
-0.402829
-0.163309
-0.097619
-0.340166
-0.190574
-0.040671
0.111331
0.107644
0.131836
-0.047109
0.073947
0.029805
0.482640
0.210051
-0.219145
-0.163238
-0.194376
-0.045384
0.169241
0.150339
0.057806
0.216278
-0.156990
0.274689
0.360857
-0.038571
-0.254092
-0.115304
-0.129571
-0.157398
-0.043126
-0.018533
0.103665
-0.076911
0.109042
0.215681
0.297825
0.113424
0.035209
0.165774
0.087910
-0.093495
0.027487
-0.050884
-0.072798
0.376246
-0.015109
0.014955
0.052372
-0.171004
0.037047
0.013994
-0.132343
0.065658
-0.183844
0.034310
0.410847
0.091954
-0.352579
-0.039721
-0.034837
-0.134404
-0.011357
-0.164526
-0.047946
0.007803
0.524903
0.339402
0.032507
-0.013700
-0.011800
-0.133135
0.233923
-0.008858
-0.051085
-0.083487
-0.027823
0.067758
0.328596
0.312183
0.031620
-0.240364
-0.337106
-0.175397
-0.150795
-0.029154
-0.002488
0.038135
-0.678400
-0.805028
0.081130
0.460606
0.144908
0.000299
0.134524
-0.009580
-0.019289
0.020461
0.025828
-1.493718
-1.628004
-0.010543
0.375682
0.435746
0.491670
0.264331
0.067283
0.067126
0.040714
-0.001133
-1.273722
-1.996110
-0.817789
-0.352924
-0.048065
0.389787
0.103033
0.032316
0.097316
0.059645
0.026412
0.470582
0.138412
-0.363811
-0.679298
-0.424004
-0.136598
-0.265691
-0.093401
-0.001715
-0.212961
-0.035134
1.255925
1.531134
0.369262
0.106104
0.055829
0.008198
0.032921
0.112299
0.110142
0.028683
-0.094193
1.213275
1.971773
0.828055
0.089633
0.051490
-0.068760
-0.060659
0.119599
-0.084158
0.121992
-0.018917
-0.221283
0.311449
0.298607
0.298146
0.398911
-0.082497
-0.287820
-0.029789
-0.005901
0.007964
-0.105931
0.331459
0.057577
-0.640833
-0.295320
-0.688842
-0.600936
-0.348994
-0.167328
-0.087475
0.024440
-0.037242
0.897664
0.389375
-0.928560
-1.143030
-0.721691
-0.400473
-0.156218
-0.069229
-0.159579
-0.078555
-0.136890
0.161102
0.200281
-0.261890
-0.621234
-0.013233
0.523167
0.300804
0.068913
0.029618
0.084488
0.046822
-0.607223
0.110976
0.932522
0.246179
0.137285
0.379411
0.240970
0.137364
0.226063
0.111355
0.004034
-0.226538
0.059396
-0.036494
0.428088
0.167768
-0.052472
-0.092010
-0.214182
-0.020879
-0.046500
-0.063997
0.233883
0.083953
-0.670301
-0.116771
-0.065372
-0.200720
-0.064667
-0.047371
-0.019864
-0.035728
0.079390
-0.231267
-0.151189
-0.020583
0.297895
0.047382
-0.144963
-0.144750
-0.000465
-0.037073
0.005622
0.062849
0.456084
0.236709
0.101470
0.110191
0.088677
0.022367
0.046025
0.223991
0.126100
0.018099
0.006803
-0.219449
-0.385395
0.136216
-0.056702
0.011702
0.170023
0.001766
-0.117949
-0.059450
0.008574
0.112296
0.192220
0.050190
0.112148
0.085435
-0.197345
-0.106223
0.065988
0.097070
0.024244
-0.027475
-0.050575
-0.005065
-0.156916
-0.015984
0.090104
-0.160394
-0.038667
0.072740
0.042554
-0.010891
-0.040165
-0.063715
0.192339
0.138220
0.166653
0.279762
0.169507
-0.041346
-0.063242
-0.007526
-0.010131
0.064290
-0.013156
0.195348
-0.074178
-0.043781
0.203224
0.157771
0.087481
-0.089738
0.008782
-0.028201
-0.000907
-0.028403
-0.266406
-0.220667
0.220374
0.080716
-0.081821
0.092867
-0.021511
0.140001
0.020531
-0.003602
0.161407
0.446266
0.321853
-0.012382
-0.129159
-0.091385
-0.171534
-0.142906
-0.094424
-0.240564
-0.080220
-0.020853
0.068580
-0.020423
0.221862
0.306091
0.206429
0.289701
0.330662
0.319998
0.173396
0.081538
0.193857
0.256225
0.427382
0.344492
0.283796
0.222367
0.345765
0.219675
0.243034
0.336992
0.102930
0.158794
-0.078633
-0.004486
-0.236172
-0.268114
-0.264478
-0.149909
-0.241757
-0.133637
-0.015996
0.007986
-0.075339
-0.156263
-0.357935
-0.325805
-0.127493
-0.327654
-0.295547
-0.198989
-0.191886
-0.034152
-0.067144
-0.067734
-0.130592
-0.181207
0.040373
-0.112480
-0.152238
-0.130227
-0.083063
-0.148425
-0.121148
0.005051
-0.085982
0.039188
-0.154397
-0.078149
0.005530
0.232882
0.069909
0.222156
0.061450
-0.021184
0.120682
0.214092
0.272564
0.093032
0.026346
0.015515
0.209011
0.114443
-0.029075
0.220181
0.183076
-0.050252
0.028810
0.267540
0.380942
0.279447
-0.158792
-0.122864
-0.223712
-0.279811
-0.116339
0.079261
-0.118538
-0.172453
0.087514
0.228317
0.285116
-0.113761
-0.211320
-0.416226
-0.222511
-0.093670
-0.198662
0.004459
0.017782
0.238919
0.381716
0.613297
0.479290
0.113289
-0.232162
-0.231075
-0.154757
-0.212279
-0.238617
-0.270697
0.035878
0.313386
0.888119
0.593837
0.201709
0.182800
0.149715
-0.034278
-0.095881
0.185161
0.012635
0.183037
0.483473
0.700319
0.396387
0.176821
0.228814
0.327115
0.352933
0.060452
0.119866
0.083570
0.230369
-0.138289
-0.196956
0.210389
0.367587
0.371065
0.320782
0.202255
0.243341
0.360189
0.377616
-0.114161
-0.331511
-0.247330
0.018621
0.233947
0.140734
0.301038
0.099883
0.187408
0.282246
0.167073
-0.375988
-0.444974
-0.557493
-0.747527
-0.225502
-0.089097
-0.110068
-0.176300
-0.127119
-0.275243
-0.102793
-0.176224
-0.467121
-0.580854
-0.502323
-0.301241
-0.210335
-0.439379
-0.296567
-0.264244
-0.244782
-0.042317
0.019540
-0.085860
-0.232554
-0.257350
-0.119534
-0.254793
-0.265277
-0.176044
-0.052120
-0.118654
-0.143516
0.060913
0.003921
0.074023
0.029982
0.154866
0.123001
0.073117
0.068474
0.132331
-0.063883
-0.132768
-0.070913
-0.304206
-0.397104
-0.155558
-0.044485
-0.122497
0.052396
0.238541
0.061849
0.118855
0.095889
0.038283
-0.018478
0.014353
-0.183853
-0.221206
-0.113267
0.027769
-0.031288
-0.173215
-0.080413
-0.013436
0.081419
0.115934
0.145544
0.089040
-0.159995
-0.072190
0.038057
-0.000134
-0.011018
0.015510
-0.070665
0.101328
-0.005246
0.133465
-0.082864
-0.316283
-0.098469
-0.089726
-0.141146
-0.335375
0.111055
-0.004714
-0.064638
0.138207
-0.090831
0.179354
0.055979
0.048359
-0.175870
-0.102574
-0.162145
-0.063004
-0.108820
-0.122439
0.254644
0.616008
0.394241
0.112880
0.278761
0.170015
-0.075596
-0.012987
-0.035954
-0.080939
-0.251723
-0.014134
0.368981
0.009211
-0.236917
-0.057939
-0.200181
-0.022660
0.005334
-0.045524
0.144123
-0.405464
-0.554863
-0.518341
-0.429963
-0.413906
0.009025
-0.166275
-0.044699
0.054139
-0.058718
0.015523
-0.221876
-0.426088
-0.695302
-0.359032
-0.556181
0.078988
0.012425
0.083850
0.133299
0.072278
0.050846
0.357693
0.569824
0.059848
0.248018
-0.042109
0.091859
0.204902
0.153040
0.099617
0.196568
0.292871
0.703777
1.327410
0.777893
0.243767
0.089136
0.066183
0.251511
0.211115
0.176957
-0.049721
0.071897
0.135999
0.336602
0.090590
0.275649
0.175398
0.009954
-0.061625
-0.009297
0.037354
-0.009722
0.095904
-0.170888
-0.133839
-0.366214
0.143791
0.205447
-0.063304
-0.040907
0.163646
0.142987
-0.160145
-0.021393
0.159694
0.123564
0.129680
0.318248
-0.014271
0.150825
-0.069269
-0.093655
-0.003135
-0.072431
0.147167
-0.342414
-0.314702
-0.054424
0.060914
0.099168
0.127610
-0.075718
-0.009700
0.086481
0.004567
0.036843
-0.800772
-0.900574
-0.637368
0.052449
0.199721
0.204705
0.158492
0.115318
0.147978
0.044714
-0.014144
-0.348512
-0.104867
-0.230675
0.173738
0.658516
0.657017
0.400900
0.343151
0.258937
0.096817
0.044646
0.835534
1.327322
0.547133
0.177521
0.471785
0.544746
0.221200
0.158265
0.078429
-0.042541
-0.079315
0.972775
1.205383
0.506189
0.047572
