weigvec 126500
0.022767
0.373550
0.235684
-0.270736
0.058781
0.132413
-0.130619
0.002363
-0.075802
0.131531
0.056052
0.579797
0.664790
-0.262529
-0.357869
0.068497
-0.056511
0.137639
-0.134687
0.037021
0.025398
0.032430
0.169907
0.592369
0.063954
-0.000764
-0.125025
0.036610
-0.066137
0.150839
0.033782
-0.015698
0.028646
-0.109845
0.491489
0.255615
-0.338412
-0.025724
0.323088
-0.217031
-0.172365
-0.047964
0.276137
0.006312
-0.137762
0.759760
-0.213608
0.038739
-0.191411
0.490143
-0.261981
-0.099440
-0.013717
0.030718
0.026769
-0.193198
0.997525
-0.480730
-0.201390
0.130577
0.177650
-0.081283
0.013322
-0.045777
-0.127905
-0.052533
-0.302642
1.181114
-0.823558
-0.011502
-0.055396
0.037105
0.210507
0.139088
-0.191126
0.087099
0.020957
-0.453920
1.111959
-0.496420
-0.099197
0.088957
-0.061944
0.204952
-0.198014
0.012156
0.034923
0.179024
0.124789
0.465990
-0.199891
-0.382873
0.150844
-0.070438
0.070327
0.074154
-0.058754
0.050322
0.021582
0.386448
-0.041872
0.133548
-0.470196
0.049059
-0.023890
-0.143631
0.152256
0.053292
-0.049458
-0.132305
0.467399
-0.263458
0.079056
0.145903
-0.142797
-0.128524
0.117402
-0.048119
0.037713
0.013539
0.160467
0.788340
-0.653907
0.040626
0.284645
-0.272518
-0.058280
0.135729
0.004442
0.003451
0.025112
0.074738
0.816404
-0.313996
0.080127
-0.267504
-0.006691
-0.000114
0.170832
-0.147217
0.089676
-0.035309
0.099370
0.284657
0.259470
-0.259502
-0.496824
0.189459
0.051077
0.019443
-0.014632
0.119167
0.107521
-0.052514
0.694788
-0.460555
0.485045
-0.538673
-0.045394
0.102057
-0.164555
0.161555
0.043029
0.005829
0.129343
1.021160
-0.692406
0.214470
-0.411405
-0.045662
0.067693
-0.108972
0.069745
0.076028
-0.129948
0.045019
0.315312
-0.201728
-0.277718
-0.000988
0.049766
-0.283607
0.025871
0.072387
0.143672
-0.151497
-0.124956
0.172516
-0.234528
-0.172839
0.063352
-0.416984
-0.021295
-0.040387
0.084773
0.026588
-0.053275
-0.068042
0.040526
-0.072237
-0.388925
-0.061953
-0.131401
-0.194089
-0.086305
0.040664
-0.041518
0.111598
-0.027257
-0.323631
-0.145247
-0.162436
-0.439215
0.128187
-0.162043
0.082056
-0.009711
-0.046749
-0.043914
0.138432
-0.339097
-0.035644
-0.538910
-0.034276
0.111431
0.033736
-0.102035
0.030040
-0.058483
0.034186
-0.133078
-0.446434
-0.214787
-0.284660
0.194649
0.176380
-0.004861
-0.111160
-0.172081
0.088608
0.079176
-0.147749
0.397460
-1.112537
-0.497425
0.849946
-0.066105
-0.053711
-0.004279
-0.079262
-0.069338
0.090707
-0.027842
-0.044177
-0.437219
0.087110
-0.077471
-0.005593
0.289048
-0.232764
-0.003661
-0.087147
-0.036811
0.037884
-0.581437
0.131784
0.058460
-0.060064
-0.029762
0.043595
-0.187115
0.013149
-0.099145
-0.026135
0.002859
-0.474623
-0.040318
-0.194724
0.340718
-0.300170
-0.104364
-0.008899
-0.055798
-0.084356
-0.035039
-0.153453
-0.280553
-0.094024
-0.272401
0.576894
-0.278332
0.287667
-0.485547
0.072850
-0.076045
0.274525
-0.118972
0.036274
-0.417598
-0.191469
0.204219
-0.017898
0.199697
-0.359263
0.195517
-0.049615
-0.004116
-0.111830
0.411525
-0.695569
0.121709
-0.245371
0.074216
-0.168903
0.194953
-0.233619
0.047052
-0.126971
0.043545
0.211334
-0.428091
0.101562
-0.269389
0.283429
-0.390639
0.206650
-0.181612
0.126799
-0.229145
0.091232
0.208605
-0.245629
-0.209271
-0.109348
0.026392
-0.125770
0.051394
0.006789
0.116405
-0.046360
0.015812
0.310163
-0.172811
-0.238257
-0.311408
-0.007207
-0.074465
0.100535
-0.126398
0.038561
-0.052211
-0.073915
0.023451
-0.020669
-0.055673
-0.244818
-0.330026
0.072983
-0.260872
0.099754
-0.079292
0.107490
0.057194
-0.461005
0.099792
0.384415
-0.302997
-0.512892
0.284316
-0.290199
0.127363
-0.101283
0.071733
-0.042909
-0.453044
-0.115289
0.693531
-0.247185
-0.270149
0.179883
-0.148282
0.132273
-0.075411
0.020664
-0.030581
0.017422
-0.242345
0.035039
-0.120390
0.003038
-0.143784
0.118933
0.220354
-0.206929
-0.010620
-0.054802
-0.050493
0.061409
-0.530004
0.182878
0.031557
-0.298465
-0.048183
-0.019014
0.015579
0.000834
-0.231289
-0.055040
-0.293366
0.195400
-0.353003
-0.004263
-0.072994
-0.109781
0.162451
-0.187863
-0.013140
-0.049332
-0.016814
-0.108944
-0.060346
-0.150785
0.069021
-0.047913
0.060709
-0.044039
-0.107711
-0.101946
-0.006529
-0.307674
0.118930
0.120607
0.041255
-0.006134
0.121690
0.084349
0.012568
-0.040109
0.076118
0.076258
-0.151400
0.020804
0.019350
0.314492
-0.002449
0.198544
-0.012085
-0.184018
0.074696
-0.026798
0.027303
-0.081949
-0.224027
-0.012741
0.228052
-0.005158
-0.152221
0.309497
-0.255458
-0.035399
0.117797
-0.012693
-0.162792
-0.165135
0.390045
-0.076493
0.302800
-0.006226
0.065817
-0.118089
0.021045
-0.130316
0.006534
0.266602
-0.362103
0.285379
-0.177283
0.160504
-0.042915
-0.045514
-0.093952
0.069612
-0.038291
-0.094991
0.085189
-0.128732
0.117312
-0.017329
0.125425
0.080645
-0.102553
-0.009380
0.036508
0.019052
0.168647
0.179679
-0.488343
0.671748
-0.207515
0.030621
-0.244754
0.198141
-0.053831
0.002705
-0.002454
-0.016199
0.239204
-0.120815
-0.223168
0.137767
0.108082
0.130721
-0.164145
0.064092
0.060474
-0.133486
0.066149
1.007464
-0.081435
-1.151528
-0.185016
0.789415
-0.275790
-0.570281
0.197382
0.273997
0.220019
-0.201518
0.806727
0.456885
-1.494764
-0.465375
0.628172
0.190902
-0.069490
-0.290325
0.389638
0.055635
-0.209309
0.212968
1.115611
-1.582298
-0.387323
0.461708
-0.091640
0.271374
-0.202094
-0.001091
0.145508
0.211349
0.295101
0.268687
-0.799803
-0.102445
0.196686
-0.144363
0.190577
-0.103109
0.066175
-0.083293
0.078109
-0.408037
0.115577
0.081417
-0.050239
-0.047606
0.079844
0.064911
-0.037998
-0.023022
0.040777
0.113833
-0.268594
-0.250948
0.251512
0.222411
0.140119
-0.050525
-0.054935
0.076187
0.017142
0.084520
-0.152710
-0.301056
-0.022892
0.142807
0.135520
0.072419
0.048321
0.093406
0.275339
-0.092728
0.021970
0.109542
-0.222759
0.045506
-0.139969
0.154864
-0.206711
-0.046806
0.179593
0.019207
0.038005
0.121078
0.234473
0.261026
-0.292433
-0.437358
0.417163
-0.043347
0.064649
0.204840
-0.058665
0.289685
-0.146841
0.057270
0.324310
-0.331692
0.045351
0.083266
-0.355215
-0.055773
0.188453
-0.080273
0.109298
-0.007115
0.050949
0.390587
-0.581651
-0.088634
0.521161
-0.236773
-0.347651
0.285746
0.001441
-0.081694
0.007835
-0.011491
-0.141741
0.083098
-0.084471
0.021601
0.064879
-0.128384
0.101766
0.128435
-0.167968
0.079470
0.168280
-0.144332
-0.114357
0.222302
0.103019
0.167710
-0.265060
-0.075224
0.039318
0.038174
-0.077498
0.050022
-0.151417
-0.007927
0.213922
0.044616
0.027362
0.070203
-0.235092
-0.064506
0.100930
0.023495
0.020273
0.138063
-0.253823
0.358215
-0.037568
-0.181428
0.178567
0.024282
-0.004680
-0.122571
0.021529
-0.084575
-0.477482
0.015319
0.299891
0.146973
-0.041814
-0.013178
-0.068499
-0.077766
0.031254
-0.179869
0.115272
-0.007580
0.023566
0.076737
-0.294323
0.203741
0.029864
-0.104509
-0.100502
0.022902
-0.127433
0.000930
-0.038971
-0.099764
0.248239
0.025926
0.025227
0.142476
-0.282528
0.037166
-0.048056
0.264104
-0.118923
-0.538095
0.000168
0.433131
-0.179209
-0.076639
0.314560
0.036651
0.169560
-0.065763
0.032139
0.161458
-0.246245
-0.439724
0.388604
-0.015771
-0.039719
-0.028111
0.029120
-0.024107
-0.067608
-0.007531
0.056159
-0.271021
-0.330884
0.392951
0.316047
0.006811
0.076501
-0.057888
-0.033725
-0.115366
-0.000851
-0.103919
-0.088418
-0.814060
0.875063
-0.028270
0.183407
-0.177507
-0.102527
0.319898
-0.248241
-0.065566
-0.100460
-0.407700
0.482834
-0.743455
0.458562
0.015685
0.153062
-0.233894
0.040246
-0.109131
-0.033413
-0.093756
-0.375373
0.363797
-0.012027
-0.226455
-0.159445
-0.000498
-0.009588
0.144983
0.058825
0.034470
-0.096177
0.092187
-0.319252
0.596907
-0.402045
0.038942
-0.180678
0.060713
-0.237864
0.188812
-0.151076
0.015333
0.484498
-0.625790
0.250420
-0.190734
-0.090652
-0.168074
0.145622
-0.164263
-0.137687
0.071388
0.042077
0.375861
-0.287169
-0.038854
-0.299571
0.198643
-0.078698
0.058419
-0.135812
0.005633
-0.077907
0.099512
0.271515
-0.028271
-0.017858
-0.370336
0.224524
-0.250831
0.098039
-0.091650
-0.015441
0.095330
-0.000529
-0.412763
0.613818
-0.280589
-0.102717
0.118832
-0.095594
-0.196225
0.032017
-0.063557
0.037501
-0.044643
-0.628758
0.668243
-0.452278
0.406838
-0.384252
0.164502
-0.239082
-0.122368
0.019840
-0.167996
-0.050811
-0.223563
-0.069491
0.012059
0.463064
-0.835192
0.928210
-0.656587
0.275146
-0.070883
0.037459
-0.153656
0.550962
-0.783766
0.338284
-0.051328
-0.288518
0.402366
-0.422149
0.380291
-0.327178
0.139982
-0.006736
0.533284
-0.866892
0.385683
0.048866
0.235001
-0.299814
0.120209
-0.463750
-0.062558
0.109321
0.032046
0.320086
-0.114193
0.234253
-0.223499
0.212828
-0.352856
-0.023714
-0.172325
0.235374
-0.150432
0.144130
0.114786
0.112295
-0.396096
0.087471
0.099974
-0.133203
-0.070519
-0.091335
-0.049283
-0.080011
0.142528
0.251728
-0.020395
-0.248416
-0.034030
0.130117
-0.023802
0.005011
0.059010
-0.020218
0.032228
-0.019007
0.119641
0.118573
-0.021705
-0.208091
0.119451
-0.149316
0.421566
-0.138413
-0.038117
0.023459
-0.040119
0.241780
0.017116
0.030418
0.122863
-0.026977
-0.026899
0.099394
0.015833
0.131277
-0.060349
-0.063370
0.044470
0.048440
-0.150858
0.265707
-0.129255
-0.112805
0.174508
0.085957
-0.046342
0.005345
0.087960
0.071730
-0.062194
0.364582
-0.150716
0.181756
0.044631
-0.059482
-0.109928
-0.077804
0.157080
0.100131
0.084229
-0.255985
0.456630
-0.044115
0.171729
-0.181112
0.024504
-0.089755
0.228792
-0.117407
0.005338
0.168110
-0.159321
0.339867
0.110825
0.062972
-0.082246
0.155312
-0.026733
0.144035
0.000164
-0.032638
-0.042429
-0.056073
0.240846
0.055524
0.068700
0.004602
-0.013651
0.017471
0.057058
-0.037549
0.025680
-0.013436
0.171092
-0.188454
0.269911
-0.264847
0.034906
0.154530
0.252798
-0.034461
-0.058053
-0.146662
-0.064316
0.168084
-0.163137
0.010351
-0.006821
-0.107871
0.217457
0.317713
-0.057281
-0.133335
0.075980
0.891250
-0.545069
0.241857
-0.354050
-0.424447
-0.009283
0.044374
0.128788
-0.063492
0.114766
0.116445
-0.118240
0.180246
-0.215136
-0.051582
-0.362002
0.249922
-0.124151
-0.007102
-0.012131
-0.043794
0.088323
-0.680118
0.725544
-0.086538
-0.072525
0.106932
-0.081444
-0.238055
-0.140989
0.146719
-0.154901
-0.062713
-0.988040
0.878042
0.319892
-0.333155
0.318498
-0.322190
0.177788
-0.254557
-0.000507
-0.003270
0.122735
-0.702139
0.830403
0.453025
-0.593055
0.398265
-0.463714
0.091789
-0.058094
-0.038379
-0.024579
-0.004234
-0.099677
0.702823
-0.657316
0.036950
0.127412
-0.276027
-0.036205
-0.231560
0.083535
-0.002693
0.069160
0.741975
-0.434254
-0.598447
0.983130
-0.756404
0.038630
0.019271
-0.001349
0.070517
-0.082201
-0.235953
0.852662
-0.789234
0.047859
0.474113
-0.574450
-0.017457
-0.062858
-0.065324
-0.021963
0.315665
-0.099786
0.298578
-0.557695
0.750699
0.267221
-0.301174
-0.102227
0.043953
0.107549
-0.045268
0.056799
-0.083297
-0.051016
-0.021021
0.306789
0.141020
-0.395180
0.040170
0.046998
0.083281
-0.170904
0.118652
-0.054676
0.210384
0.587604
-0.709941
0.084503
0.154504
-0.048753
-0.123263
0.021516
0.105533
-0.203219
0.009983
0.734921
0.203179
-0.873800
-0.080054
0.329763
0.042212
0.084213
-0.045972
-0.116196
-0.051787
-0.039848
0.153271
0.273632
0.016024
-0.475430
0.163870
0.194482
0.001265
-0.065239
0.035209
-0.105861
-0.008214
0.743232
-0.803858
0.594079
-0.536623
0.036066
-0.049591
-0.054919
0.026118
0.084351
-0.097684
0.034797
0.308730
-0.093999
-0.429332
0.126457
0.131698
0.005720
-0.039402
-0.007891
0.148376
0.021432
-0.086543
-0.032298
0.323789
-0.840314
0.581048
0.118470
-0.259010
0.050150
0.139031
0.179478
-0.004228
0.155214
0.287917
-0.278767
-0.295935
0.351890
0.136844
0.297148
-0.036447
-0.085632
-0.047748
0.239509
-0.057929
-0.342689
0.299890
-0.006698
-0.604520
0.207913
0.480377
0.036924
0.114713
-0.021829
0.051266
0.051532
-0.131946
0.191566
-0.062972
-0.080975
0.052553
0.124771
0.154335
0.122687
0.073331
0.065094
0.106209
-0.307237
-0.094362
0.008677
0.009497
-0.014452
-0.083663
0.218431
0.141435
-0.165618
0.089427
0.063171
0.178100
-0.433716
-0.223072
0.168070
-0.125060
0.171555
0.137856
0.065074
0.071112
-0.017988
-0.012303
0.155010
-0.223278
-0.181824
0.024574
0.017662
0.206414
-0.132469
0.163910
0.115383
0.075505
-0.016036
-0.154156
-0.029819
-0.219010
0.094992
0.187171
-0.190306
0.067169
0.012187
0.014507
0.107720
0.122264
-0.379653
0.801128
-0.041845
-0.446806
0.021715
0.136437
-0.192972
0.028747
0.116036
0.014548
-0.043821
0.367921
-0.135061
-0.118996
0.046351
-0.246532
0.133446
-0.018556
-0.020863
-0.130964
-0.205137
0.102068
0.066533
0.261194
-0.430876
0.588262
-0.443920
0.173187
-0.113272
0.131768
0.028513
-0.023821
-0.164046
0.545466
-0.399191
0.122250
-0.176874
0.172696
-0.200741
0.052545
0.128387
-0.175366
0.024436
-0.055337
0.250334
-0.348686
0.674571
-0.431176
0.400377
-0.053175
0.168503
-0.168265
0.201987
-0.134695
0.062043
0.281154
-0.089742
0.197315
-0.215967
-0.101168
-0.090537
0.247163
-0.367040
0.209882
-0.097855
0.149115
0.092663
0.423559
0.159916
-0.476505
0.272362
-0.142423
0.246003
-0.036222
-0.006716
-0.059565
0.246396
-0.699376
1.176275
-0.217007
-0.369323
0.007719
-0.134920
-0.159574
0.202509
-0.033449
-0.004205
0.032716
-0.591559
1.018305
-0.801437
0.470514
-0.139875
0.123859
-0.117293
0.060071
0.183169
-0.097290
-0.050289
-0.425813
0.670419
-0.513466
0.066478
0.136889
-0.363259
0.095537
-0.120905
0.098273
-0.045653
0.216462
0.337639
-0.600838
0.362286
-0.718919
0.479216
-0.581181
0.281996
-0.033311
0.462911
0.001914
0.080438
0.482635
-0.955243
0.684129
-0.629606
0.168488
-0.070209
0.245356
0.073710
-0.053211
0.018331
-0.027282
0.261111
-0.335323
-0.310472
-0.038425
-0.018237
0.004906
0.130662
-0.112184
0.041519
0.046905
-0.070856
0.389668
-0.557849
0.266581
-0.289022
0.259188
-0.149878
-0.033564
-0.001859
0.047307
-0.099422
0.015350
0.341148
-0.506387
0.025714
0.122998
-0.061963
0.126227
-0.015781
0.000318
-0.131465
0.173934
-0.103583
-0.124951
-0.052483
-0.244601
0.180706
0.075494
0.025515
-0.229105
0.215953
-0.311732
-0.073156
-0.056719
0.105263
-0.504556
0.045037
0.131246
-0.125971
0.211043
-0.146086
0.133345
-0.040776
-0.180935
-0.030882
0.199782
-0.876437
0.213414
0.219459
-0.137874
-0.059016
-0.202453
0.106441
0.056089
-0.079824
-0.121718
0.365019
-0.607127
-0.018232
0.426568
-0.332304
0.123340
-0.037984
-0.064934
-0.117278
0.107624
0.078446
0.168275
-0.158297
0.113057
0.058234
-0.124231
0.075846
-0.108367
0.051105
0.001334
0.057784
-0.061623
-0.372662
0.432692
-0.234542
0.370950
-0.311702
-0.000360
-0.033998
-0.075711
0.062568
0.081264
-0.113954
-0.637365
0.774325
-0.303907
0.092460
0.067600
-0.072715
-0.110988
-0.112535
-0.096353
0.150635
0.042283
0.006527
0.031674
-0.267400
0.184049
-0.287771
0.205995
-0.006314
-0.066709
0.054758
0.094377
0.052533
-0.759955
-0.626355
0.493346
0.307314
0.458453
0.116292
0.110137
-0.135775
-0.051963
-0.087314
0.076022
-0.993117
-0.078201
0.230428
0.052387
0.380554
0.058713
0.051222
0.115042
-0.011724
-0.017208
-0.077385
-0.631480
-0.450637
0.350333
0.487090
0.065382
-0.089726
-0.018755
0.044346
-0.110496
-0.142630
-0.063937
-0.323414
-0.652967
0.293500
0.627945
0.171004
-0.552635
0.149635
0.088397
0.063657
0.110261
0.044743
-0.371428
-0.598376
0.522213
0.297351
0.140554
-0.248855
-0.176753
0.036954
0.012397
0.034685
0.008810
-0.278694
-0.283464
0.222676
0.458533
0.387763
-0.205868
-0.206659
-0.022280
0.016270
0.055564
0.004645
0.043297
-0.438617
0.088782
0.296039
0.209285
-0.012051
-0.197219
-0.089570
0.082661
-0.041582
-0.057048
-0.097915
-0.233255
-0.026327
0.543744
0.152194
0.118105
-0.087810
0.127412
-0.105860
-0.037590
-0.110482
-0.455670
-0.052609
0.143160
0.346117
0.100745
0.151074
0.017655
0.016108
0.140127
-0.012457
0.066567
-0.873992
0.197231
0.124004
0.229521
0.197466
0.243621
-0.204463
0.068619
0.071805
0.081791
0.015436
-0.477285
0.070477
0.014467
0.626556
-0.175713
0.059153
-0.044726
0.014684
0.185382
-0.015616
-0.158440
0.140919
-0.203857
0.104363
0.352871
-0.009613
-0.301853
-0.040750
-0.045498
-0.132694
-0.037561
-0.033058
-0.182156
-0.083317
0.031367
0.368139
0.051918
-0.143697
-0.025223
-0.031005
0.010544
0.155138
0.062949
-0.613182
-0.211654
0.248004
0.805713
0.161735
-0.219991
-0.232945
-0.127595
0.105408
0.047465
0.043304
-0.167774
-0.295954
0.092097
0.533493
0.185184
-0.115156
-0.297526
0.036493
-0.091792
-0.008417
0.053674
-0.446347
0.253119
-0.008683
0.172982
0.375785
-0.114124
0.013764
0.049147
-0.033333
-0.020410
0.046571
-0.151732
-0.131850
0.039385
0.402522
0.155718
-0.018790
-0.203496
0.038584
-0.155420
0.028533
0.018644
-0.505134
0.083667
0.287232
0.185336
0.186810
-0.257740
0.159180
0.075511
-0.176037
0.034542
-0.021425
-0.534725
0.154649
0.580213
0.193973
-0.088142
-0.067803
0.003102
0.011167
-0.189933
-0.010214
0.041606
-0.257372
0.393816
0.054357
0.401697
-0.137626
-0.246931
0.051673
-0.110410
0.030066
-0.023202
0.070602
-0.502278
0.559880
0.216559
-0.223051
-0.110581
-0.001717
-0.045996
-0.013544
-0.268060
-0.023407
0.029068
-0.859510
0.670779
0.072278
0.025278
0.007045
0.085057
-0.065790
0.066593
0.105888
-0.009279
-0.093566
-1.264633
0.876012
0.127642
0.199039
0.024846
0.012705
-0.139801
-0.186129
0.148091
-0.165064
-0.100986
1.131266
0.509387
-0.222893
0.062353
-0.299387
-0.108277
0.313185
-0.127700
-0.101291
-0.014571
0.106753
1.061967
1.273336
-0.621394
-0.113274
0.004791
-0.334414
0.242580
-0.146518
0.093891
0.140873
0.051232
0.737010
1.138131
-0.351601
-0.373265
0.430414
-0.296222
0.061010
0.062561
0.075703
-0.036584
0.078165
0.114935
1.249012
0.597187
-0.796978
0.464173
0.070198
-0.159786
0.118375
-0.016442
0.108143
-0.070082
-0.204537
1.252624
0.819412
-0.954834
0.332407
0.136065
0.100167
-0.034185
-0.007991
-0.003000
-0.083529
-0.138010
0.913626
0.757059
-0.494596
0.123930
0.183313
-0.065677
0.027936
-0.031969
-0.178392
0.012968
0.134911
0.431373
0.337180
0.259020
-0.043628
-0.119366
0.129227
-0.013466
0.133780
0.015779
-0.048796
0.299071
0.375253
0.199172
0.054740
0.009824
0.047449
0.021485
-0.062696
0.045256
-0.024886
-0.094534
0.584322
0.187772
-0.354284
0.107016
0.322997
0.024782
0.005815
0.083811
-0.220097
-0.122164
0.000045
0.551045
-0.164425
0.213443
-0.060906
0.384632
-0.021819
0.044619
-0.005578
0.066479
-0.086483
-0.009571
0.448204
0.078564
0.131150
-0.094573
0.043355
0.173146
0.008385
0.093011
0.029774
-0.044366
0.029239
-0.036788
0.177823
0.323998
0.094251
0.240905
-0.282002
0.272724
-0.048023
0.027892
0.017554
-0.059994
-0.457780
0.672817
0.202096
0.043570
0.153240
0.102069
-0.044861
0.114958
-0.028148
-0.106616
0.053513
0.010621
0.728037
0.155482
-0.354359
0.084632
-0.052503
0.262870
0.123882
0.008159
-0.092462
-0.084234
0.184745
0.473743
-0.083975
-0.141806
-0.002872
0.137526
-0.046450
0.141159
-0.004186
0.040695
-0.145584
0.359209
0.181048
-0.133805
0.056927
-0.131335
0.219021
0.079138
0.138498
-0.056739
0.097369
0.241992
0.291018
0.015299
0.346284
-0.178641
0.080134
-0.051374
0.087905
-0.124703
0.134437
0.258768
-0.142276
0.287277
0.013392
-0.179243
0.062591
-0.091151
0.086648
-0.014515
-0.004241
-0.004733
0.138106
0.144927
-0.101202
0.139977
0.004210
0.178448
-0.042899
0.089098
-0.159362
-0.018013
0.002619
-0.047654
-0.045499
0.010178
-0.328519
0.012464
0.003829
-0.186685
0.188457
-0.183723
-0.084860
0.247119
-0.163756
-0.089166
0.416861
-0.556077
-0.348684
0.062782
-0.050267
-0.098991
-0.129767
-0.113542
0.107062
0.090202
0.156454
0.574874
-0.906402
-0.288936
0.265446
-0.122008
0.001028
0.012734
-0.012158
-0.062802
0.247058
0.032717
1.076774
-1.232145
-0.273123
0.439765
-0.101418
0.405370
-0.273905
0.194437
-0.085783
0.097761
-0.166809
-0.180254
0.257113
-0.390494
-0.052266
-0.221386
-0.205936
0.035183
0.012663
0.051233
0.074399
-0.015118
-0.585104
-0.026415
-0.034350
-0.146897
0.083894
-0.079553
-0.061034
-0.092622
-0.044540
-0.023253
0.074631
-0.354376
-0.235177
0.002755
-0.321572
-0.126673
0.271091
-0.117758
-0.055656
-0.005595
0.040792
-0.162876
-0.050854
-0.264402
-0.380318
-0.013146
0.022918
-0.093104
-0.015526
-0.065972
-0.026242
0.020653
0.032648
0.356997
-0.557211
-0.364403
0.169649
-0.072855
0.018186
-0.097091
0.060571
-0.113684
-0.000030
-0.006994
-0.024355
-0.386480
-0.233458
-0.093950
-0.033376
-0.030803
-0.057200
0.045726
-0.065362
-0.040945
0.068557
-0.196895
-0.169627
-0.228620
0.218900
-0.144379
0.010578
-0.121291
-0.033013
-0.045160
-0.174493
0.012478
-0.221024
-0.168110
0.069014
-0.110433
0.321610
-0.297849
-0.032097
-0.230738
-0.064328
-0.071779
-0.099244
-0.233100
-0.206559
0.135479
-0.331381
0.315543
-0.282646
0.000945
0.020002
-0.123950
0.010165
0.014587
0.420473
-0.697038
0.297475
-0.497995
0.000573
0.025731
-0.197550
0.030993
0.006772
0.073000
0.028055
0.900291
-0.954618
-0.129357
-0.534687
0.062196
-0.280660
0.034854
-0.109868
-0.012805
0.004750
-0.011848
0.505701
-0.713581
0.068862
-0.391077
-0.021531
-0.163656
0.154821
0.086957
0.046539
-0.058895
-0.061669
-0.712943
0.219797
0.103533
-0.033818
-0.088740
-0.168509
-0.012272
-0.048914
0.147687
0.075188
0.048877
-0.760772
0.605456
-0.401799
0.121496
-0.054917
-0.143212
-0.060675
-0.060905
0.076617
0.030139
0.054003
-0.927747
0.920222
-0.556061
0.005087
0.027206
0.078486
0.005855
-0.121246
-0.199601
0.079844
0.062438
-0.633413
0.332481
0.010094
-0.147102
0.098407
-0.166193
-0.023145
-0.103136
-0.063865
0.042522
0.032611
0.375932
-0.653973
0.311068
0.037843
-0.257650
0.030634
0.074091
0.042257
0.079891
-0.028629
0.092404
-0.000364
-0.158113
0.375307
-0.075410
-0.368671
0.228986
-0.192687
0.196462
-0.064293
-0.049981
-0.065931
0.135552
0.038858
0.114226
-0.052772
-0.109727
0.113762
0.100518
-0.067754
0.070181
-0.022110
0.011943
0.063627
0.052143
0.008518
0.185929
-0.340660
0.054334
-0.021438
0.037975
0.149678
-0.005720
0.130780
0.039628
0.131203
0.013804
0.102157
-0.328890
0.256644
-0.140250
0.064383
0.084003
0.060592
-0.072118
0.772236
-0.320162
0.014117
-0.041160
-0.141385
-0.090595
-0.070005
0.028661
-0.020247
0.076279
-0.017871
0.982692
-0.594030
-0.017661
-0.132130
-0.150014
-0.099925
0.027926
-0.014760
0.008119
-0.016160
-0.006566
0.352294
-0.063660
0.191566
-0.190325
0.316659
0.094702
0.218921
0.023975
-0.219705
-0.193867
-0.084604
0.334526
0.377080
-0.658472
0.902715
-0.344192
0.118528
0.307325
-0.379202
0.140195
-0.034239
-0.049550
-0.385254
1.006419
-0.935547
1.038270
-0.289487
-0.051472
0.134825
-0.169209
0.071256
-0.008254
-0.100216
-0.286010
0.993265
-0.898385
1.210666
-0.426624
0.127868
0.301491
-0.112505
-0.119004
0.017432
-0.031460
0.156807
0.399198
-0.208133
0.584818
-0.205375
-0.070359
0.111972
-0.040579
-0.236085
0.140097
-0.118114
0.773043
0.137552
-0.618112
0.010528
0.473262
-0.458808
0.137733
-0.054518
-0.006392
-0.018726
-0.153458
0.807928
0.474707
-1.101798
0.016713
0.559992
-0.334376
0.048114
0.030331
-0.118568
-0.021828
0.496856
0.474966
0.456620
-0.572958
-0.473635
0.514359
-0.140982
-0.189265
-0.044052
0.000078
-0.124223
0.195007
0.525921
0.587934
-0.458479
-0.554373
0.274302
-0.413787
-0.077254
-0.115881
-0.058704
0.048200
-0.231297
0.915503
0.295679
-0.520099
-0.434928
0.113770
-0.156921
-0.004124
0.009262
-0.122780
0.211882
-0.121675
0.770052
0.140714
-0.134521
-0.860636
0.080908
-0.112719
-0.070265
0.050743
0.114489
0.217973
-0.195046
0.041863
0.187511
0.639229
-0.726833
-0.099751
-0.096363
0.188044
0.078046
0.188453
-0.259142
-0.024310
0.031256
-0.084113
0.634037
-0.292980
-0.324266
-0.089165
0.304443
0.009879
0.117060
-0.001697
0.116949
0.326742
0.228605
-0.368604
0.128423
0.008342
-0.051098
-0.039410
-0.036553
0.090375
-0.093467
-0.032436
0.604772
0.277820
-0.486586
-0.008305
-0.054374
0.252919
0.085005
-0.230667
-0.054285
0.095764
-0.199441
0.423665
-0.035704
-0.034324
-0.180291
0.077255
-0.209746
0.223375
0.061722
-0.307113
0.020959
0.143411
0.127692
0.308095
-0.245769
-0.097437
0.289756
-0.291091
-0.010683
-0.087046
-0.146402
0.007140
-0.033432
0.352032
-0.000066
-0.534998
-0.259528
0.208715
-0.052620
-0.105392
0.022924
0.018740
0.028158
-0.255883
0.305102
0.087569
-0.231210
-0.047272
-0.072631
0.137360
0.215642
-0.320979
-0.189806
0.054740
0.019347
0.077016
0.083933
-0.145893
-0.238053
0.066060
0.097320
0.018151
-0.067974
-0.017544
-0.046671
0.073896
0.020091
0.129207
-0.322735
-0.232597
-0.096505
0.064051
-0.151519
0.058640
-0.052660
-0.117532
-0.140037
0.107648
0.023904
-0.257189
-0.245565
0.061156
0.104004
-0.065590
-0.035655
-0.191259
0.001831
0.112913
-0.195456
0.042361
-0.062210
-0.230174
0.193584
-0.242074
-0.051306
0.118834
-0.041209
-0.205170
-0.177400
0.107615
0.570154
-0.222892
0.065441
0.314482
0.236135
-0.108608
-0.035715
0.046019
0.001245
-0.005332
0.207466
0.738309
0.436257
-0.243535
0.153381
-0.187057
0.062820
0.145281
0.013799
0.092244
0.032986
0.281970
0.601340
0.072406
-0.009536
-0.049431
-0.009745
0.041436
0.062027
0.061446
0.030355
-0.000308
0.157751
0.452908
0.111233
0.331865
-0.205287
0.230020
-0.023635
-0.008229
0.146083
-0.073219
-0.006481
0.380268
0.313703
0.012182
0.613786
-0.349665
0.271853
-0.113618
0.242968
-0.026703
0.256815
-0.118264
0.134845
0.168591
0.006020
0.649242
-0.001187
0.218260
-0.123224
0.122644
-0.111114
0.063589
0.220457
0.035723
0.744383
-0.480546
0.542537
-0.040265
0.253283
0.069380
-0.032755
0.118875
0.241173
0.020777
-0.174484
0.945830
-0.602112
0.240218
0.170458
0.265106
-0.026140
0.005130
0.056176
0.039233
-0.068372
0.193596
0.625941
-0.208068
-0.173861
0.102875
0.218353
-0.064013
0.096123
0.105700
-0.036414
0.120436
0.477594
0.225923
0.137048
-0.289708
0.184589
0.061402
0.232346
-0.032268
0.030116
0.096997
-0.031350
0.074147
0.370537
0.216588
-0.244515
0.276363
0.177764
0.004515
0.005484
0.025703
-0.068942
0.135429
-0.138682
0.403095
0.150476
0.202238
-0.085738
0.046900
0.179807
0.020869
-0.110528
0.134997
-0.011788
-0.241289
0.456513
0.052873
0.265773
-0.133271
0.025533
-0.053579
0.123614
0.098953
-0.190189
0.008283
-0.076834
0.151024
0.468710
0.243794
0.144449
-0.251041
0.266078
-0.160605
0.040157
-0.032470
0.052406
-0.338079
0.076617
0.526437
0.212094
0.177138
0.046322
0.188846
-0.112045
-0.060710
0.219866
0.062425
0.310590
-0.570799
0.378334
0.216658
0.277858
0.054757
0.055442
0.033688
0.072000
0.019027
0.041859
0.545281
-0.597323
0.312554
0.340110
0.235707
-0.120251
0.038121
-0.093420
-0.012459
0.141097
0.314042
-0.051271
-0.121121
0.066600
0.148837
0.411764
-0.295217
0.066168
-0.083063
0.071161
-0.057249
0.098343
-0.367021
0.518866
-0.148801
-0.002306
0.192076
-0.009742
-0.084565
-0.059972
0.039659
0.003026
0.040425
-0.134651
0.425308
-0.385907
-0.059247
0.100722
0.061907
0.143702
-0.168938
0.115024
0.008958
0.118784
0.108915
0.039736
-0.333955
-0.052161
0.162951
-0.014885
0.036342
0.062876
0.028211
-0.070990
0.016001
0.544505
-0.199942
-0.251513
-0.153497
-0.172780
0.257602
-0.081187
0.110668
-0.049762
-0.106959
0.168614
0.203660
-0.023717
-0.114232
-0.083210
-0.200617
0.081644
0.083175
0.107884
0.084071
0.034077
0.013357
-0.142839
0.322662
-0.942814
0.075203
0.215239
0.277845
-0.074928
0.031691
-0.037627
-0.144388
-0.075789
0.514587
-0.290214
-1.204033
0.030692
0.780515
-0.106345
-0.085821
0.021541
0.130219
-0.018967
-0.021896
0.684177
-0.480943
-0.453076
-0.444503
0.617148
0.142207
0.066758
-0.033836
-0.157311
0.049418
-0.001645
0.549665
-0.241209
-0.402219
-0.586800
0.316626
0.287797
0.011729
0.053619
0.064168
-0.100613
0.099229
-0.204985
0.054391
-0.284117
-0.264431
0.024281
0.195726
0.015966
0.102153
-0.198032
0.013269
0.062331
-0.559020
-0.101673
-0.067935
-0.055237
0.138479
-0.079411
0.214955
-0.030133
0.197966
-0.001506
-0.035691
-0.732105
-0.232580
0.299425
0.131215
0.112467
0.229642
-0.279797
-0.003822
0.048038
0.029001
0.062642
-1.069407
0.323958
0.279535
0.005020
-0.229234
0.022789
0.047593
0.143711
0.158570
-0.096751
-0.161649
-0.772349
0.034380
-0.125099
0.149700
0.007913
-0.061622
0.118713
-0.121442
-0.001412
0.074903
-0.066485
-0.323540
-0.380890
0.089438
0.066359
0.095683
-0.164351
0.092569
-0.083775
0.071897
0.025528
0.034818
-0.165095
-0.694159
0.031979
0.262891
0.148256
-0.238077
0.081620
0.041283
-0.069989
0.110092
0.030388
-0.434765
-0.282027
0.388166
0.191332
0.115102
-0.344105
0.009834
0.427439
-0.113922
-0.014231
0.051835
-1.053416
0.236143
0.280595
0.220981
-0.047300
-0.002299
-0.062761
-0.114129
0.170487
-0.105953
-0.155528
-0.907541
-0.169501
0.478093
0.354465
0.041791
-0.051694
-0.232314
-0.004037
0.168161
0.133169
0.086609
-0.445060
-0.135342
0.506293
-0.195831
0.062331
0.040121
0.245453
-0.247193
0.035382
0.113936
0.178184
0.259618
-0.638733
-0.017104
-0.392094
0.300800
0.313415
0.017594
-0.049481
0.046850
0.055273
0.075791
0.394950
-0.786566
-0.242729
0.215052
-0.035419
0.237925
-0.141911
-0.065509
0.174112
0.131916
-0.365065
-0.008927
-0.570494
0.047568
0.063244
0.043218
0.106814
-0.033101
0.219773
-0.026312
0.001353
-0.087607
-0.429226
-0.163865
0.027119
0.112175
-0.254417
0.104820
0.118744
-0.087842
0.095888
0.003098
0.078415
-0.623629
-0.071864
0.114744
0.029478
-0.390636
0.277702
0.166160
-0.258547
0.122766
-0.111312
-0.046867
-0.152670
-0.369524
0.135049
-0.163244
-0.514938
0.469559
0.097124
0.143123
-0.346364
0.045925
0.073213
0.013514
-0.703420
0.584589
-0.020997
-0.512570
0.407229
-0.051186
0.024630
0.076109
-0.012092
-0.060640
0.020796
-0.731586
0.560051
-0.087540
-0.266877
0.053354
0.011910
-0.115982
0.045512
-0.071606
0.106957
0.099557
-0.474165
0.639701
-0.450022
0.384794
0.122190
-0.135345
-0.044908
-0.205893
0.061016
0.005178
0.070873
-0.271748
0.449557
-0.125830
-0.069518
0.037826
0.189742
-0.232691
0.119755
0.075885
0.000131
-0.416502
0.335045
0.065596
0.197784
0.036108
-0.236763
0.110322
-0.117414
0.070250
0.042014
0.118622
-0.057250
0.115366
-0.022348
0.116475
0.110150
0.038752
-0.250128
0.335478
-0.212599
-0.061851
-0.019642
0.167260
-0.138780
-0.176957
0.089698
-0.030751
-0.014473
-0.055854
-0.062521
0.047116
0.075972
0.028282
-0.272651
0.352733
-0.153744
0.150553
-0.103898
-0.073776
-0.055014
-0.203194
-0.009368
0.092653
-0.064196
-0.110331
0.141923
-0.147849
0.164315
0.040230
-0.181945
-0.022525
-0.181953
-0.137373
0.035505
0.167505
-0.368837
0.099098
0.172072
-0.086990
-0.080899
-0.060323
-0.102964
-0.152547
0.205056
-0.006582
-0.065603
-0.295936
0.057821
0.254435
-0.209244
-0.125734
-0.046305
0.025533
-0.136855
0.141669
-0.026502
0.140690
0.177755
-0.543431
0.268824
-0.044701
-0.048700
0.018464
0.015349
0.185992
0.057699
-0.000307
-0.043857
0.565598
-0.343859
-0.354716
-0.150923
0.319313
-0.170198
-0.038585
0.009726
0.145385
-0.102158
0.017580
0.232896
-0.191745
-0.167768
-0.160195
0.112646
-0.155895
0.090592
-0.066019
0.034209
0.090176
-0.040046
0.345608
0.102356
-0.189003
0.116113
-0.451654
0.178113
0.042695
0.159533
0.055040
-0.106471
-0.042539
0.057304
0.737239
-0.907476
0.060321
0.114784
-0.191385
0.029104
0.013258
-0.014076
0.064591
-0.005163
-0.250260
0.160159
0.218303
-0.168854
0.056493
-0.312428
0.270365
-0.099696
0.149510
-0.091702
0.051020
0.079234
-0.235247
0.187358
0.082923
-0.310951
0.307357
-0.050081
0.182859
-0.138298
0.055948
0.121116
0.417122
-0.345547
0.055602
-0.414155
0.037162
0.197126
-0.091708
-0.011449
0.002388
0.017810
-0.132769
0.221649
-0.354171
0.198286
-0.156446
-0.078561
0.112818
-0.029780
0.097366
-0.181139
0.080446
-0.073851
0.365522
-0.357898
0.088936
0.036887
-0.052003
0.205583
-0.062341
-0.029636
-0.083698
-0.007788
0.081173
-0.097452
-0.177758
-0.240260
0.197489
-0.219584
-0.021761
0.165862
0.092994
-0.090557
-0.036320
-0.132591
0.078568
-0.293804
-0.363460
0.436075
-0.483558
0.689282
-0.337309
0.145302
-0.060633
-0.074007
0.050146
-0.246871
-0.008082
-0.409149
0.488306
-0.544701
0.417007
-0.277255
0.246346
-0.175593
0.122295
-0.089283
0.136943
0.144922
-1.237880
1.124422
-0.960054
0.525218
-0.412762
0.267362
-0.024634
0.166633
0.079449
-0.807475
0.234500
0.013926
-0.165627
-0.159026
0.077893
0.002033
-0.026165
-0.034115
-0.028198
-0.025270
0.494529
-1.319438
0.064359
0.857018
-0.229092
0.225502
-0.087946
0.130399
0.052008
0.141610
-0.152635
0.026578
-0.797312
0.012184
1.102013
-0.366573
-0.015232
0.122749
-0.225897
0.061655
-0.045034
0.019371
-0.818462
0.069397
0.350828
0.832445
-0.281407
-0.110261
0.022311
-0.100645
-0.104072
0.114373
-0.125350
-1.252875
1.191226
-0.128982
-0.625540
0.160044
0.021565
0.162632
-0.022827
0.035939
-0.142742
0.136356
-0.016030
0.596545
-0.378414
-0.801811
0.177978
-0.333197
0.333844
-0.110426
0.180436
-0.117199
0.077067
0.636143
-0.118752
-0.871616
-0.186633
0.226754
-0.235203
0.002346
0.159528
-0.102183
0.119802
-0.002830
0.762736
-0.425890
-0.879878
0.326590
0.089789
0.048365
-0.167790
-0.050002
-0.021142
0.089056
0.039141
-0.114810
-0.355850
0.704343
0.367409
-0.252180
0.023411
-0.132942
0.089443
0.068909
-0.179873
-0.027788
-0.761037
0.164736
1.110580
-0.381386
-0.264853
-0.028525
-0.070122
-0.022590
-0.086486
-0.105057
-0.033260
-1.021539
1.076131
-0.031664
-1.031923
0.653580
-0.065519
-0.020709
-0.156355
0.079267
0.093170
0.098412
0.210958
0.897657
-1.120039
-0.636164
0.574698
0.020288
-0.031493
-0.201578
0.074624
-0.008004
0.065288
0.974847
0.015658
-0.787439
-0.114021
-0.153123
-0.056181
0.055529
0.191459
-0.082186
0.114163
0.034801
0.966026
-0.350209
-0.318765
-0.085751
-0.219502
0.038070
-0.008979
0.142985
0.062558
0.018430
-0.047591
1.540640
-1.080006
-0.381542
0.179100
0.043782
-0.029013
0.111571
-0.060256
0.043645
0.112548
-0.085411
0.539689
-0.160008
-0.326454
-0.058091
-0.204489
-0.015708
-0.064350
-0.023269
-0.009956
0.011701
0.160147
-0.605244
0.638764
-0.108883
0.051074
0.030927
-0.057569
-0.105347
-0.051760
-0.022582
-0.089274
0.064610
-0.152846
0.140667
0.580319
-0.011726
-0.127884
-0.035616
-0.073539
0.122070
0.016004
0.036250
-0.048873
0.146846
-0.256627
0.368502
0.333070
-0.073906
-0.093015
-0.088486
0.089110
0.058681
0.118698
0.005569
0.145844
0.012552
-0.089827
0.139850
0.033889
0.064044
0.019970
-0.038822
-0.025486
-0.052730
0.013854
0.112633
-0.259233
0.168399
0.271966
0.045370
0.144616
0.205086
-0.022566
0.039482
-0.056300
-0.053879
0.080805
-0.212367
0.039553
0.105672
0.030622
0.253027
0.061742
-0.062979
0.031848
0.078412
-0.020829
-0.360215
0.065628
0.470319
0.145873
-0.002802
-0.105812
0.238522
0.106049
-0.018997
0.105411
0.001663
0.229147
-0.531563
0.772084
0.055519
0.137810
0.156677
-0.107429
-0.112411
0.015550
0.034616
0.025715
0.233551
-0.238509
-0.037190
0.165734
0.220267
0.239391
-0.126273
-0.068784
0.036735
0.186199
0.081272
-0.250917
0.277397
-0.005345
0.191930
0.232300
-0.023644
0.067859
0.109156
-0.005541
0.073977
-0.038918
-0.780208
0.397940
0.369974
0.026176
-0.079686
0.081015
0.122459
-0.053595
0.085699
0.058031
0.098797
-0.651430
-0.029007
0.704955
0.055133
0.035910
0.052227
0.005242
0.050321
-0.056473
-0.078976
0.067383
-0.728260
0.233144
0.365895
-0.046527
0.098514
-0.001939
0.061969
0.074054
0.193051
0.026178
0.017192
-0.303010
0.044387
0.039506
0.346117
-0.039704
-0.027080
0.149646
0.008503
0.098807
-0.018745
0.095139
-0.241284
-0.080102
0.260412
0.019137
0.163250
0.040645
-0.069196
-0.043101
0.178849
0.064448
-0.019107
-0.300498
0.167756
-0.239035
0.372580
0.076707
-0.072875
0.102351
0.094281
-0.016975
0.043681
-0.010993
-0.499546
0.024991
0.220025
-0.130994
0.184025
-0.134473
-0.025821
-0.122957
-0.079819
-0.043615
0.078571
-0.609189
-0.117315
0.665582
-0.342082
0.033623
0.123188
-0.079719
-0.033727
-0.121267
0.019600
0.062577
-0.328202
-0.344722
0.383268
-0.031240
-0.052578
-0.052606
0.066204
-0.000702
-0.031641
0.010209
0.069783
-0.482996
0.067192
-0.014180
0.283481
-0.248744
0.034823
0.081774
-0.128569
-0.106444
-0.005580
-0.037230
-0.115824
-0.360680
0.015961
0.509557
-0.292234
0.241495
-0.173087
-0.039686
-0.082503
0.042991
-0.080209
0.110488
-0.186363
-0.267341
-0.076043
0.365820
-0.008714
-0.157588
-0.098004
-0.029730
0.052889
0.000186
0.719794
-0.370386
-0.560629
-0.216632
0.212059
-0.188057
-0.011097
-0.033257
-0.001645
0.101534
-0.089394
0.953144
-0.569120
-0.540842
0.070480
0.073391
-0.158251
-0.124596
0.018091
0.002872
-0.056959
0.061984
0.655473
-0.448196
-0.618632
0.120306
-0.032734
-0.163026
0.046702
0.057069
-0.032508
0.051130
0.040982
0.348321
-0.226995
-0.325406
-0.092745
-0.136120
-0.133743
0.036834
-0.010239
0.081363
-0.055540
-0.006675
0.169770
-0.297322
0.057183
-0.291927
-0.067098
-0.123134
0.080166
0.039801
-0.075521
0.040021
-0.018139
-0.161620
-0.057973
-0.082162
-0.164961
-0.196038
-0.233505
0.138840
-0.107819
0.123787
0.025562
0.098374
-0.313822
-0.224453
0.167868
-0.281383
-0.066301
-0.023892
-0.090294
0.106258
0.003038
-0.077191
0.059227
-0.377535
-0.019745
-0.084772
-0.151394
0.002802
-0.204829
-0.006477
-0.072956
0.065733
-0.093138
-0.035314
0.224256
-0.136199
-0.238375
0.588653
-0.720206
0.465666
0.058562
-0.046122
-0.007207
-0.150869
-0.054402
0.420329
-0.436540
-0.121366
0.186773
-0.099293
-0.239518
0.404171
-0.045066
-0.019292
0.018277
-0.184036
0.695330
-0.701291
0.248211
0.078536
0.118296
-0.147953
0.067290
0.162296
-0.034743
-0.029659
-0.037126
0.077765
-0.119465
-0.118080
0.076027
-0.200505
0.066538
-0.040885
-0.058086
-0.106223
0.130958
-0.089256
-0.167895
0.394686
-0.306455
0.208485
-0.083335
-0.087962
-0.114016
0.125592
-0.150588
0.050519
-0.078033
-0.310312
0.365548
0.109140
-0.394616
0.208123
-0.189730
0.077241
-0.099681
-0.025960
0.061009
0.057283
-0.043618
0.092557
-0.048822
-0.126578
0.031779
-0.280064
0.043186
-0.025701
0.073721
-0.069226
0.091834
0.277553
-0.107000
-0.171592
0.147087
-0.056353
0.057518
-0.127675
0.084529
0.189085
-0.178410
0.112073
0.547165
-0.127436
-0.290838
-0.171482
0.021376
-0.001283
-0.019819
0.114228
0.030284
0.041902
-0.098919
0.777242
-0.299956
-0.303043
-0.274639
0.068001
-0.148789
-0.095340
0.020455
-0.012361
-0.063973
0.207305
-0.056553
0.095558
0.046754
-0.293973
0.048902
-0.038393
0.104607
-0.107971
-0.056922
0.254182
0.111737
-0.585182
0.444289
0.258406
-0.343546
0.171456
-0.157003
0.078332
-0.069325
0.240361
0.002662
0.079563
0.335624
-0.194682
0.171197
-0.084544
0.153484
-0.046627
-0.064117
-0.007680
0.215870
-0.088215
0.057567
0.296320
0.067103
-0.303594
0.146817
0.001640
0.071603
-0.292758
0.063421
0.036465
-0.030368
0.172587
-0.612419
0.968261
-0.409267
0.126858
-0.160143
0.058376
-0.122677
0.077533
-0.040381
0.139145
-0.053183
-0.067243
0.454013
-0.304957
0.032622
-0.015576
0.051549
-0.050497
0.061595
0.080936
0.024521
0.007893
-0.037783
0.229798
-0.183611
0.012171
-0.101257
0.102649
-0.101458
0.004481
-0.020928
0.037997
0.024965
-0.199274
0.106385
-0.069256
0.128272
-0.110462
-0.148197
-0.034930
0.035613
0.035418
0.039394
0.032225
-0.123217
-0.086392
-0.003133
0.244623
-0.175074
0.010494
0.081446
-0.149628
0.084085
-0.014776
0.072389
-0.156679
0.338877
-0.165553
0.028814
0.058557
-0.056402
0.057674
-0.099121
-0.086185
-0.056759
-0.100467
-0.302591
0.429646
-0.244766
0.282187
-0.316201
0.025608
0.012901
0.001447
-0.193628
-0.051857
0.055286
-0.010457
0.020692
-0.104283
0.185825
-0.267142
0.177438
-0.025689
0.075973
0.093476
-0.051613
-0.072021
0.056120
-0.251627
0.194824
0.065944
0.069693
-0.148704
0.099734
-0.128395
-0.027456
-0.005600
0.080843
0.771436
-0.065210
-0.568026
0.077984
0.427725
-0.026172
-0.140564
0.031032
0.134627
0.000512
0.013897
0.492957
-0.385901
0.592388
-0.188872
0.021287
0.103253
-0.052569
-0.228817
0.012252
-0.024227
0.022605
0.031628
0.073260
0.209773
0.434652
-0.077969
-0.065106
-0.009066
-0.025512
-0.117381
0.036237
-0.020316
-0.019478
0.147133
-0.109045
0.275664
-0.111381
-0.014417
-0.145351
-0.048690
-0.044992
-0.028690
-0.030027
-0.458315
0.816734
-0.468093
0.198229
0.147475
-0.104077
0.034994
-0.029140
0.069863
-0.007701
-0.103505
-0.430614
0.891463
-0.332236
-0.075819
0.111729
0.000113
0.146740
-0.030117
-0.042732
0.050027
-0.019797
-0.354417
0.686725
-0.157506
-0.132147
0.015035
0.078078
-0.017892
0.247988
0.018603
-0.044208
-0.032377
-0.510582
0.864511
-0.382819
-0.034496
0.099121
-0.083403
0.022391
-0.019719
0.047601
-0.068749
0.011296
-0.233082
0.470964
0.054989
-0.137080
-0.386831
0.050859
0.090364
0.052572
-0.039742
0.019885
-0.063265
0.566601
-0.232485
-0.062534
0.141887
-0.246440
0.078010
0.024489
-0.073776
-0.089993
0.008142
0.019975
0.338408
-0.267220
0.240100
0.237872
-0.291919
0.027065
0.023596
0.075376
0.035623
-0.166118
-0.111413
-0.159118
0.098075
-0.153768
0.541317
-0.036815
0.060335
-0.190667
-0.019098
0.093461
0.180564
0.057013
-0.647927
0.628359
-0.295193
0.336341
0.137043
0.066305
-0.074400
-0.047829
-0.051926
0.010325
0.106450
0.042394
0.085539
0.557638
-0.526338
0.501026
-0.225786
0.231803
-0.068824
-0.047407
-0.136128
0.036776
-0.379083
0.080457
0.659099
-0.417959
0.198704
0.181569
-0.031799
0.150688
-0.024518
-0.031450
0.159735
0.895017
-1.228140
0.902042
-0.182344
0.299822
0.131864
0.124110
0.077874
-0.069646
-0.024785
0.089631
1.417481
-1.658372
0.542022
-0.020404
0.341607
-0.128781
0.141307
-0.126385
0.292175
0.185362
0.009642
0.514074
-0.788761
0.485855
0.032493
0.264068
-0.140697
0.155978
-0.050705
0.074854
0.052043
0.068131
-0.513296
0.162110
0.242985
0.006165
0.016980
-0.051094
0.108747
-0.005686
-0.078572
0.081810
0.011527
-0.334652
0.362703
0.112539
-0.126449
-0.075065
0.123958
-0.113139
0.006801
0.101293
-0.082257
-0.024474
-0.054908
0.200633
-0.098639
0.158274
-0.131984
-0.213610
-0.043429
0.153772
-0.017103
0.082847
0.055563
-0.183307
0.415685
-0.153609
0.226838
-0.056183
-0.045953
-0.125877
0.158203
0.129675
0.086786
0.023677
-0.404570
0.359258
-0.325793
0.051088
-0.147447
0.055146
0.120932
-0.059255
-0.006258
-0.081722
-0.115224
-0.547048
0.166419
0.240574
0.307777
0.235469
0.082145
-0.071527
-0.014801
-0.011808
-0.119952
-0.176105
0.546833
-0.715974
0.775525
0.108617
-0.500285
0.734739
-0.767734
0.492088
-0.432076
0.148299
-0.115329
0.941000
-1.048918
0.967650
0.022104
-0.588193
0.562382
-0.474426
0.390425
-0.382990
0.255073
-0.181758
0.859789
-0.362919
0.031891
-0.103345
-0.539506
0.430301
-0.049627
0.208582
0.029484
-0.138017
0.201639
0.583504
0.143045
-0.912311
0.934643
-1.010977
0.752642
-0.633946
0.316771
0.005187
0.041466
-0.125904
0.182445
0.427850
-1.801903
1.751066
-1.189801
1.032399
-0.628771
0.511715
-0.342693
0.193905
0.009921
-0.017563
0.648351
-1.777485
1.666485
-0.657163
0.608883
-0.336145
0.315150
0.061940
0.077068
0.077067
-0.129594
0.681940
-0.936315
0.607366
-0.071553
0.002409
0.279349
-0.091112
0.164994
-0.140924
0.220639
0.336078
0.245169
-1.002247
0.612759
-0.213074
0.051841
0.226646
-0.142453
0.249509
-0.143286
0.107483
0.275580
0.291382
-0.443059
0.615049
-0.657824
0.259479
0.013188
-0.189443
0.176604
-0.098047
-0.013085
0.530600
-0.128665
-0.070032
0.329486
-0.222179
0.165742
-0.101274
0.061174
0.000941
-0.090511
0.226341
-0.043659
0.369223
-0.390504
0.606059
-0.195359
-0.077624
-0.007301
0.035173
-0.132405
0.002606
0.164697
0.063153
0.290777
0.122946
-0.096710
-0.188142
-0.103507
-0.119260
0.284868
0.039784
0.140441
-0.092029
0.140385
0.092539
0.048992
0.036681
-0.302210
0.199250
0.002058
-0.020492
0.091810
-0.189567
-0.099755
0.121927
-0.199590
0.270931
0.042253
0.177333
-0.182158
0.119610
-0.266393
0.190091
-0.041708
0.077766
-0.010359
0.065109
-0.014395
0.160562
-0.296277
0.165004
-0.011011
-0.200826
0.049666
-0.054481
-0.205104
-0.213214
0.160753
0.123511
-0.153366
-0.080167
0.161532
-0.213240
-0.088519
-0.097691
-0.001869
-0.081650
0.162708
0.083203
-0.199155
-0.233809
0.274204
-0.143972
-0.085124
0.112604
-0.086698
0.042945
0.136926
-0.038660
-0.151439
0.446626
-0.047198
0.064414
-0.046682
-0.027965
-0.164564
0.175058
-0.067175
0.031917
-0.014786
0.082005
0.091763
-0.079908
-0.115265
0.047426
-0.074717
0.250720
-0.265849
-0.059331
-0.107632
0.143697
0.338518
-0.302350
-0.055031
0.049566
-0.229415
0.181816
-0.082403
-0.128961
0.094356
-0.023897
-0.237900
0.272520
0.110024
-0.082485
0.027605
-0.098736
-0.126794
-0.127082
0.068290
0.169322
0.061694
-0.002369
-0.111178
0.470365
-0.068607
-0.011041
-0.055393
0.110235
-0.031548
-0.009593
-0.064468
-0.115961
0.580546
1.092651
0.325372
-0.279800
-0.314777
0.186099
-0.042529
-0.243215
-0.047649
0.149334
-0.042610
1.331346
1.124143
-0.325342
-0.522654
0.008852
-0.069871
0.085052
0.073841
0.072455
0.199006
0.144813
1.485025
0.998036
-0.446830
-0.339001
-0.144067
-0.111030
0.120047
-0.056183
0.118072
0.035165
0.042756
0.912182
0.706072
0.586252
-0.322252
-0.253457
-0.011587
-0.267315
0.011601
0.039404
0.116914
0.086845
0.365037
0.441252
1.103700
0.309802
-0.220951
-0.185033
0.034120
-0.173096
-0.043641
-0.101046
0.146271
-0.352115
0.788288
0.994275
0.475658
0.025942
-0.067225
0.023240
0.046691
-0.120168
0.140821
-0.023014
-0.351881
0.787214
0.770436
0.465628
-0.029595
-0.002250
-0.130776
-0.001618
-0.029474
-0.043939
0.076168
0.182601
0.555430
0.790334
0.336622
-0.145386
0.146454
0.065883
-0.178161
-0.051194
0.096211
0.040334
0.595711
0.226972
0.274075
0.598747
-0.004898
-0.062552
0.094813
0.037551
-0.089962
-0.062196
0.003289
0.458916
0.174022
0.340773
0.497925
-0.012226
-0.366877
0.220949
-0.056060
-0.017724
0.073453
-0.097608
0.159524
0.645910
0.417647
0.158764
0.195421
-0.243548
-0.013562
0.024320
-0.050003
0.052956
-0.051123
0.130444
0.589010
0.458385
0.123518
0.658781
-0.181165
-0.191585
0.008243
-0.126237
-0.231191
0.088178
0.393883
0.723651
-0.009605
0.003459
0.509224
-0.058874
-0.137966
-0.026011
-0.017887
0.108928
-0.029138
0.472838
0.826026
0.566104
-0.088452
-0.256726
0.085027
0.078557
0.158946
-0.127037
-0.071234
0.078395
0.381819
0.516003
0.769218
0.118982
-0.336703
0.310547
0.085332
-0.155124
0.102912
-0.044841
-0.132784
0.453502
0.562851
0.100107
0.341841
0.034783
0.230336
0.038974
-0.030565
-0.081876
-0.095801
0.032838
0.409288
0.464083
0.541071
0.002885
0.126448
0.037207
0.134009
0.083277
-0.029267
-0.112275
-0.163547
0.409393
0.408305
0.441802
0.085148
0.045092
0.100310
0.115300
-0.003949
-0.024793
-0.008340
0.031106
0.338659
0.473951
0.073170
0.111738
-0.021817
-0.010058
0.003474
0.021112
0.045128
0.046985
0.110402
0.249898
0.478619
0.224602
0.087428
-0.192273
0.014590
0.091416
0.195933
-0.014940
-0.012994
0.023942
0.365448
0.350521
0.256635
-0.328338
-0.287595
0.094830
0.013375
-0.042572
0.066167
0.076127
-0.042281
0.417150
0.274981
0.417656
-0.317440
-0.324123
-0.156405
0.278562
0.073301
-0.029338
0.048339
0.106994
0.318743
0.585231
0.249766
-0.044383
-0.705885
0.042781
0.184567
-0.119114
0.034911
0.178555
0.010229
-0.228484
0.177493
-0.407784
0.495118
-0.275657
0.063187
-0.116978
0.110787
-0.151443
-0.008549
0.002464
0.394958
-0.252027
-0.450579
0.859638
-0.744304
0.421256
-0.666932
0.286261
-0.396582
0.140757
-0.174298
1.102173
-0.973212
-0.432728
0.640889
-0.695207
0.507906
-0.505983
0.101531
-0.141636
0.130813
-0.308025
1.355060
-0.876596
-0.394413
-0.154479
-0.009465
0.021165
0.114360
0.145416
-0.062173
-0.191564
-0.199663
0.272460
0.032170
0.055850
-0.483538
0.399049
-0.318757
0.299430
-0.079149
-0.133763
-0.171577
0.018209
0.227659
0.012759
0.200792
-0.374369
0.433686
-0.124071
-0.093038
0.128825
-0.123907
0.071925
-0.139027
-0.235037
0.199726
0.687982
-0.250000
0.055483
-0.071474
0.093344
0.221758
-0.276536
0.265511
-0.114388
-0.036444
-0.110588
0.418489
0.115026
-0.023480
0.269871
-0.181175
0.027331
-0.075687
0.068507
0.029016
0.310424
-0.222876
0.142296
-0.247345
0.188480
-0.117960
0.090129
0.000199
-0.215397
-0.085399
0.001869
0.027618
0.143776
-0.388283
-0.117375
-0.030772
-0.071207
0.172134
0.117726
-0.229108
-0.026157
-0.000728
-0.481514
0.082911
0.380532
-0.334958
0.098161
0.004947
-0.214140
0.362766
-0.106651
0.270233
-0.217790
-0.038837
-0.161319
0.146553
-0.144445
-0.067349
-0.030875
-0.101386
0.086020
-0.162645
-0.035872
-0.062551
0.168757
-0.248533
0.058328
0.289469
-0.042733
0.457272
-0.522820
0.173489
-0.099553
0.221422
0.074730
-0.232549
0.271628
-0.031605
0.349786
-0.647158
0.384264
-0.276271
0.276726
-0.231126
0.062576
-0.070160
-0.024594
0.288076
-0.114038
0.182227
-0.297965
0.210592
-0.397278
0.012897
-0.006907
0.123640
-0.115116
-0.073699
-0.231238
0.086873
0.240681
-0.252078
0.705112
-0.540483
0.418324
-0.294997
0.202192
-0.230842
0.094390
0.013865
-0.977062
1.029355
-0.534139
0.528638
-0.454474
0.404212
-0.446777
0.284652
-0.051179
-0.064646
0.107538
0.351629
-0.097165
-0.381903
0.163349
-0.239145
0.160162
-0.255663
0.082296
-0.064872
-0.054915
0.345069
-0.321220
0.036849
-0.039284
0.018476
0.004800
0.034326
-0.062704
-0.034644
-0.044267
0.249617
0.129697
-0.253274
0.092396
0.004315
-0.071456
0.103121
0.140798
-0.048615
0.030827
-0.079235
-0.165953
0.100481
0.017875
0.071015
0.125799
-0.132477
0.014182
0.066764
0.040558
-0.217893
0.099027
-0.074797
0.138165
-0.188887
0.114091
-0.071072
-0.055452
-0.092213
0.003393
0.009884
0.056193
-0.200766
-0.036270
0.111235
-0.228644
-0.212206
-0.049763
-0.048049
-0.045219
-0.031296
0.051798
0.038406
0.080491
-0.275983
0.692250
-0.405787
0.039647
0.058211
0.010431
-0.220697
0.136256
0.063235
0.042181
-0.063961
0.004656
0.158704
-0.232157
0.352403
-0.273747
-0.002591
0.094132
-0.064046
-0.008735
-0.063474
0.054743
0.076199
0.277958
-0.148859
0.294353
0.003654
0.065701
-0.017452
-0.110594
-0.027714
0.165643
-0.033546
0.272760
0.077340
-0.237015
0.204882
0.016043
0.026704
0.055560
-0.038825
-0.107174
-0.140465
-0.031948
0.100056
0.072912
0.045511
-0.166948
0.000971
-0.128605
-0.057252
-0.003776
0.053029
-0.015018
0.169419
-0.141429
0.212293
0.353216
-0.190910
0.055670
-0.122652
0.235056
-0.139650
0.078996
0.059293
0.052008
-0.167539
0.230743
0.379514
-0.261797
0.021275
-0.194244
0.221969
-0.084676
0.125897
0.028467
0.182909
-0.029936
0.043561
0.597953
-0.320462
0.134747
-0.258866
0.170618
-0.177712
0.017596
0.009708
0.064866
-0.049018
-0.341714
0.725638
-0.258882
0.003277
-0.095291
-0.067189
0.110124
0.021346
-0.015738
0.122560
0.264778
-0.387941
0.542488
0.171073
-0.118332
-0.175269
0.107469
-0.001183
0.157781
-0.080163
0.023697
0.314416
-0.239469
0.071794
0.053726
0.007973
-0.075835
0.163485
0.008828
0.018179
-0.005552
-0.154338
0.191867
0.041914
-0.174183
0.167913
-0.313713
0.197881
0.067577
-0.073620
0.246351
-0.047719
-0.088972
0.285026
-0.171352
0.014802
-0.159626
-0.097985
0.302005
-0.218765
0.000718
0.069243
0.114427
-0.030814
0.202984
-0.209764
0.133653
-0.414420
0.373476
-0.025326
-0.126699
-0.190679
-0.047227
0.142509
0.084172
-0.260234
0.129172
0.248352
-0.177225
0.265557
-0.072102
-0.091660
0.181187
-0.120543
0.201758
-0.093535
-0.223393
0.292325
-0.084015
-0.020576
0.027527
-0.121325
-0.173566
0.204225
-0.061201
0.068182
-0.091867
0.042218
-0.171462
-0.081866
0.350036
-0.218688
0.171869
0.013347
-0.022394
-0.076364
0.082279
0.012217
0.206310
-0.392550
-0.124523
-0.013643
-0.032761
0.307373
-0.056246
-0.277401
0.163066
-0.143732
0.098089
0.078646
-0.289760
-0.058788
-0.117772
0.279233
-0.209072
0.293002
-0.353299
0.112213
0.027377
-0.087493
-0.208052
-0.033068
-0.078346
0.074796
0.060301
-0.050912
-0.026271
0.218687
-0.222558
0.119843
-0.167331
-0.510785
0.358104
-0.314632
0.064440
-0.064116
0.220079
-0.314256
0.357493
-0.220955
0.010056
-0.043032
-0.516645
0.272028
-0.472378
0.372968
-0.061060
0.307159
-0.260464
0.337326
0.014178
0.045745
-0.110785
0.331133
-0.428223
-0.027266
-0.025458
0.229190
-0.029654
0.352026
-0.380655
0.013092
0.023626
0.090049
0.299393
0.164115
-0.319506
-0.280962
0.322642
0.140822
0.021818
-0.067870
-0.182940
0.027680
0.015013
0.621153
-0.263005
0.126575
-0.072573
-0.049202
0.116556
0.294385
-0.079208
0.101140
-0.137828
0.092124
0.615974
-0.148945
-0.193382
0.063620
-0.083593
-0.318117
0.313817
0.112017
0.174363
-0.202097
0.120201
0.562424
-0.488201
0.145718
0.007484
0.158516
-0.073510
0.182782
-0.171837
0.113868
-0.002414
0.067901
0.288247
-0.158500
0.159242
-0.244097
0.075446
0.178136
0.033173
0.060502
-0.060368
0.062519
0.030087
0.468665
-0.305523
0.252396
-0.345400
0.217826
0.053303
0.076872
0.013690
-0.133718
0.170372
-0.206760
0.294439
-0.253952
0.502552
-0.250649
0.124118
0.025501
0.056041
-0.102853
0.172687
-0.239550
-0.033852
-0.047912
-0.116496
0.134614
-0.249238
0.143535
-0.120367
0.260420
-0.138866
0.182793
-0.076077
0.161942
-0.284460
0.002155
0.441821
-0.640684
0.421652
-0.242594
0.016295
0.047914
0.186240
-0.055731
0.111882
-0.211624
0.071838
0.147259
-0.150256
-0.152231
0.010818
-0.142040
0.193190
-0.179865
0.215331
-0.030430
-0.495207
0.425642
-0.023569
-0.136246
-0.106142
0.014181
-0.049362
0.280224
-0.290949
0.130345
-0.229484
-0.601820
0.453600
0.126467
-0.024787
-0.326984
0.126065
0.069268
0.002036
-0.042259
0.237742
0.002332
-0.475935
0.191978
0.224677
0.143828
-0.137000
-0.275034
0.046846
0.121286
0.107342
-0.045254
0.187015
-0.376832
0.301868
0.107545
0.534614
-0.339612
0.069071
-0.059839
-0.128144
0.238296
0.101795
0.073492
0.389555
-0.182796
-0.080299
0.346648
-0.284155
-0.005271
-0.198267
0.242333
0.163186
0.161668
-0.118144
0.000245
-0.222203
0.350358
-0.123174
0.270252
-0.108562
0.043966
-0.057340
0.084054
-0.015963
0.106335
-0.183943
0.079846
0.119823
0.160053
-0.219014
0.422172
-0.158655
0.056155
0.044561
-0.060622
-0.062354
-0.167843
0.210426
-0.133333
0.460189
-0.497254
0.286933
-0.106101
0.210291
0.000149
0.004068
-0.014077
0.119104
0.087046
-0.447149
0.419034
0.006759
-0.131411
0.079199
0.099889
-0.103552
0.024737
-0.074592
-0.132309
0.213337
-0.232877
0.005706
0.125152
-0.011236
-0.050490
0.001935
-0.021604
0.045038
-0.057621
0.031814
0.226376
-0.383746
0.139205
0.050107
-0.029203
-0.027161
-0.038220
-0.064176
-0.145786
-0.044888
0.112772
0.184223
-0.365651
0.069442
-0.021067
0.112775
-0.173873
0.127886
-0.093694
-0.063421
-0.132320
-0.086444
0.385699
-0.675128
0.165461
-0.212483
-0.009799
0.041419
0.014671
-0.053088
0.040777
0.081687
-0.033946
0.220615
-0.345937
0.089277
-0.018965
0.078972
0.006956
-0.088093
0.021756
0.109092
0.016063
0.172777
0.068225
-0.192931
0.138113
-0.122850
0.075731
-0.093047
0.006928
-0.147294
-0.072046
0.119461
0.094199
-0.133457
0.146163
-0.084712
0.021798
0.114805
-0.211522
0.143377
-0.148783
0.014651
-0.149055
0.091851
-0.113178
0.036195
-0.008775
0.003852
0.046531
-0.145940
0.086286
-0.014660
0.036021
-0.022427
0.094147
-0.047452
0.090039
-0.071003
-0.188678
0.266811
-0.006112
0.040451
-0.006178
-0.080397
-0.033742
0.043137
-0.009761
-0.070736
0.144025
-0.090489
-0.043756
0.053989
-0.170626
0.095913
-0.169698
0.015215
0.014204
-0.011109
-0.218710
0.027604
-0.059831
-0.042545
0.117819
-0.004275
0.019833
-0.007361
-0.058885
0.195626
0.028110
-0.198064
0.098216
-0.151173
0.120280
0.171034
0.059798
-0.058440
0.148172
-0.063059
0.240206
-0.165456
-0.029347
0.005043
-0.182740
0.310555
-0.083814
-0.058890
-0.142461
0.069440
-0.199323
0.081340
-0.046779
0.170088
-0.263099
0.070803
0.049000
-0.154958
0.156645
-0.100307
-0.034310
-0.039079
-0.063598
-0.062549
0.160768
-0.226305
0.140692
0.036324
0.029161
0.103337
-0.101011
0.116770
-0.130243
-0.119838
-0.000445
0.247481
-0.179617
-0.071075
0.032685
0.058614
0.025554
-0.011796
0.054269
0.098295
0.108263
-0.074764
0.052268
-0.125950
0.022088
-0.034660
-0.014265
0.032704
0.078209
-0.007621
0.001990
0.199847
-0.091219
0.163088
-0.142866
-0.217819
0.085899
-0.015806
-0.041115
0.025749
0.031215
-0.211907
-0.000640
0.075063
0.193294
-0.065265
-0.123429
-0.109052
0.126303
-0.001558
-0.002973
0.039930
-0.248566
-0.146837
0.118880
-0.036377
-0.132036
0.081085
-0.145713
0.061701
0.021002
-0.104574
0.204174
-0.077698
-0.148721
-0.021968
0.090306
0.008494
0.068087
0.073513
0.052329
0.161721
0.041552
-0.123650
0.035028
0.023811
0.021129
0.101135
0.029244
0.018141
-0.130698
-0.069802
-0.086309
-0.016490
-0.036514
-0.005127
0.123231
-0.252196
0.149169
-0.141404
0.095047
-0.017703
-0.008189
0.159063
-0.058698
0.040137
-0.019743
0.075896
-0.072011
-0.069624
0.122377
-0.014881
-0.123637
0.101216
0.102131
0.073723
0.088024
0.057521
-0.081641
0.116765
-0.207121
0.138870
-0.052952
0.009429
-0.076947
0.117049
-0.077776
-0.091926
-0.032950
-0.132270
0.149763
-0.106202
-0.004275
0.037862
0.064866
-0.020560
0.193743
0.129532
-0.192064
-0.045181
0.030775
-0.146040
-0.043018
0.015454
0.030579
-0.050735
-0.096924
0.158221
-0.010464
0.071610
-0.170254
-0.232619
0.199480
0.206832
0.193218
-0.014006
-0.153101
0.092977
0.048225
0.066491
-0.024685
-0.008535
-0.121303
-0.108549
-0.062594
0.143152
0.147116
0.053207
-0.087331
0.032581
-0.073610
0.021873
-0.065419
-0.585647
0.334251
-0.062520
0.078931
0.105710
-0.028681
-0.013013
0.049906
-0.022215
-0.015463
0.070036
-0.499330
0.711743
-0.727004
0.267680
0.242358
0.061108
-0.085400
-0.106165
0.045471
-0.069076
-0.166032
-0.742764
0.901557
-0.617664
0.022140
-0.109761
0.256644
0.029490
0.008263
-0.153149
0.067552
-0.070541
-0.738630
0.895308
-0.155061
-0.311949
-0.305704
0.130037
-0.107979
0.117039
-0.053947
-0.143697
0.015487
-0.067801
0.180542
0.654328
-0.551832
0.095798
-0.263572
0.164825
-0.112998
0.028795
0.042410
0.072567
0.965041
-1.111493
0.569610
-0.408887
0.300038
-0.047123
-0.036526
-0.048813
0.158083
0.098141
0.009439
1.239876
-0.959355
-0.413108
0.393356
-0.077743
0.015842
0.033692
0.065917
0.017588
-0.008696
0.080949
1.478544
-1.107130
-0.274537
0.276174
-0.221285
-0.024438
-0.046835
0.052668
-0.032233
0.118052
0.044161
2.527237
-2.741623
0.873127
-0.004286
-0.278971
-0.260404
0.137773
-0.027832
0.152399
-0.150889
0.151442
1.971205
-2.315165
0.948955
-0.139144
-0.141421
0.131673
-0.099244
0.065900
0.118408
0.099551
-0.138683
-0.214133
-0.393105
0.208657
-0.039939
0.097147
0.141576
-0.069894
0.003027
-0.009263
-0.023076
-0.015815
-2.468631
2.323964
-0.589129
-0.227051
0.125614
-0.264715
0.145409
0.188478
0.064444
-0.156249
-0.086332
-2.689469
3.030199
-0.726126
0.042295
-0.197013
-0.049240
0.085776
-0.073271
0.060761
-0.133066
0.010381
-1.216688
1.344226
-0.367024
0.246742
-0.243429
0.225280
-0.162171
0.065761
-0.087821
0.125477
-0.001238
0.442209
-0.228174
-0.034081
0.078497
0.110744
-0.059233
0.035113
-0.041440
0.011350
-0.001353
-0.027268
0.375913
-0.451112
0.240593
0.081874
0.172899
0.037015
-0.025582
-0.110265
-0.135814
0.034922
0.019254
0.225015
-0.268455
0.193423
0.150830
0.164079
0.118452
0.019146
-0.041521
-0.078292
-0.113362
-0.010378
-1.048410
0.726081
-0.066342
0.176671
0.031410
-0.079052
0.016783
-0.093912
0.054706
0.017515
0.013379
-0.321450
0.425379
-0.185794
-0.011587
0.119182
0.083491
0.003249
0.015296
-0.113245
0.131386
-0.054949
0.603955
-0.469904
0.248549
-0.025152
-0.122494
0.072248
-0.103179
0.074186
-0.135151
0.012811
0.019421
0.877423
-0.472875
-0.189484
-0.066578
0.185634
-0.126917
0.035932
-0.171868
0.047138
-0.015069
0.054417
-0.162895
0.126895
-0.856422
1.100687
-0.785936
-0.326214
0.992577
-0.770319
-0.096308
0.149165
-0.137979
-0.309987
0.493120
-0.819052
0.031105
0.410890
-1.038522
0.784527
0.017303
-0.481697
0.160656
-0.115981
-0.081129
-0.072456
-0.493974
0.085147
0.076176
-0.259049
0.027001
0.357870
-0.457300
-0.058654
-0.127219
-0.441809
0.012235
-0.064432
0.192405
0.152697
-0.263139
-0.112864
0.040012
0.208890
-0.199684
-0.146393
-0.383502
-0.264678
0.118925
-0.083541
0.116064
0.001194
-0.371794
0.057413
0.495599
-0.364113
-0.120053
-0.184834
-0.633005
0.411540
0.150293
-0.362492
0.133366
-0.240710
0.236311
-0.248359
0.091362
0.124332
0.001614
-0.549682
-0.062483
0.333445
-0.274191
-0.012032
0.083866
-0.180543
0.038996
0.004326
-0.197075
-0.065207
-0.381697
-0.240787
0.202424
0.132874
-0.265061
0.228571
-0.155442
0.111680
-0.053929
-0.166929
0.075818
-0.286532
-0.346105
-0.049294
0.367862
-0.032372
-0.212552
0.099389
-0.053995
0.014783
-0.067296
-0.016721
0.029992
-0.341093
-0.217597
0.239047
-0.009910
-0.238829
0.071491
0.361157
-0.200562
-0.161358
-0.351745
0.356605
-0.028932
-0.096019
-0.061957
0.003694
-0.189942
-0.055009
0.026781
0.147770
-0.082581
-0.418221
0.176897
0.418399
-0.273117
-0.354908
0.191893
0.187107
-0.069348
-0.037034
-0.025893
0.191237
0.223243
-0.268791
-0.016960
-0.083274
-0.127000
0.044023
0.004147
0.034026
-0.112896
0.162990
-0.019695
0.199931
-0.186429
-0.333561
0.216938
-0.085279
0.026996
-0.009859
-0.149265
-0.210610
0.285113
0.245282
-0.184061
0.070960
-0.084790
0.045323
0.148598
-0.233710
-0.007583
-0.082954
-0.260564
0.115200
0.169713
-0.036746
-0.133894
0.152939
-0.178170
0.071724
0.144572
-0.148308
0.211392
-0.002912
-0.165239
0.018123
0.148848
-0.013084
0.060722
-0.007803
-0.102648
0.243529
-0.301295
0.044937
0.104203
-0.077931
0.118965
-0.040443
0.224748
-0.114702
0.093016
-0.013780
0.039610
0.045575
-0.034222
0.056986
0.055549
0.059633
-0.114450
0.215479
-0.018308
0.092010
-0.044226
0.143982
0.086022
-0.085340
0.157123
-0.222988
0.042130
-0.100182
0.092989
0.078218
0.211150
-0.286243
0.230475
0.161827
-0.063882
-0.008526
-0.094658
-0.068097
-0.048263
0.179488
0.033850
0.040614
0.094806
-0.128204
0.110299
0.116981
0.037594
-0.224331
-0.039416
-0.066098
0.320230
-0.116426
0.212580
-0.070439
-0.090595
0.091814
-0.028353
-0.131024
0.121845
-0.087951
0.223130
-0.024431
0.355147
-0.173808
0.007977
-0.053805
-0.085465
-0.028507
0.132580
0.147987
0.070094
2.959279
-2.243667
0.547956
-0.283907
0.229454
-0.340145
0.295983
-0.066364
0.143316
-0.194915
0.132935
-1.657788
1.467674
0.109000
-0.052326
-0.036221
-0.019364
0.016170
0.131514
-0.056348
0.129297
-0.062879
-0.836396
0.652403
0.644034
0.044528
0.107084
0.062011
-0.076556
-0.031017
0.042217
0.052635
0.013983
0.316519
-0.292532
0.378444
-0.161203
0.375745
-0.175344
0.025284
0.008703
0.051141
0.113421
-0.024394
1.320763
-0.680244
-0.714840
0.140660
0.065965
0.028088
-0.012045
-0.060240
0.077208
-0.083093
-0.026267
0.386433
-0.175968
-0.239359
0.282943
-0.056296
0.162916
-0.050226
-0.015669
-0.031279
-0.022839
0.041728
-0.221931
-0.060144
0.190449
-0.023423
0.192097
-0.040207
0.167435
-0.046689
-0.011445
0.009240
-0.140030
-0.464667
0.059143
0.306215
-0.074234
0.062471
0.101407
-0.147477
0.130664
-0.092527
0.110218
0.001968
-0.415800
0.312224
0.121548
0.318931
-0.213100
0.085495
-0.009339
0.070416
-0.003221
-0.020835
-0.051908
-0.192107
0.572087
-0.126286
0.362227
-0.318604
0.243217
-0.159900
0.105959
-0.046223
-0.022581
0.025544
0.532261
0.363622
-0.312312
-0.024649
-0.135389
0.019460
0.004919
0.044893
-0.039645
-0.008107
0.057768
0.772913
-0.027719
0.241832
-0.345544
0.237213
-0.157755
0.103148
-0.101673
0.085078
0.032826
0.101291
0.147162
-0.269241
0.480670
-0.064856
0.397014
-0.355907
0.221132
-0.093788
0.130754
-0.140238
0.095012
0.740924
-0.736016
-0.033028
-0.058512
0.065915
0.022309
0.200249
-0.070492
-0.016840
-0.016287
0.075255
0.146725
-1.180213
0.526130
0.258806
-0.114084
0.425752
-0.119214
0.167026
-0.099839
0.008843
-0.081499
-1.981200
2.104109
-0.960325
0.091070
-0.235314
0.135846
-0.243401
0.113538
0.008246
0.104272
-0.033213
0.507929
-0.123728
-0.005097
-0.358451
-0.027412
-0.206392
0.108659
0.043709
0.053341
0.175913
0.117543
0.345785
-1.178040
0.621284
0.229834
0.112568
0.092479
-0.009139
0.032336
0.057128
-0.083207
-0.110152
-1.319540
1.018885
-0.770394
0.131286
0.056944
0.044997
0.026296
-0.073858
-0.114798
-0.036186
-0.036408
0.162154
-0.640518
0.308143
-0.236096
-0.336149
-0.148365
-0.180009
0.124205
0.077246
-0.030864
0.009332
-0.296283
0.186119
-0.444085
0.044180
0.080754
-0.173863
0.038269
0.072871
-0.046714
0.078478
0.028437
0.118546
0.197185
-0.240669
-0.112754
0.082285
0.076617
-0.075821
-0.072770
-0.000799
0.008443
0.036062
0.074094
0.267181
-0.183030
-0.020089
-0.230325
0.061026
0.049090
0.016851
-0.109803
-0.061195
-0.018857
0.111675
0.549666
-0.416365
0.299586
-0.163320
-0.034582
-0.145046
-0.031959
-0.073000
-0.079310
-0.109182
0.970759
-1.089997
0.951185
-0.019115
0.198496
-0.069091
-0.198388
0.071665
-0.325398
-0.019941
-0.113793
1.167579
-1.011894
0.700078
-0.160153
-0.076182
-0.104281
0.218125
-0.021072
-0.099480
-0.133139
-0.234228
0.074003
0.253655
0.137360
-0.165608
0.105815
-0.056444
-0.010383
-0.046235
0.151426
0.062926
-0.068754
-0.533078
1.420484
-0.884188
0.257659
-0.291944
0.425234
-0.258984
0.222999
-0.301159
0.248083
-0.151036
-0.054340
1.234811
-0.896020
0.485832
-0.180053
0.042407
-0.076005
-0.038410
-0.001576
-0.146104
0.034540
-0.245145
0.978459
-0.100281
-0.063561
0.355395
-0.424724
0.271606
-0.290527
0.356970
-0.070514
0.258429
0.299358
0.032470
0.423636
-0.117638
0.062416
-0.450930
-0.174825
0.075906
0.098552
0.033091
0.018125
0.215301
0.104840
0.179376
-0.014227
0.041902
-0.203453
-0.075413
-0.071756
0.088319
-0.043265
-0.000256
0.014887
0.183834
0.208082
-0.022474
-0.197783
0.103579
0.092853
-0.036778
-0.143188
0.021282
0.016682
-0.215040
0.406019
0.086013
0.182447
0.086712
0.047837
0.012150
-0.001858
0.199284
-0.063043
-0.003400
-0.545454
0.718796
-0.000302
0.007986
0.295162
0.094265
0.114126
-0.152790
-0.041659
-0.104831
0.180168
0.209472
-0.417724
0.937906
-0.410693
0.453650
-0.132893
0.091863
-0.070530
-0.226263
-0.109242
-0.044490
0.632660
-0.684542
1.135932
-0.194460
-0.061197
0.183980
-0.085392
0.120498
0.031459
-0.176727
-0.122402
0.977861
-0.302609
-0.015925
0.225787
-0.256592
0.244324
-0.116801
0.244173
-0.078421
0.056141
-0.039410
-0.225322
1.159967
-0.600242
0.517112
-0.407677
0.262791
-0.063684
0.151922
-0.061406
0.133689
-0.050832
-0.550826
1.512690
-0.907669
0.265338
-0.089973
0.331154
-0.228254
0.148693
-0.029463
0.316922
-0.059989
-0.099049
0.813730
-0.226181
0.297875
-0.204902
-0.053027
0.181616
-0.189197
0.059803
-0.030781
-0.018462
0.455562
-0.045345
0.446136
0.129996
-0.079005
0.079073
-0.067716
0.203018
0.087463
0.052007
-0.016319
0.165522
0.162002
0.030079
-0.036942
0.198104
-0.180786
0.030238
-0.013023
-0.038291
-0.017780
-0.119200
-0.506377
0.821660
-0.154198
0.109385
-0.128914
0.333420
0.023803
-0.038912
-0.010310
-0.027836
0.007251
-0.114878
0.432432
-0.225002
0.012560
0.111352
0.205084
-0.173470
-0.095334
-0.072211
-0.042375
-0.052887
-0.624317
0.696423
-0.608125
0.446813
-0.177905
0.050878
0.155544
0.176738
-0.070466
-0.003437
-0.117857
0.819927
-0.453215
-0.493417
0.099826
0.285688
0.266673
-0.090645
0.050759
-0.106686
-0.097465
-0.106328
0.218282
-0.247720
-0.458109
0.696937
-0.012035
0.069719
0.035641
-0.080202
-0.013170
-0.148474
-0.087329
-0.283313
0.354995
-0.588681
0.500035
0.074858
0.162842
-0.197061
0.092395
-0.046587
0.032897
-0.169337
-0.592897
0.763286
-0.340929
0.294995
-0.248135
0.274944
-0.192149
-0.042413
-0.155046
0.260216
0.008925
-1.143108
0.770916
0.303069
-0.196442
-0.013259
0.032148
-0.035311
0.042107
0.101791
0.115368
-0.009066
-1.219518
0.710067
0.777870
-0.430386
0.366030
-0.024233
0.060607
-0.099340
0.023762
-0.066480
-0.015811
-0.831656
0.250696
0.503981
0.154870
0.104659
0.018261
-0.009847
0.076417
-0.127883
-0.056456
0.095070
-0.170119
-0.242471
0.281247
0.182213
0.038856
0.056960
-0.073311
-0.114149
0.222859
0.016905
-0.092247
0.462384
-0.770499
0.353097
0.129946
0.395042
-0.369409
0.088689
0.004554
-0.001203
0.090933
-0.135755
0.632658
-0.623314
0.151284
0.117519
0.047864
0.126052
-0.088604
0.108576
-0.065854
-0.177027
0.193904
0.048230
0.039291
0.134519
-0.249718
-0.138635
0.228808
0.073200
0.006924
0.059385
-0.133988
-0.147975
-0.448982
0.316817
0.178000
-0.168166
-0.161944
0.234349
0.013126
0.189027
-0.199428
-0.065207
-0.036931
-0.193096
0.069589
0.027373
0.251307
-0.252403
0.230293
0.189387
-0.094471
-0.090856
0.116864
-0.158810
0.161506
-0.058307
-0.509011
0.319352
-0.056816
0.128357
0.118623
-0.148589
0.163165
-0.090645
-0.016841
-0.373628
0.473104
-0.040458
-0.112400
-0.009700
0.073135
0.127252
0.021458
-0.040215
-0.143657
0.109940
-0.283471
0.096429
0.532554
-0.363940
0.028265
-0.135642
0.222600
0.056379
-0.025442
-0.049248
-0.022802
0.102589
-0.306096
0.277021
-0.107370
0.087142
-0.203156
0.214237
0.019104
0.086257
-0.008846
0.024663
0.055301
-0.421217
0.142578
-0.093863
0.189469
-0.078568
0.061273
0.084723
-0.074582
-0.127925
0.227135
0.132671
-0.420514
-0.168502
0.145579
0.119344
-0.047570
0.074300
-0.097096
-0.102215
-0.010233
0.034739
-0.229075
-0.082174
0.011244
-0.305228
0.152813
0.072232
-0.039271
-0.140186
0.035552
0.000818
0.046987
-0.084318
0.102080
-0.237210
-0.196054
0.386000
-0.084247
0.021291
-0.214038
0.266227
-0.055722
-0.102087
-0.000276
-0.087186
-0.523273
-0.097920
0.023825
0.023100
0.031126
-0.051106
0.051843
0.038003
0.201013
0.446789
-0.630193
0.161205
-0.491505
0.341979
-0.190060
0.123162
-0.077422
0.022795
-0.037140
0.112358
-0.037938
-0.047513
-0.238900
0.314614
-0.285543
0.078738
0.139529
-0.187567
0.020065
0.055017
-0.008557
-0.074876
-0.070093
-0.241659
0.179591
0.054475
-0.027048
0.151031
-0.048390
0.094642
0.025261
0.084507
-0.027609
-0.093992
-0.258983
0.309737
0.050502
-0.091561
-0.084663
-0.017522
0.024016
-0.017105
0.024672
-0.026061
-0.051416
-0.303436
0.281503
-0.023856
-0.339733
0.081349
-0.125046
0.289687
-0.186679
-0.018094
0.079377
0.008914
-0.091866
0.013171
0.049296
-0.133066
0.145219
-0.222732
0.007961
-0.064274
0.083143
0.253272
-0.628532
0.754745
-0.494279
-0.140155
0.203378
-0.101324
0.085391
-0.040821
-0.066307
0.026237
0.347228
-0.642385
0.592654
-0.373819
-0.199314
0.140900
-0.156576
0.149275
-0.041638
0.166913
-0.014180
-0.330284
0.001950
0.403512
-0.054721
-0.421117
0.007640
0.020127
0.001683
-0.056172
0.011845
-0.036996
-0.722246
0.298419
0.352410
-0.096531
-0.203343
0.082146
-0.108645
-0.013333
0.022503
0.105637
-0.087671
-0.580231
0.136097
0.415301
-0.174551
0.103236
0.068544
-0.159405
0.123123
-0.056486
0.105794
-0.114743
-0.104496
-0.159161
-0.126298
0.266476
-0.115191
0.100251
0.108622
0.032041
0.106392
-0.220920
0.185264
0.121945
-0.244927
-0.241529
0.370108
0.007948
-0.072973
0.003189
-0.133586
0.069273
0.005159
-0.032955
0.135370
-0.386786
-0.087785
0.041466
0.110303
-0.082115
-0.111236
0.014975
-0.126543
0.156927
-0.082668
0.444559
-0.514758
0.000323
-0.146479
0.055196
-0.086506
-0.151107
0.039677
-0.124060
-0.084523
-0.101940
0.275400
-0.363915
0.159533
-0.132992
0.151729
-0.082888
-0.002894
-0.161088
0.018602
0.013094
0.059566
-0.120341
-0.102677
0.155141
-0.103890
0.059618
-0.066284
0.151048
-0.073794
-0.005183
-0.058074
0.107815
-0.207244
0.203110
0.302762
-0.333718
0.045380
0.026736
0.217253
-0.077656
0.069477
-0.101819
0.183683
-0.300779
0.148990
-0.107514
-0.080142
0.002640
-0.072379
-0.021570
-0.059795
0.181251
0.057732
0.057061
-0.201931
0.070886
-0.226693
0.143658
0.204309
-0.222089
-0.017910
0.128855
0.057628
0.007463
0.041776
-0.219629
0.075012
0.032036
0.091357
-0.138444
-0.019117
-0.140802
0.038649
0.025071
-0.103064
-0.025600
-0.161597
-0.026030
-0.131106
-0.033793
0.118800
-0.202413
0.051916
0.009137
0.051017
0.033307
0.110673
-0.086326
-0.074631
0.013285
-0.179656
-0.060441
0.063763
-0.100149
-0.101258
-0.110093
0.096137
0.091740
-0.086446
-0.012796
0.005172
-0.184700
0.164607
-0.028244
-0.045278
-0.063429
-0.083928
0.085140
-0.095065
0.150390
-0.045954
-0.231815
0.013870
0.480620
0.037180
-0.117637
-0.163323
0.441943
-0.317971
0.061955
0.047339
0.009774
-0.402152
0.354557
0.455588
-0.106228
-0.256516
0.033859
0.149966
-0.088089
0.005818
0.149505
-0.104696
-0.291287
0.297801
0.122580
0.208121
-0.017449
0.042241
-0.046337
-0.018814
-0.055542
-0.018539
-0.055320
0.010401
0.044540
0.321433
-0.032341
0.031872
-0.168494
-0.030402
0.150878
-0.167742
-0.362828
0.037207
0.166911
-0.078008
0.160345
0.290996
-0.055744
-0.219220
-0.003616
-0.015029
0.002011
-0.466330
0.201310
0.323220
-0.320099
0.296165
0.177951
0.071056
-0.023554
-0.026470
0.316950
-0.218138
-0.209566
-0.069025
0.242587
-0.047408
0.047615
0.338682
-0.006930
0.010049
-0.159464
0.100151
-0.160010
0.114955
-0.294666
0.090201
-0.022122
0.182921
0.160357
-0.066892
0.071193
-0.055266
-0.190207
0.133472
0.402288
-0.523986
0.113089
0.149033
-0.030871
0.148106
0.104608
-0.068619
0.150238
-0.011388
0.000280
0.209146
-0.312747
0.218295
0.157836
-0.153441
-0.017236
0.261300
0.098489
0.076119
-0.084320
-0.055533
-0.049399
-0.124373
0.470766
-0.168152
0.038643
-0.041781
0.194963
-0.190948
0.191914
-0.164954
0.094767
-0.106465
0.011479
0.013214
-0.070941
0.116460
0.225977
0.115463
-0.152421
0.032218
0.004478
-0.019473
0.322786
-0.273729
-0.166118
0.132850
-0.017991
0.280735
0.049031
-0.045480
0.170707
0.119292
0.066427
0.321848
-0.249845
-0.382822
0.189982
0.239994
-0.121357
0.114291
-0.008989
0.051360
0.222196
-0.178957
-0.114119
0.414297
-0.060492
0.070567
-0.015412
0.171660
0.116754
0.007731
0.034907
0.044430
-0.016398
-0.232935
0.502348
-0.425446
-0.026625
-0.173017
0.371874
0.049732
0.126252
-0.087464
0.150117
0.030816
-0.187292
0.339965
-0.186354
-0.235215
0.080957
0.058193
0.249159
-0.037603
-0.096366
0.050796
-0.014291
-0.046710
0.191726
-0.199299
-0.041167
0.024272
0.182626
0.150851
0.098322
-0.044618
-0.116239
0.046074
-0.072496
0.098713
-0.152157
-0.136810
0.063861
0.143593
0.123202
0.130972
-0.093378
-0.169737
0.078108
-0.084705
0.063860
0.077720
-0.088284
0.243893
-0.243539
0.163511
-0.104324
0.217406
-0.043658
0.044604
0.123736
-0.046696
-0.199539
0.222615
-0.183941
-0.236124
0.317169
-0.127876
0.157179
-0.134654
0.066525
-0.090951
-0.083838
-0.149850
0.219047
-0.236323
-0.069648
0.170669
0.009840
0.056370
-0.034058
0.072878
0.030339
0.048458
0.017559
-0.208532
0.242651
-0.144254
0.095695
-0.106624
0.269816
-0.340321
0.044919
-0.501980
0.035002
-0.320502
0.225330
-0.035665
0.152111
0.131691
0.016506
-0.094695
-0.086245
-0.021953
0.374155
-0.502897
-0.014107
0.047111
0.090271
0.084958
-0.092889
-0.023474
-0.057714
0.030275
0.066908
-0.051348
-0.502964
0.676813
-0.223914
-0.120120
-0.017876
0.037295
0.054790
0.011571
-0.014453
0.019545
-0.452405
-0.121126
0.364962
-0.011048
0.080631
-0.188318
-0.009492
-0.072916
0.139365
0.053135
-0.038880
-0.537298
0.555800
-0.018432
0.060433
-0.121782
-0.135458
-0.049750
0.151623
0.002552
-0.019579
-0.053046
0.175697
0.480646
-0.304790
-0.516666
-0.014549
-0.016728
0.020159
-0.052549
0.151743
-0.033717
0.076242
-0.046317
0.826318
-0.787461
-0.309659
-0.119569
-0.002537
-0.003569
0.114268
-0.028571
-0.029713
-0.071448
-0.199235
0.637227
-0.572345
0.068144
-0.152723
-0.025462
0.162965
-0.043318
-0.099056
0.038806
-0.073790
-0.334996
0.372459
0.317771
-0.216927
-0.104231
0.315764
-0.182339
0.018956
-0.048233
0.095675
0.095671
-0.145472
-0.062069
0.420343
0.007295
-0.152916
0.040401
0.010173
0.069136
0.065429
0.045109
0.033436
-0.816302
0.702319
-0.404978
0.117797
0.055585
0.049813
-0.213967
0.250187
-0.054096
-0.031898
-0.142480
-1.528724
2.002582
-1.903908
0.864036
-0.050308
-0.061564
0.008288
-0.080220
-0.019967
0.065898
-0.001257
-0.517559
0.760619
-1.190280
0.738929
-0.518853
-0.062263
0.215716
-0.156206
0.067950
0.013319
0.033441
0.498950
-0.566324
-0.009912
0.011753
-0.127675
0.002636
-0.073414
-0.015473
0.069955
-0.115995
0.119143
1.555996
-2.105438
1.489996
-0.807962
0.446454
0.007079
-0.122964
-0.028006
-0.024445
-0.038676
-0.028589
1.524059
-1.938001
1.339424
-1.163788
0.484903
-0.079984
-0.001989
0.028731
-0.035353
-0.090665
-0.103023
0.050489
-0.625321
0.446023
0.020697
0.100380
-0.161416
0.017480
-0.124552
-0.107988
-0.070407
0.002733
-0.108807
0.001147
-0.301183
0.514546
0.049535
-0.065442
-0.012245
-0.151281
0.052683
0.041624
-0.036671
-0.205249
0.354974
-0.170926
0.153841
-0.138186
0.132822
-0.030155
-0.042551
-0.144318
0.038090
-0.016445
-0.043477
0.041946
0.206349
-0.144805
-0.043164
0.210001
-0.070539
-0.114964
0.085265
-0.081522
-0.001695
0.242657
-0.136417
-0.036445
0.180091
0.090720
-0.001516
0.062603
0.101587
0.058579
-0.098038
-0.051168
-0.235425
-0.018377
0.370756
0.043522
0.204097
-0.156183
0.104949
-0.082275
-0.166267
0.075620
0.014712
0.211925
0.099684
0.021173
0.224764
-0.214198
-0.050455
0.060594
-0.017755
0.023340
-0.048007
0.086202
0.129523
0.008424
0.064944
0.279093
-0.098737
0.035931
-0.148007
0.017590
0.078801
-0.063883
-0.080870
-0.379523
-0.047587
0.130871
0.348832
-0.254147
0.155369
-0.098596
0.087715
-0.166213
-0.045311
-0.085857
0.232427
-0.143735
-0.083321
0.122489
-0.007203
0.182623
-0.157496
0.049173
0.181916
0.069064
-0.026841
-0.090200
0.168100
-0.145962
0.299818
0.017949
-0.055765
-0.031415
-0.037568
-0.052347
0.171393
0.044058
-0.367666
0.535951
0.091848
-0.333403
-0.016504
-0.050920
0.182037
-0.001138
0.082869
0.026172
0.089516
-0.204056
0.509135
0.185262
-0.361567
-0.188124
0.184753
-0.055737
0.002949
0.128180
0.120871
0.105285
0.188206
0.040031
0.307254
-0.307202
0.037227
0.054497
0.058057
-0.082393
-0.132717
0.288528
0.047121
0.183886
0.009383
0.106183
-0.170885
-0.212623
0.064427
0.246798
-0.059879
-0.054834
-0.079727
0.121508
0.119169
0.112687
-0.315148
0.130899
-0.182811
0.222461
0.114498
0.041655
0.006379
0.061120
-0.054121
-0.205991
0.501324
-0.293870
-0.030184
0.031152
0.067663
-0.035912
-0.093037
0.086469
-0.043348
0.077883
0.132242
0.364734
-0.234931
-0.032668
-0.233170
0.229573
0.096232
-0.021787
0.027667
0.052470
-0.074411
0.517383
-0.064538
-0.090425
-0.147604
0.135762
-0.000686
0.086324
-0.142833
0.062539
0.110460
0.043513
-0.641023
0.953615
-0.149433
-0.226985
-0.118830
-0.010890
-0.089974
0.225919
-0.022901
-0.089854
0.147144
-0.703800
0.995905
0.336275
0.002983
-0.287778
-0.149113
0.051184
0.076513
-0.247475
0.024795
-0.007509
-0.082709
0.403310
0.258419
0.015678
0.160876
-0.298881
0.172403
0.004368
-0.070747
0.100263
-0.005809
-0.698193
0.785583
0.310819
-0.194596
-0.044382
-0.187729
-0.066911
0.239676
-0.049510
-0.028785
0.082812
-0.130353
0.657627
-0.090966
-0.188070
0.129519
0.063100
0.179056
-0.170254
0.109687
-0.119650
-0.069077
0.064302
0.222917
0.250936
0.165163
0.108012
-0.042794
0.001210
-0.011009
0.096948
0.182122
0.014128
-0.356201
0.225392
0.357756
0.219767
0.086319
0.079363
-0.154491
-0.084900
0.027520
-0.057831
0.083493
-0.291679
0.099665
0.575080
-0.063222
0.102296
-0.184515
0.223660
-0.105431
0.190713
0.063680
-0.000019
0.212646
-0.371355
0.626956
0.194447
-0.031741
0.004297
0.114432
0.049593
0.005928
-0.032785
-0.020654
0.181792
-0.373725
0.572806
0.411998
-0.047626
-0.053241
-0.155240
0.006210
0.120569
0.001536
0.143412
-0.235881
-0.240137
1.063328
-0.218868
0.375871
-0.216031
0.028827
-0.118120
0.046819
0.044297
0.052437
-0.098808
0.018315
0.477489
0.077633
0.245249
0.143314
-0.404192
0.068284
0.077607
0.031379
-0.066201
0.170712
-0.387455
0.722718
0.180795
-0.266449
-0.053356
-0.061669
0.112977
-0.101077
0.117697
0.041583
0.311521
-0.448952
0.801242
0.210046
-0.339882
0.068364
0.134003
0.038528
-0.023930
-0.187047
-0.130006
0.410005
-0.258084
0.111732
0.269955
0.048585
-0.143944
0.055948
-0.019171
0.082442
0.050432
0.019604
0.377755
0.077772
-0.366966
0.164948
0.272835
0.105412
-0.027110
0.104290
0.029571
0.100748
0.074104
0.125879
0.528538
-0.490138
0.045141
0.448117
0.033242
-0.181584
-0.027769
0.143124
0.042397
0.250416
0.205046
0.269468
-0.633852
0.163773
0.285998
0.020753
0.004731
0.053397
-0.142662
0.125443
0.021753
0.345889
0.425362
-0.702817
-0.057789
0.467600
0.047187
0.111065
-0.084934
0.102082
-0.056564
0.182483
0.610838
-0.176148
-0.055419
0.209903
-0.031956
-0.191572
-0.009136
0.023069
0.054352
0.039340
-0.062473
0.537946
-0.369894
0.349287
0.139087
-0.378319
0.387972
-0.327759
-0.018546
0.072455
0.001427
-0.128675
0.038157
-0.068727
0.395646
-0.119131
-0.273294
0.377915
-0.135671
0.064710
-0.088927
0.135936
-0.130247
0.360714
-0.216601
0.496656
-0.122556
-0.314993
0.438707
0.097454
0.201397
-0.261273
0.125712
-0.147384
0.626053
0.148811
-0.029495
-0.308551
0.100378
0.037286
0.128461
0.147183
0.093405
-0.013811
-0.149409
0.159979
0.007494
0.908261
-1.263210
0.586815
-0.196730
-0.121166
-0.031779
0.027638
0.002958
0.108848
-0.223264
0.637774
0.725352
-1.364460
0.659746
-0.514396
0.673345
-0.287318
0.175832
-0.118655
0.264471
-0.401385
0.776339
-0.291012
0.057637
0.113979
-0.376961
0.263871
-0.185621
0.150019
-0.019584
0.004661
-0.208820
0.664462
-0.704131
1.024841
-0.546253
0.114574
-0.120534
0.267846
0.029823
-0.054413
0.090980
-0.139239
0.355134
-0.459587
0.519224
-0.247281
0.106978
-0.169728
0.170466
0.056037
0.100068
-0.011197
0.195858
0.137716
-0.082615
-0.184918
-0.302869
0.130020
-0.056598
-0.026435
0.063377
0.098400
-0.101506
-0.072039
0.135115
0.244274
-0.380666
0.168265
-0.135179
0.016377
-0.150332
0.181765
0.090885
-0.042358
-0.344341
0.158135
0.191961
0.112062
-0.076798
0.024043
-0.073710
0.297998
-0.250379
0.040548
-0.003158
-0.151669
0.188364
0.119384
0.303647
-0.183326
0.097766
0.013027
-0.211291
0.024562
-0.014347
0.161111
0.019352
0.137683
-0.068441
0.049549
-0.020071
-0.056262
0.078900
-0.125660
0.072632
-0.038923
-0.069884
0.495340
-0.734558
0.526117
-0.144583
-0.070547
-0.351470
0.045643
0.227816
0.023592
-0.020989
-0.141672
-0.095399
0.017682
0.050489
0.099640
-0.010503
0.138955
0.044716
0.039837
-0.098400
0.017569
0.305003
-0.446365
0.361966
-0.152681
0.292167
-0.203428
0.083222
0.148327
0.045976
-0.059845
0.124680
-0.024918
-0.095037
0.140712
-0.213021
0.469993
-0.058323
0.109544
-0.141690
0.085701
-0.035916
0.149157
-0.068224
0.009345
0.084404
0.102354
0.058178
0.259477
-0.107128
0.198059
-0.077716
0.066417
-0.140759
-0.036416
0.148588
-0.333592
0.262823
-0.189357
0.241886
-0.082871
-0.062479
-0.174324
0.190660
0.003972
0.051409
0.182555
-0.179486
0.002987
0.050146
0.113532
0.075727
0.097829
-0.155936
0.012237
0.041443
0.113633
0.167516
-0.154631
-0.177542
0.093756
0.094929
-0.034447
-0.048155
-0.076440
0.111119
-0.001722
0.213277
0.042184
0.057674
-0.155645
0.137388
-0.132476
-0.179268
0.163566
-0.130678
0.148972
0.036247
0.046289
-0.319157
0.285300
0.173881
0.044039
-0.252238
-0.043731
0.032330
0.002084
0.068282
-0.040190
-0.071279
-0.217210
0.020780
0.752817
-0.413460
-0.050878
0.023984
-0.183101
0.142139
0.045146
-0.108258
0.114005
-0.192144
-0.019461
0.731086
-0.615063
0.425763
-0.210524
0.129163
0.043577
-0.177733
-0.030840
0.064016
-0.069343
-0.164363
0.487490
-0.259198
-0.022472
0.048609
-0.058811
-0.004126
0.068912
-0.122574
-0.134156
-0.086662
0.109780
0.098963
-0.111528
-0.056004
0.018764
-0.043974
0.147193
-0.050116
0.056924
0.039490
0.211616
-0.233553
0.011225
-0.155366
-0.078175
0.246509
-0.082732
-0.060381
0.104642
-0.058275
-0.229928
0.211757
0.054730
0.169841
-0.384271
-0.057152
-0.040114
-0.131769
0.209063
-0.291283
0.005474
-0.095019
0.242426
-0.039754
0.007903
-0.252892
-0.034749
-0.206616
-0.059120
0.184682
-0.212713
0.026237
-0.042723
0.309201
0.018506
-0.184902
-0.137810
0.001232
-0.110709
0.037125
-0.006515
-0.170412
0.045609
-0.073850
0.385010
0.041070
-0.156057
0.067765
-0.135291
-0.050333
-0.034149
-0.068103
-0.161775
0.062291
0.071012
0.529133
-0.009022
-0.218335
0.146651
-0.167640
-0.095784
0.220927
0.004479
-0.082693
0.090686
-0.030112
0.461847
-0.149104
-0.240478
0.125469
-0.110421
0.046559
0.129616
-0.029390
-0.101460
-0.103045
0.064107
0.451972
-0.079127
-0.170003
0.012661
-0.039167
0.082155
-0.018394
-0.252457
0.011863
-0.139142
-0.012527
-0.021866
0.579847
-0.300097
-0.219269
0.094718
0.047131
-0.039428
-0.022407
0.070304
0.009720
-0.130927
-0.566322
0.862117
-0.178689
-0.060645
-0.202782
0.037065
-0.005113
-0.086537
-0.036366
0.066782
-0.064708
0.478369
-0.073176
-0.094458
-0.224937
-0.115657
0.109250
-0.127962
0.107410
-0.105601
0.049997
-0.039701
0.517622
-0.007009
-0.366629
0.096098
-0.106937
0.043490
-0.024522
-0.153704
-0.038266
-0.110939
0.235246
0.318033
-0.236017
-0.246717
0.243203
-0.398266
0.256712
-0.078896
0.001414
-0.031799
0.131020
0.044171
-0.251521
0.400024
-0.450869
0.513620
-0.668101
0.445752
-0.307617
0.204618
-0.145659
0.073349
0.029806
-0.104255
-0.334096
0.250003
0.312221
-0.321690
0.343902
-0.182515
0.081243
-0.094026
-0.098934
0.029550
0.527632
-1.153749
0.821404
0.370140
-0.470365
0.560106
-0.336692
0.174930
-0.036867
0.115764
-0.103702
0.386462
-0.561179
0.483432
0.034886
-0.143253
-0.178528
0.048681
-0.019218
0.039763
0.062160
-0.242740
0.117940
-0.147030
0.268801
-0.391257
0.488535
-0.837007
0.625720
-0.371951
0.138240
0.009483
0.001982
-0.042919
-0.200484
0.317667
-0.399597
0.374929
-0.382587
0.175857
-0.279182
0.066158
-0.005071
0.119964
-0.378389
0.340289
-0.413126
-0.196392
0.606036
-0.436021
0.060512
0.001711
0.093322
-0.114057
0.134166
-0.313739
0.580526
-1.298549
0.409461
0.430675
-0.057260
-0.059998
0.111486
0.084237
-0.026900
0.015988
-0.245617
0.442720
-0.980421
0.322115
-0.141120
0.252394
-0.241085
-0.074025
0.066769
0.008727
-0.085293
0.208430
-0.557849
0.640009
-0.411131
0.013282
0.024847
-0.084287
-0.079393
-0.091728
-0.054086
-0.171097
0.142200
-0.405108
0.624288
-0.431170
0.143204
-0.140050
0.161258
0.070070
-0.049802
-0.071632
0.041435
-0.378920
0.350555
-0.040529
-0.335827
0.171351
-0.010793
-0.015603
-0.066969
-0.039520
0.064699
0.099413
-0.415551
0.112403
0.205903
0.080345
-0.029855
-0.085606
-0.024817
-0.019539
0.057426
0.000958
-0.030286
0.063040
-0.170628
-0.173965
0.003052
-0.023983
0.030716
0.031396
-0.059152
-0.099189
-0.157389
-0.070283
-0.035066
0.004713
0.199471
-0.483471
0.161617
0.038971
-0.071263
-0.055686
-0.046580
0.039906
0.049721
0.140241
-0.075612
-0.092148
-0.056584
-0.174690
-0.003451
-0.107029
0.017498
-0.084787
0.029767
0.149286
0.131117
-0.215440
0.163972
0.011148
0.005178
-0.051794
0.029661
-0.054689
-0.051942
-0.046229
-0.038418
-0.223570
0.115954
-0.212576
-0.060777
-0.158641
0.035633
0.002603
-0.048647
0.013186
-0.078442
-0.072337
0.253422
-0.066743
-0.410533
-0.115818
0.043469
0.170178
0.017021
-0.144463
-0.088793
0.058973
-0.117567
-0.980454
0.233892
-0.293956
0.680181
-0.036370
0.150485
-0.015875
0.009635
0.081239
-0.051348
0.061188
0.174058
0.441439
-0.440399
0.043142
0.052996
-0.157455
0.007251
0.200182
-0.055558
0.181226
-0.034926
-0.535868
0.821948
-0.010391
-0.143637
0.107331
-0.064276
-0.132107
0.038602
-0.187655
-0.081170
0.099227
1.248822
-1.103592
0.208423
-0.717723
0.098663
-0.384370
0.269863
0.052147
0.231465
-0.098229
-0.096512
1.185981
-1.382099
0.472334
-0.089110
0.223539
-0.177833
0.100749
0.028120
-0.148611
0.155037
0.031232
0.654163
-0.750915
0.015911
0.399860
-0.280263
0.365869
-0.145937
0.172523
-0.084526
-0.059307
-0.101681
-0.390319
0.673066
-0.390094
0.241788
-0.425242
0.381522
-0.119088
0.119999
-0.096319
0.112457
-0.201620
-1.302114
1.546598
-0.445341
0.029860
-0.117985
0.242838
-0.087484
0.078919
-0.013498
0.127948
-0.106675
-0.331091
0.075316
0.833806
-1.022994
0.812415
-0.211602
-0.079332
-0.036828
0.044228
0.045662
-0.123648
0.596910
-1.227715
1.032008
-0.754862
0.074657
0.231349
-0.320137
-0.088465
0.282203
-0.009634
0.082581
0.620841
-1.057546
0.004705
0.425078
-0.408112
0.215067
0.112744
-0.242861
0.034450
-0.235895
0.088295
0.531236
-0.609732
-0.312763
0.430953
-0.017769
-0.049129
0.018953
-0.049201
-0.049110
0.112664
0.061021
-0.417499
0.229342
-0.465978
0.432095
-0.121037
-0.038836
-0.005674
-0.016463
0.043367
-0.031461
-0.037019
-1.144568
0.859980
-0.600374
0.215328
-0.008231
-0.076962
0.071503
-0.054754
0.054755
-0.021303
-0.056934
0.578845
-0.753779
-0.020992
0.309273
0.204832
-0.363909
-0.082245
-0.010811
-0.052961
-0.033673
0.149440
0.024028
0.073420
-0.336111
0.218839
-0.183488
0.019554
0.012451
0.146624
-0.094983
0.027803
0.063192
-1.335590
0.686666
-0.032358
0.068916
0.019784
-0.081865
0.139931
-0.068306
0.052334
-0.077378
0.160083
0.528129
-0.818346
0.095498
-0.050867
-0.307292
-0.024834
0.065511
-0.099984
-0.014164
-0.040076
-0.022695
-0.059472
0.281873
-0.337598
-0.418489
0.263295
-0.184957
0.188961
-0.087958
-0.016357
-0.038577
-0.007368
0.436112
-0.527765
0.283720
-0.437747
0.111309
-0.041131
-0.281146
0.057117
0.019332
-0.018101
-0.015148
0.000489
0.058906
-0.256380
0.204702
-0.173592
0.117727
-0.082428
0.009892
-0.042747
-0.049914
-0.108932
-0.549945
0.397759
0.101918
-0.061142
0.058582
-0.091735
0.052643
-0.035535
-0.095351
-0.089376
0.029754
0.048592
0.167068
-0.207930
-0.017458
-0.360920
0.004943
-0.113972
-0.107732
-0.001894
0.026917
-0.019804
0.095323
-0.130924
0.321106
-0.415494
-0.184791
-0.230740
-0.065661
-0.160875
-0.022939
-0.072221
-0.118207
0.252969
-0.110341
-0.175869
-0.190876
-0.318030
0.019393
-0.045357
-0.041982
-0.242440
0.060682
-0.016508
-0.401186
0.168091
0.389675
-0.577560
0.204090
0.040897
-0.204403
-0.062901
-0.128337
0.030924
0.038842
0.355341
-0.726216
0.813688
-0.603655
-0.151303
0.001693
-0.280114
0.045967
-0.037438
-0.101747
0.003577
0.489152
-1.318641
0.684016
0.575246
-0.873636
0.433959
-0.763646
0.288433
-0.230151
0.010610
-0.220273
1.463417
-2.008617
0.077401
1.095919
-1.183858
0.659525
-0.450395
-0.095988
-0.127971
-0.120719
-0.024391
1.259801
-1.350300
-0.705135
0.766053
-0.163164
0.146429
-0.146559
-0.036920
-0.042112
-0.070239
-0.081147
-0.227583
0.020418
-0.312060
-0.016676
0.018939
0.145255
-0.048849
-0.014427
0.020254
-0.026181
0.036742
-0.111792
-0.086643
-0.546179
0.050186
0.082391
0.130027
-0.295131
0.227338
-0.001789
-0.017465
-0.322775
-0.305658
-0.067723
-0.052044
0.235174
-0.048861
0.114022
-0.011495
0.029178
0.101801
-0.179631
0.057594
-0.228165
-0.284397
0.231083
0.075923
-0.258418
0.133963
0.055837
-0.406768
0.025114
0.127243
0.175875
0.239678
-0.378084
0.005850
-0.147926
-0.302927
-0.207009
0.334130
-0.097042
-0.037854
0.116935
-0.168292
0.189126
-0.193665
-0.036318
-0.355691
-0.344875
0.192091
0.304587
-0.138315
0.037771
-0.113829
0.083505
0.203650
0.155800
-0.692524
-0.358133
0.195170
-0.228583
0.160576
0.124301
0.044326
0.152020
0.010967
-0.346172
0.488256
-0.560934
-0.359434
0.337307
0.059959
-0.238862
0.374172
0.051663
-0.058423
0.022281
-0.003852
-0.245641
-0.236952
0.265670
-0.162543
0.025098
0.126459
0.021201
0.154023
0.123091
-0.193008
-0.165794
-0.280449
0.103996
0.157768
-0.073937
0.076953
-0.089388
-0.020341
-0.071800
-0.154273
0.098182
-0.546598
0.087299
0.208463
0.069543
-0.170646
-0.010820
0.031543
-0.066110
0.018863
-0.010753
-0.077633
0.172203
-0.075952
-0.056830
0.021595
0.097984
-0.256869
-0.076260
-0.148617
-0.098975
0.216913
-0.008542
-0.210112
0.380790
-0.434305
-0.374358
0.312305
-0.528487
0.187885
-0.161005
-0.025541
0.137324
0.132448
-0.341281
0.400443
-0.228575
-0.259212
-0.059214
-0.092170
0.026103
0.049463
0.059512
-0.144261
-0.056064
0.018219
0.006512
0.041782
-0.061542
-0.053394
-0.264337
-0.081685
-0.172939
-0.111576
0.049991
-0.113106
-0.712411
0.232385
0.187899
0.167645
0.087762
-0.065861
-0.040423
-0.440208
-0.110345
-0.066876
0.001427
0.038044
0.201439
-0.210158
0.325479
-0.168463
0.127698
-0.156272
0.134070
-0.006937
-0.162305
-0.278523
-0.015027
-0.375939
0.216130
-0.024657
0.390282
-0.201755
0.240898
0.006305
0.078376
0.080248
-0.016490
-0.118699
-0.189509
0.282123
-0.164277
0.221236
-0.127402
-0.047376
0.027271
0.102560
-0.105679
0.209172
0.215572
-0.407906
0.556139
-0.518687
0.314772
-0.023576
-0.165199
-0.034685
0.126049
0.219277
-0.127883
0.310609
-0.237748
0.142480
-0.005430
-0.333717
0.141283
-0.077771
0.061243
-0.146492
-0.066448
0.156164
0.266186
0.188112
0.081669
-0.158401
-0.039620
0.015415
0.041683
-0.209654
0.082723
0.105387
-0.117834
0.184854
-0.055655
0.143729
-0.214002
0.058945
0.102205
0.039685
0.110111
-0.021341
0.038472
-0.050388
-0.016909
0.366043
-0.257187
-0.232049
0.175990
0.023205
0.083970
-0.011371
0.001417
-0.016948
0.085678
-0.112986
0.523882
-0.690529
0.175543
0.369835
-0.530362
0.259373
-0.285041
0.292590
-0.182679
0.021776
0.089431
0.165748
-0.160561
0.047253
0.203249
-0.428345
0.305027
-0.123767
0.132501
-0.243519
0.110929
0.042805
-0.086338
0.252808
0.013116
0.314889
-0.500148
0.217255
0.106713
-0.195586
-0.258593
0.190462
-0.635156
0.260173
-0.091492
0.689835
-0.285052
0.097976
-0.263859
0.326654
-0.238289
0.023437
-0.057518
-0.012703
0.316670
-1.119420
1.298096
-0.659157
0.466970
-0.296664
0.111669
-0.119834
0.144505
0.033429
0.557424
-0.497417
-0.200081
0.625658
-0.958813
0.742180
-0.552624
0.277818
-0.382699
0.195127
-0.165819
-0.304851
-0.261311
1.030200
-0.603759
-0.321039
0.485340
-0.235177
-0.031824
-0.199616
0.217885
-0.248750
-0.519750
0.469548
0.110314
-0.660814
0.587609
-0.149847
0.127865
-0.181019
0.115522
-0.002644
-0.311011
0.261630
-0.233033
-0.106563
-0.200309
0.272154
-0.099940
0.198960
-0.092293
0.114579
-0.077779
-0.155378
0.258422
-0.445897
0.249460
-0.251856
0.352086
-0.294831
0.120852
-0.088060
0.006799
0.028779
0.103610
0.094943
-0.200448
0.097711
-0.283736
0.242337
-0.065443
0.188413
-0.001560
-0.114687
0.008799
0.219880
-0.151538
-0.298100
0.289941
-0.406482
0.024314
-0.193987
-0.067167
0.022498
0.128517
-0.234263
0.148668
-0.361444
0.106305
-0.088755
-0.027251
-0.075947
-0.037440
-0.029993
-0.095158
-0.037785
-0.021146
0.038177
-0.342661
0.161290
-0.088097
0.166465
-0.285685
0.038443
-0.093894
0.259006
-0.003675
-0.048534
-0.127036
-0.308195
0.188775
-0.289204
0.084824
-0.150929
-0.017707
0.106500
-0.123353
-0.030894
0.048422
-0.022435
0.033367
0.482855
-0.414750
-0.225909
0.141104
-0.214135
0.408417
0.060030
-0.279648
-0.013010
-0.036712
-0.213355
0.330533
-0.162757
0.169424
-0.137347
0.522544
0.114208
-0.097621
-0.270305
0.102234
0.027931
-0.102345
-0.061728
-0.003252
0.215117
0.179492
0.281219
0.028207
-0.327979
-0.056485
0.088731
-0.230475
0.051125
0.041455
-0.068015
-0.005359
0.207983
0.028227
0.000115
-0.198760
-0.040517
0.179539
-0.096577
0.226539
-0.017626
-0.092928
-0.083287
0.237007
0.177250
-0.290296
-0.159431
0.179301
-0.190874
-0.035710
0.267367
0.074903
-0.054589
-0.059137
-0.008341
0.099757
0.143888
-0.084818
-0.028849
-0.050060
-0.018603
0.245893
-0.011154
0.078280
-0.089900
0.103627
-0.027129
0.038331
-0.187461
0.211102
-0.044384
-0.080620
0.244070
-0.163870
-0.016826
0.105144
-0.110593
-0.017730
0.203686
-0.166262
0.067690
0.073597
0.026493
0.046923
-0.131222
0.068646
0.317988
-0.135471
-0.005149
0.219320
-0.065335
-0.150936
0.253418
-0.222093
0.088584
-0.182959
-0.108592
0.320413
-0.030064
0.310221
0.083323
-0.231002
0.066105
-0.010918
0.172670
0.143081
0.016641
-0.340629
0.154016
0.018566
-0.033510
0.149697
0.040985
-0.126621
0.111307
-0.053797
-0.042637
-0.025492
0.085199
-0.162942
0.210213
-0.130755
0.228693
-0.024610
-0.080700
0.074199
-0.128829
-0.188440
-0.306660
0.613282
-0.368180
0.118578
-0.030529
0.115521
-0.122616
0.135944
0.136636
-0.134473
-0.024920
-0.042320
0.278077
0.025127
-0.096219
0.245412
0.131312
-0.151224
-0.099080
0.167159
-0.195380
0.095077
-0.294372
0.072915
0.179541
0.123429
0.186468
-0.123422
-0.288373
-0.275726
0.463551
-0.518339
-0.172474
0.142447
0.078497
-0.123369
-0.029512
0.238724
-0.175008
-0.015471
-0.024642
0.193912
-0.407018
-0.204376
0.393172
-0.182513
-0.163438
-0.010591
0.339998
-0.209293
0.260182
0.157115
-0.123241
-0.139746
-0.068278
0.047823
-0.221120
-0.084618
0.295438
-0.022343
-0.295552
0.062986
0.197745
-0.223581
-0.071673
0.013439
0.006975
-0.016024
-0.214646
0.309111
-0.193383
-0.160814
-0.071473
0.297721
-0.191283
0.078728
-0.283391
-0.110148
0.186901
0.134884
0.004563
0.081910
-0.173618
0.263282
-0.071585
-0.143062
0.211298
-0.124128
-0.114166
-0.014105
0.260489
0.113063
-0.049845
-0.031718
-0.016790
0.159203
-0.168680
0.393537
0.158554
-0.165826
-0.373184
0.051703
0.385429
-0.110365
-0.208814
-0.046852
0.228390
-0.184578
0.552850
0.038042
-0.306928
0.015232
0.143536
0.241540
0.210558
-0.478386
0.239501
0.128114
-0.431622
0.705934
0.126245
0.000042
0.220092
-0.171798
0.175299
-0.195896
0.087982
-0.011249
0.143595
0.017025
-0.192451
-0.314400
0.569241
-0.389621
-0.313355
0.022678
0.127135
-0.086058
-0.015595
0.167514
-0.021934
-0.139136
-0.403302
0.690199
-0.645787
-0.071834
0.130514
0.346134
-0.120444
0.015756
-0.053914
-0.035416
-0.148585
-0.141786
0.091220
-0.398382
0.077214
0.057389
0.087909
0.039544
0.026492
-0.120556
0.030574
-0.016662
0.179756
-0.248245
0.010716
-0.050086
0.128801
-0.114756
0.035576
0.103674
0.175168
-0.005375
-0.036138
-0.238548
-0.222723
0.334800
-0.094554
0.151401
-0.192698
0.068236
-0.069264
0.084622
-0.099562
-0.098819
-0.340200
-0.060723
-0.019256
0.370756
-0.208892
0.073305
0.240980
-0.093511
0.072572
-0.069864
-0.034796
-0.017359
-0.408910
-0.042266
0.167862
-0.211060
0.224896
0.044649
0.163664
-0.230798
0.003562
-0.072750
0.091704
-0.639855
0.279300
0.073026
-0.284161
0.431629
-0.131361
0.276411
-0.501437
0.411380
0.018196
0.257068
-0.743676
0.251390
0.240019
-0.313440
0.264292
-0.049973
0.368051
-0.478899
0.244413
-0.044215
0.240827
-0.602553
0.654944
-0.294421
-0.131565
-0.067893
0.394620
0.001392
0.069648
-0.058113
-0.042015
0.229682
-0.032496
0.268107
-0.434169
0.262282
-0.453500
0.432187
-0.316223
0.078925
-0.144787
0.201738
0.452960
0.088868
-0.499191
-0.303089
0.361458
-0.137488
0.420074
-0.054169
-0.114319
-0.171160
0.345211
0.501592
-0.389210
-0.366075
-0.177656
0.402954
0.047777
0.112859
-0.175598
0.163700
-0.344315
0.341619
0.310893
-0.385882
-0.221213
-0.090602
0.117468
0.062721
0.307217
-0.311811
0.128623
-0.098837
0.106082
-0.227545
0.212364
0.198101
-0.267547
-0.044825
0.179485
-0.108785
-0.037097
0.116850
0.050147
-0.079206
-0.240123
0.432212
0.225718
-0.452203
0.134749
0.178189
0.199631
-0.006268
0.023320
-0.252162
0.136756
0.220060
0.009021
-0.379676
0.052576
0.052588
-0.005170
0.099350
-0.025701
-0.199156
0.128592
-0.047998
0.264811
-0.261056
-0.232751
0.175886
0.020864
0.103382
-0.172340
-0.000783
-0.001284
0.038230
-0.097478
-0.227547
-0.012166
0.199219
0.033916
0.052505
0.117351
-0.273774
0.082926
0.075456
0.015028
-0.090765
-0.206187
-0.090430
0.215617
0.220855
0.068252
0.055388
-0.033087
-0.177192
0.152264
-0.018657
-0.081395
-0.339260
0.225446
-0.100807
0.105391
0.161623
-0.042492
-0.057067
0.147746
-0.132276
-0.111851
0.063499
0.063970
-0.397715
0.361067
-0.246541
0.354070
0.079367
-0.107138
0.012883
0.019587
0.089859
0.001316
0.351495
-0.149461
-0.038203
0.201984
-0.049303
-0.230464
0.043897
-0.054439
-0.059401
0.018191
0.142249
0.189237
-0.468483
0.442008
0.174361
-0.092455
-0.028396
-0.050024
0.176128
-0.164820
0.206989
-0.152925
0.268956
-0.448519
0.380077
0.076658
-0.043296
0.067502
-0.186827
-0.063890
0.024010
0.076456
-0.125446
0.313410
-0.245813
0.171965
0.025526
0.104808
0.018273
-0.337569
0.083764
-0.088543
0.001543
-0.000576
0.138327
0.215146
-0.269745
0.370940
-0.208513
0.222803
-0.043038
-0.222077
0.109022
-0.223046
-0.100933
-0.033771
0.299256
-0.034031
0.176462
-0.046559
-0.147908
0.142078
-0.264807
-0.032893
0.066679
0.096896
-0.161627
0.171099
0.304423
-0.125886
0.257324
-0.378253
0.432518
-0.343562
0.183220
-0.088097
0.218444
-0.054855
0.211691
0.285773
-0.081196
0.286917
-0.276743
0.400248
-0.198810
0.149512
-0.162565
0.052474
-0.212201
0.300761
0.121084
0.109223
0.050210
-0.307070
0.272422
-0.110717
-0.054448
-0.118342
-0.006184
-0.221769
0.225171
0.129647
0.331773
-0.209150
0.019403
0.005888
-0.064698
-0.130155
0.093278
-0.140145
0.308728
-0.008584
-0.159799
0.545868
-0.054346
0.135197
-0.299151
-0.046196
-0.149704
0.171451
-0.234720
0.586628
-0.248108
-0.048103
0.190743
0.104364
0.062401
-0.008348
0.013553
0.122215
-0.080636
-0.021930
0.140877
-0.210809
0.378987
-0.153159
0.240539
-0.337822
-0.021002
-0.205050
0.185349
-0.125070
0.069943
0.020613
-0.088922
0.201942
0.119122
-0.170088
0.031018
-0.148797
0.130640
-0.161262
0.288591
-0.109972
-0.040855
-0.469408
0.455973
0.257992
-0.403996
0.139121
-0.060041
0.100577
-0.043214
-0.002162
-0.110636
-0.206609
0.035577
0.185725
-0.323384
0.329236
-0.115753
0.018160
-0.096634
0.161199
0.006675
0.168605
-0.206708
0.130956
0.192061
-0.378596
0.319142
0.111606
-0.167675
0.093336
0.188435
-0.194653
0.147146
-0.187901
-0.136264
0.252766
-0.058813
-0.072387
0.163484
-0.181011
0.036921
0.040212
-0.060623
0.034816
-0.322289
0.207482
-0.023666
0.017613
-0.092598
0.211351
-0.285890
0.010428
-0.044464
0.003250
-0.104582
-0.368980
0.225857
-0.081902
0.136053
-0.218188
0.037641
0.122846
0.006108
-0.078901
0.028101
0.037058
-0.083520
0.161680
-0.094600
-0.096779
0.066568
0.164188
0.093342
-0.027806
-0.177937
0.002355
0.185299
-0.242014
0.108588
-0.064840
-0.257568
-0.051765
-0.073034
0.247718
-0.020520
-0.016846
-0.273552
-0.072241
-0.295640
0.298723
-0.343867
0.023905
-0.308054
0.302892
-0.121093
0.030379
-0.120719
0.000820
0.014040
-1.361481
0.679249
0.205560
-0.110949
0.204138
-0.036159
0.062122
-0.091879
0.006903
0.059178
-0.063889
-1.061632
0.395581
-0.134549
0.430909
-0.007953
-0.094335
0.046811
-0.029581
-0.121918
-0.129286
-0.077641
-0.759731
-0.000208
0.494603
-0.195664
-0.003065
0.070093
-0.090272
-0.052230
-0.141786
0.066291
-0.085927
-0.470246
-0.189640
0.222502
-0.147936
-0.076485
0.031310
-0.340051
0.037693
0.090338
-0.076411
-0.018171
0.291590
-0.569989
0.044832
-0.193269
-0.056123
-0.195770
0.084791
-0.141844
0.135947
-0.125820
0.045790
0.379100
-0.072962
-0.129186
-0.326034
-0.194982
-0.192973
0.133580
0.038986
-0.031392
-0.054287
0.079755
0.314541
-0.033742
-0.301938
-0.049533
-0.113616
0.009758
0.005548
0.056759
-0.025489
-0.140102
0.012219
0.430881
-0.526337
-0.038759
-0.134717
-0.002582
0.165501
-0.030187
-0.226944
0.032189
-0.041165
-0.021551
-0.156481
-0.116811
0.176830
-0.117972
0.086413
-0.104701
0.086651
0.029615
-0.200757
0.160869
-0.046844
0.076751
-0.387064
0.455547
-0.150259
0.023178
0.005170
-0.070411
-0.082988
-0.125402
-0.015289
-0.054380
-0.443285
0.265809
-0.289043
0.047978
-0.095699
0.169197
-0.084215
0.195656
0.163988
0.066870
-0.005320
-0.681208
0.307341
-0.464614
0.266199
-0.083151
-0.121354
0.170312
-0.015587
-0.083040
0.009035
-0.016370
-1.073246
0.491919
-0.140338
-0.193507
0.080401
0.042818
-0.091287
-0.061240
-0.025293
0.107543
0.101741
-0.721496
0.594326
-0.340642
0.090215
-0.048101
-0.054768
-0.093700
0.086609
0.078877
-0.039061
0.038457
0.107274
-0.020740
