weigvec 120000
0.192791
-0.009011
-0.071194
0.279253
-0.089306
0.364664
-0.058063
-0.077221
0.051512
-0.108819
-0.195545
0.347706
-0.067049
0.102383
0.094732
0.016048
0.265619
-0.052238
-0.150909
-0.053503
-0.452963
-0.306083
0.213107
0.159842
0.036443
0.518702
0.755685
-0.016153
-0.273181
-0.446823
0.102189
-0.228819
-0.282290
-0.024617
-0.074843
-0.043585
-0.089773
0.177494
0.019933
-0.183084
0.055940
0.120127
-0.216177
-0.033636
-0.045841
-0.056594
-0.271139
-0.040566
0.032674
-0.316063
-0.101280
0.190395
0.115897
0.435842
0.002536
-0.164907
-0.147080
0.018267
0.130241
-0.228916
0.045337
-0.093366
-0.090986
0.320273
0.023129
-0.349517
-0.016524
-0.011381
-0.122523
-0.167327
-0.121789
0.380162
0.050428
-0.268495
-0.015010
-0.321215
0.009609
0.181044
0.035214
0.296173
-0.214685
0.239479
0.312544
0.059673
-0.217044
-0.058721
-0.025879
-0.126925
0.216729
0.511025
-0.263876
0.220285
0.723510
-0.061542
0.387324
0.017279
0.007778
-0.177938
-0.360813
-0.008024
0.019581
-0.081527
-0.150758
0.095065
0.560919
0.024383
0.577824
0.287454
-0.489109
0.041613
0.076297
-0.146491
-0.193022
-0.178645
-0.159772
-0.054322
0.350734
-0.097794
0.233733
0.039908
-0.073091
-0.066731
-0.052990
-0.020302
-0.071630
0.110682
-0.116260
-0.173313
0.104774
0.026724
-0.073852
0.140603
0.070711
-0.261945
0.251704
-0.289263
0.328573
0.239573
-0.290822
0.050252
-0.253051
-0.351520
0.233387
0.185852
0.310609
0.627878
0.158439
0.050370
0.133844
0.227323
0.525352
0.201030
-0.013044
0.350174
0.222621
-0.030004
-0.319786
0.146914
0.098933
-0.152634
0.289341
0.505820
-0.286642
-0.290328
-0.226400
-0.019851
0.105417
-0.105071
-0.407032
-0.338211
0.026248
-0.018058
0.002647
0.091384
-0.057456
-0.012028
-0.195207
-0.290765
-0.055489
0.278213
-0.043272
0.092130
0.154128
0.039770
0.121061
-0.194450
-0.018079
0.139064
0.063632
0.197952
0.289952
0.214230
0.159455
-0.025989
0.092356
0.033522
0.094002
-0.117830
-0.388720
0.021454
0.115999
0.171403
-0.019903
-0.341890
-0.134017
0.037003
-0.156305
0.321718
0.188479
-0.091829
0.011613
-0.211707
-0.121539
-0.081080
0.039881
0.061254
-0.395452
-0.221594
-0.099236
-0.062217
0.045613
-0.037099
-0.083371
0.112270
0.257740
-0.185161
0.354093
0.189799
-0.307424
0.094320
0.002719
-0.190681
0.010731
0.001077
0.186984
0.077413
0.086360
-0.032002
0.137610
0.011258
0.014300
0.068026
0.057369
0.155464
0.048831
0.067609
0.067861
-0.142557
-0.246045
-0.075203
0.126216
0.149240
0.020612
-0.006609
0.187416
0.627435
0.824056
0.564160
-0.160168
-0.310598
-0.335983
0.095584
0.030051
0.017358
-0.007058
0.029996
0.208077
-0.158177
-0.129973
-0.126238
-0.048709
0.134260
-0.082001
0.061683
-0.007219
-0.277955
-0.060465
0.110664
-0.065290
-0.138684
-0.048641
-0.076721
0.019600
-0.147669
-0.348467
0.213498
0.379513
0.310747
-0.066587
0.032598
0.012023
-0.160649
-0.072412
-0.041237
0.172930
0.360737
0.265272
-0.005912
-0.235971
0.088853
0.094932
0.089966
-0.078680
0.118291
0.457435
0.460833
-0.137571
-0.036337
-0.294896
0.041774
-0.237651
-0.371675
0.023531
-0.044239
-0.174309
-0.069120
-0.189765
-0.108016
0.846889
0.735349
0.309876
-0.259665
0.494086
-0.119463
-0.034884
-0.042615
0.029348
0.091926
-0.032069
0.354623
0.170450
-0.196577
0.217165
-0.047828
0.032348
-0.099109
-0.102081
-0.152907
0.011627
0.036952
0.014736
-0.126777
-0.125218
-0.003268
-0.056984
-0.089694
-0.227380
-0.462839
0.081816
0.220820
-0.102159
0.067116
0.034336
0.045986
0.096052
0.073233
0.162713
-0.063144
-0.065453
0.037418
-0.365112
-0.017640
-0.003197
-0.093053
0.049637
0.302540
0.261925
0.046002
0.117660
-0.408924
-0.041338
0.221236
0.375394
0.159998
0.021555
0.507241
0.772615
-0.031020
-0.190570
-0.046478
-0.539326
-0.344089
-0.080104
0.060100
0.133475
-0.220053
-0.056459
-0.076305
-0.086956
0.001723
0.193080
0.026536
0.054278
0.043773
-0.085272
-0.113851
0.017937
-0.086947
-0.370417
-0.128641
-0.377609
0.070474
0.020080
-0.013433
0.131661
0.278446
0.169016
0.088842
0.574365
0.270836
-0.010848
0.033298
-0.015071
0.064648
-0.132617
-0.148754
0.144371
-0.285909
-0.397929
-0.002574
-0.002348
0.039163
-0.040815
-0.392874
-0.272963
0.118905
-0.013406
0.299981
0.052267
-0.087979
-0.059901
0.035770
0.078784
0.111407
-0.159090
0.180323
0.216057
0.230094
1.035616
0.773341
0.080632
-0.385769
0.412453
-0.141515
0.008259
-0.177255
0.027398
0.215607
-0.012004
-0.169769
0.543706
0.140337
-0.192459
-0.147409
-0.023470
-0.180191
-0.211211
-0.056493
0.189970
0.050412
-0.082025
0.107934
0.060542
-0.163833
-0.128893
-0.047200
0.022423
-0.077334
-0.257104
0.047247
0.125483
0.083999
-0.166227
-0.010053
0.049230
-0.118850
0.031937
0.188541
-0.118422
-0.019339
0.225331
-0.233383
-0.399891
-0.071933
-0.080156
-0.025501
-0.014151
-0.210331
-0.317738
0.196726
-0.030963
0.301421
0.042410
-0.196730
0.128414
-0.087080
0.184987
0.116659
-0.094610
0.107044
0.210602
0.044552
0.072907
-0.023884
-0.093068
-0.323592
-0.348895
-0.079318
-0.067705
-0.243739
0.227164
-0.336244
-0.295368
-0.242234
-0.285689
0.232155
0.029017
0.115462
0.335790
-0.012005
0.105676
0.086832
0.359412
-0.125188
-0.255704
0.140678
0.199111
0.002187
-0.329793
0.138935
-0.160202
-0.199719
0.073652
-0.073468
-0.003459
-0.069665
0.122158
-0.007094
-0.137790
0.338588
-0.078834
0.252586
0.018419
-0.157226
0.250363
0.165472
-0.242137
0.001750
-0.077179
0.114076
0.275642
0.172212
0.059603
-0.305448
0.043434
-0.383841
-0.098264
-0.159269
-0.114481
0.010989
-0.374658
-0.372665
0.244586
0.193491
0.375488
0.386289
0.119652
-0.182806
0.182520
0.326530
0.087085
-0.349354
0.222174
-0.256113
0.064496
0.296947
-0.009242
-0.174445
0.357416
-0.007510
0.065250
-0.057687
-0.242516
0.139359
-0.006785
-0.024371
-0.189042
0.069710
0.203230
-0.221575
-0.060291
0.366493
0.371462
-0.004540
0.007129
-0.069364
-0.156538
0.041654
-0.046446
0.017624
0.341518
0.034684
-0.239841
0.240744
-0.164026
-0.399812
-0.655457
-0.387658
0.037845
0.742220
0.061024
-0.109062
0.545364
0.069135
-0.033045
0.006879
0.259766
0.390622
-0.185633
-0.305417
-0.076159
-0.136720
-0.217793
-0.321713
0.072720
0.058389
-0.096618
0.135772
-0.011685
-0.040885
0.273804
-0.121194
-0.233804
0.377613
0.154676
-0.019585
0.127569
-0.244312
0.058601
0.142647
0.176918
0.000312
0.825043
0.260809
-0.030722
-0.172883
0.027126
-0.066076
-0.662053
-0.153612
0.167314
0.030776
0.148018
0.201040
-0.244305
0.075785
-0.060339
-0.197247
-0.556056
-0.115731
-0.373070
0.059443
0.115523
-0.123034
-0.242223
-0.182094
0.021840
-0.117744
-0.004497
0.115559
0.141976
0.050904
0.522288
0.119195
-0.066174
-0.003755
0.268710
-0.166503
0.328263
0.246919
-0.131928
-0.074398
0.281541
-0.253983
0.563523
0.546889
-0.115870
-0.037762
-0.180287
0.076191
0.193863
-0.322775
-0.159144
-0.181580
-0.197279
0.058675
-0.181236
-0.083623
0.368099
-0.250804
-0.057920
-0.098469
-0.025672
-0.044058
0.045547
-0.059359
0.155194
-0.009132
-0.297259
-0.129396
-0.147732
0.512175
0.594251
0.258519
0.068030
-0.132872
0.078454
0.089402
0.036551
0.114140
0.257832
-0.348501
0.059199
-0.173698
-0.207649
0.360277
0.092357
-0.030594
0.143660
0.037083
0.280996
0.072288
-0.253567
-0.043807
0.090195
0.152430
0.337072
0.035665
-0.080014
0.223386
0.415513
-0.389565
-0.094366
-0.111290
-0.147672
0.276811
0.060335
-0.133300
-0.171054
0.139625
-0.232701
-0.050599
0.406346
-0.261036
0.079373
-0.028246
0.047470
0.189540
0.051944
-0.153815
0.148026
0.235709
-0.049279
-0.221137
-0.050949
0.285431
-0.019386
-0.082465
0.143757
-0.029201
0.031019
-0.200302
-0.060009
0.014922
0.227764
0.114133
-0.157275
-0.396650
-0.017923
0.316914
-0.362033
-0.256640
-0.263282
1.215169
0.672124
-0.220534
-0.743236
-0.242328
0.019652
-0.507725
-0.090255
0.200262
0.426911
0.066646
-0.180194
0.122977
-0.061203
-0.037649
0.381035
-0.127165
-0.523752
-0.436866
0.252782
0.426906
-0.125787
-0.201601
0.083432
0.040343
0.164968
0.012862
-0.040276
-0.162581
-0.184999
-0.313040
-0.019929
0.089418
-0.315188
-0.123123
0.407206
0.133074
-0.005507
0.056331
0.447166
0.112420
-0.241753
0.008682
-0.010998
-0.263497
0.854123
0.052520
-0.225893
-0.245619
0.145864
-0.142644
0.168963
-0.020774
-0.116026
-0.123895
-0.006445
0.036435
0.067767
-0.370114
-0.163427
-0.400908
-0.093396
0.010078
0.001514
0.016116
0.059485
-0.185007
0.288231
-0.154645
-0.061038
-0.365085
0.206088
0.474346
0.089002
-0.528175
-0.108753
-0.121348
0.172428
-0.371650
-0.469404
0.123483
0.066671
-0.206166
0.116974
-0.275458
-0.018043
-0.023837
-0.280991
-0.461614
0.099344
0.449015
0.277767
0.015406
0.007394
-0.117620
-0.048100
-0.310778
-0.076598
0.518891
0.253511
0.165967
-0.155792
-0.226472
-0.094769
-0.100380
0.085991
0.126851
0.230646
-0.167917
-0.130133
-0.030859
-0.064391
0.103174
0.038450
-0.331052
0.083529
0.324122
-0.683073
-0.400389
-0.133702
1.449954
0.755120
-0.160676
-0.570785
-0.157120
0.213978
-0.145585
0.003874
0.022869
0.162654
-0.118142
-0.131873
0.153771
0.226584
0.183422
0.349741
0.133553
-0.725911
-0.402266
-0.134921
0.496913
0.394451
0.199138
0.246139
-0.110113
0.108131
-0.153779
-0.005277
0.119069
-0.209221
-0.097073
-0.033716
0.070838
-0.274079
-0.036363
0.281377
-0.033225
0.133889
0.215362
0.171238
-0.130034
-0.114564
-0.042420
-0.097233
0.091050
0.792482
0.086971
-0.272715
-0.081036
-0.300012
-0.149732
-0.035212
-0.070813
0.205923
0.122848
-0.082261
0.081006
-0.126117
-0.232465
-0.138858
-0.155520
0.106897
0.194321
-0.316051
-0.145079
0.018259
0.140987
-0.014458
0.143809
0.033135
0.145688
0.120787
0.181040
-0.043761
0.007066
-0.028985
-0.104850
-0.115420
-0.294270
-0.144114
0.053954
-0.264336
0.140313
0.404998
-0.155827
-0.206826
-0.086332
-0.005902
-0.152844
-0.146435
-0.137988
-0.063310
0.450285
-0.364086
0.480008
0.972094
-0.179791
-0.153362
-0.072910
-0.010621
-0.113791
0.102269
0.040226
0.067669
0.222888
-0.101193
-0.132210
0.003943
0.005344
0.010621
-0.003481
0.016825
0.172974
0.038250
-0.093730
-0.160054
-0.260436
-0.195975
0.057647
0.162245
-0.022514
0.002180
-0.091986
-0.115744
-0.061682
0.114324
0.202354
-0.200393
-0.207542
-0.348512
-0.236308
-0.023756
-0.024190
0.065795
0.130693
-0.110167
-0.237222
-0.085423
0.121445
0.108044
0.032336
0.082684
-0.123142
-0.084872
-0.310851
0.078401
0.518184
-0.045569
0.336758
0.706888
-0.268458
-0.105729
0.042287
-0.265158
0.042511
0.215119
-0.022736
-0.288367
-0.133115
-0.319029
-0.098609
0.083810
-0.254797
0.165843
0.546015
-0.212553
-0.235678
-0.108249
0.111098
0.333010
0.183690
-0.262443
-0.006707
0.153647
0.241870
0.098477
0.109656
-0.048282
-0.222357
0.038233
0.300498
0.108218
-0.147575
-0.073880
0.035620
-0.108108
0.217110
-0.141609
0.058025
0.125765
0.094215
0.026820
-0.159026
-0.028307
-0.316437
-0.003758
0.157409
0.127369
0.089847
-0.177443
-0.148772
0.015709
0.009285
-0.008452
0.007695
-0.099324
0.182019
-0.294182
0.026710
0.145853
0.023959
-0.044110
-0.021945
0.001206
0.093113
0.525067
0.029117
-0.107914
-0.209268
0.250243
0.054815
-0.199680
-0.206816
0.062990
0.146710
-0.310537
-0.064349
-0.128303
-0.049168
-0.141301
-0.044270
-0.093139
0.070489
0.102023
0.092138
0.023623
-0.306904
0.181437
0.082988
0.007592
0.286243
0.363503
-0.051168
0.036985
0.188198
0.055560
0.135642
0.145172
0.105489
-0.031969
-0.028502
0.040763
0.097213
0.010013
-0.125909
-0.103674
-0.096647
-0.179211
-0.061225
-0.074348
-0.032656
0.176179
0.101248
0.048146
-0.383644
-0.030017
0.609442
-0.161250
-0.044023
0.202008
-0.031997
-0.087055
-0.048536
-0.155355
-0.013439
-0.088671
-0.039818
0.043708
0.052582
-0.164602
0.027341
0.090260
0.036769
0.038754
0.108427
0.131329
0.059380
0.144135
0.065131
-0.062518
-0.010005
-0.188402
-0.124234
0.025530
0.104779
-0.083655
0.007594
0.062227
0.163056
-0.019844
-0.125723
-0.056784
-0.162419
0.211843
0.055533
-0.070870
-0.081593
0.043108
0.359544
-0.047479
0.070979
-0.069986
0.116314
-0.105143
0.155077
0.101233
-0.291761
0.224294
0.080718
-0.031263
-0.023443
0.142249
-0.065271
0.033952
-0.072407
-0.052404
-0.164558
-0.026472
0.271715
0.530341
-0.068014
-0.059662
0.084507
0.149183
-0.125068
0.023331
-0.264703
0.040074
-0.190293
-0.234470
-0.140414
-0.171035
-0.053606
-0.207810
-0.219144
0.044380
0.073158
0.176043
0.114926
0.104179
-0.090359
0.276629
-0.185426
-0.455009
-0.203288
-0.008333
0.198147
0.042515
-0.015448
0.034246
-0.047359
-0.052388
0.153721
0.076906
-0.066952
0.260117
-0.224138
0.183416
0.260294
0.251502
0.199240
0.032530
-0.305569
-0.202466
-0.061124
-0.202788
-0.006385
-0.031083
-0.217788
-0.043078
-0.022037
-0.056035
0.036437
0.114266
0.103269
0.330154
0.413349
0.315748
-0.048217
-0.011419
-0.112544
-0.171359
0.400350
-0.199670
-0.027127
-0.009169
-0.111501
0.000112
-0.047925
0.003096
0.067547
0.009219
0.348895
0.014488
0.187617
-0.041280
-0.083020
0.031364
0.176917
-0.000713
0.158781
0.650823
0.025023
-0.098405
0.100174
0.217689
0.121265
-0.197249
-0.052953
0.081119
-0.200087
-0.176463
0.036600
-0.334611
-0.298811
-0.046719
0.040493
0.066491
0.009542
0.404105
0.167148
-0.133643
-0.108656
0.068408
0.157221
0.122067
0.050832
0.261915
-0.397628
-0.392010
0.227177
-0.149786
-0.248551
-0.166694
-0.378040
0.065339
-0.050393
-0.108598
0.047969
0.248058
0.083996
0.002548
-0.066197
-0.259557
-0.079810
-0.067895
0.101487
0.093848
0.305056
-0.021651
-0.094445
0.006742
0.088189
-0.174785
-0.174634
-0.426076
-0.150010
0.141222
0.076141
-0.118972
0.059045
0.127454
-0.286537
-0.224726
-0.152167
-0.033329
0.160200
0.092471
0.071924
0.064986
-0.072292
-0.091954
0.061078
-0.161641
-0.052489
0.422713
-0.217109
-0.072966
0.277708
-0.189379
-0.267062
-0.020824
0.187447
0.055125
-0.185236
-0.314681
-0.036191
0.155676
-0.182883
-0.112324
-0.037484
-0.075665
-0.088616
0.137373
-0.031290
0.122385
0.065716
0.577990
-0.109885
-0.340095
-0.071532
0.062014
0.252280
-0.401551
-0.103745
-0.005346
0.020747
-0.017539
-0.093444
-0.127245
0.158476
-0.110312
0.169870
-0.176813
-0.021673
-0.081898
-0.216296
-0.170236
0.365170
0.042042
-0.079924
0.606219
-0.038093
-0.200426
0.126223
-0.058845
0.010480
-0.164693
-0.048950
-0.077704
-0.127681
-0.073813
-0.059667
-0.042138
0.099449
0.185674
-0.148425
-0.064333
0.193594
-0.254101
-0.301351
-0.051738
-0.093475
-0.228858
-0.009748
-0.336215
-0.115966
-0.082045
0.111514
0.098328
0.098349
-0.037702
-0.204789
-0.268468
0.062107
-0.198992
-0.239900
0.071487
-0.109437
0.146898
-0.150064
-0.137038
0.046512
-0.027778
0.095123
0.219403
0.243809
-0.119616
-0.344061
0.014006
0.044909
-0.262855
-0.103851
0.061142
-0.002286
0.137684
0.103042
0.082816
0.275818
-0.075153
-0.286432
-0.205369
-0.332289
0.030349
0.180050
-0.085054
0.248370
0.145145
0.008752
0.179356
-0.059011
-0.094414
0.033841
-0.166627
0.212152
0.027980
-0.253999
-0.102826
-0.025163
0.004046
0.057925
0.526948
-0.122261
-0.002912
0.321926
-0.125408
0.042345
0.228602
-0.006236
-0.085590
0.043890
0.106391
0.157277
0.124285
-0.074942
-0.083306
0.182528
-0.002239
0.160163
-0.030104
0.183901
0.132591
0.230416
0.177393
-0.006919
0.064650
0.019578
0.095248
-0.004433
-0.131271
-0.260843
0.044250
-0.317232
-0.041901
0.103783
-0.182588
-0.029017
0.140957
0.455630
0.758870
0.365005
-0.117780
0.019143
0.018154
-0.044482
-0.059344
0.065177
0.175213
0.118291
0.264349
-0.244102
-0.137673
0.150162
-0.208899
-0.046921
0.168219
0.021927
0.119255
0.150554
0.040827
0.109551
0.007279
-0.098674
-0.052106
0.190758
-0.578046
-0.043992
0.187514
0.085169
-0.203746
0.026077
0.014835
-0.044972
0.074107
-0.264884
-0.146912
0.022404
0.153068
-0.241402
0.067546
-0.111384
0.109926
0.142197
-0.138174
-0.211572
-0.246400
0.401845
0.225412
0.150550
0.243794
0.069889
0.086152
-0.156622
-0.198247
0.051108
-0.060135
-0.050952
0.146143
0.326461
0.016863
0.004788
0.021220
-0.144484
-0.018878
0.027487
0.023981
-0.238715
-0.007370
-0.186579
-0.085117
0.287130
-0.276567
0.029653
-0.157278
-0.041701
0.222433
0.012501
0.043332
-0.013089
-0.026582
0.143487
0.096526
-0.099803
0.093743
0.155800
0.034888
0.179741
0.128423
0.268380
0.010486
0.094438
0.064916
-0.211385
0.024984
0.047210
0.024830
-0.112915
0.008896
-0.121904
-0.197605
0.055933
0.225955
0.067043
-0.191057
-0.019885
-0.038450
-0.100190
-0.029754
-0.082302
0.104127
-0.200489
-0.084275
0.157944
-0.012044
-0.108500
-0.050799
-0.142938
-0.073606
0.729867
0.591860
0.278015
0.290356
0.074141
-0.119450
-0.004759
0.061069
-0.041622
0.780849
0.003842
-0.295890
0.492849
0.355653
0.038833
0.170924
-0.233401
-0.339849
0.423026
0.221178
-0.262604
-0.231001
-0.312969
0.061666
0.215197
0.020001
0.002689
0.065787
0.030251
0.185975
-0.013052
-0.115788
-0.235165
0.143173
-0.038789
-0.118906
0.546492
0.219905
-0.031140
0.026579
-0.014005
0.011609
-0.123480
-0.115152
0.155226
0.066026
0.012332
-0.518831
0.192925
0.121249
0.401689
-0.137244
-0.272618
-0.061916
-0.033093
0.256427
-0.026778
0.137319
0.058570
-0.035589
-0.158388
-0.111098
-0.056097
-0.160976
-0.070497
-0.005823
-0.344951
-0.169109
0.510501
-0.086989
-0.260662
0.062958
0.477737
0.120848
-0.205700
-0.161127
-0.332478
-0.390764
0.135551
0.333416
-0.017243
0.159193
0.003946
0.006995
-0.149660
0.193665
0.402788
0.117193
-0.167236
-0.019299
0.479164
0.131666
-0.037301
0.564576
0.401549
-0.163278
-0.084670
-0.056213
0.145170
0.103470
0.141669
-0.336699
0.005440
-0.104810
-0.154927
-0.191049
0.158010
0.283404
0.242079
0.019412
-0.003466
0.024343
-0.006450
-0.135529
0.161208
0.081719
-0.044696
-0.133404
-0.571312
-0.119624
0.003559
-0.122433
-0.154553
-0.030400
0.155134
0.137356
0.083529
-0.163827
0.069693
1.338857
0.718116
-0.498388
0.698565
0.326651
-0.172436
0.050890
-0.161790
-0.041672
0.591896
0.268316
-0.167144
-0.688542
-0.353546
-0.214748
0.284099
0.253407
0.030394
0.368331
-0.045122
0.127121
0.101884
0.251295
0.024433
-0.111042
-0.137255
-0.035632
0.870272
0.405175
0.268586
-0.122830
-0.026954
0.066601
-0.590056
-0.339068
0.282098
0.107818
0.010402
-0.155525
-0.050186
-0.199464
0.036935
-0.288006
-0.046689
0.103146
0.204341
0.213302
-0.224571
-0.279340
-0.040987
0.047871
-0.222292
-0.281107
-0.339469
0.071346
0.417422
0.137296
-0.255345
-0.206265
0.283160
-0.178591
-0.232440
-0.071723
0.275933
0.090116
-0.015932
-0.139708
-0.086621
-0.063839
0.044857
0.099948
-0.330858
0.096255
-0.225890
0.015015
-0.634864
-0.238171
0.240229
0.005153
-0.106534
-0.072908
-0.015391
0.042107
0.012718
-0.195400
0.279689
0.293119
0.118182
0.000568
0.134341
0.345658
-0.059278
-0.004844
0.223440
0.052077
-0.404229
-0.140432
-0.126446
-0.324762
0.331639
0.273356
0.161330
-0.285832
-0.197447
0.089972
0.257491
0.166987
0.062701
0.094562
-0.263851
-0.055291
-0.134251
-0.071987
-0.407657
0.228970
0.019865
0.133515
-0.103139
-0.087763
-0.086865
0.012004
-0.148882
0.033971
0.617832
0.125643
-0.217121
-0.302320
-0.081713
0.029595
-0.205159
-0.388114
0.103125
0.380282
0.228537
-0.098247
0.059560
0.004770
-0.173271
-0.383203
-0.291420
-0.189212
0.041070
-0.080436
-0.032478
0.122478
-0.108602
0.068988
0.610362
0.079709
0.116499
-0.071751
-0.210733
0.207175
0.338039
-0.013499
-0.276558
0.034936
-0.255827
0.368406
-0.117165
-0.362939
0.014531
0.381356
0.451664
0.180793
0.080481
-0.012672
-0.237816
0.215528
-0.036082
-0.022551
0.237953
0.084119
0.014139
0.070422
-0.003444
-0.139582
-0.095993
0.135161
-0.042941
0.047547
-0.194245
0.033726
-0.097133
-0.209570
0.107945
0.060292
-0.096847
-0.063590
-0.075727
-0.095343
0.229512
-0.052005
0.045644
-0.221985
-0.020195
-0.019984
-0.418845
0.101916
-0.045250
-0.033055
0.266463
-0.164353
-0.109758
-0.005838
-0.084426
-0.102486
0.208470
0.027024
0.105877
-0.035230
-0.261422
-0.217862
0.127651
-0.063111
0.126398
0.111557
-0.114994
0.232408
-0.127229
-0.027887
0.039338
-0.234740
-0.092727
0.179893
0.190517
0.001651
0.161485
0.085901
-0.139306
0.015414
0.173214
-0.076673
-0.194658
-0.013195
0.088988
0.015467
0.010954
0.121556
-0.012142
-0.209397
-0.097417
0.259600
0.767145
0.276954
0.082973
-0.902577
-0.217222
0.029575
0.135172
-0.359314
0.041447
-0.112709
0.423349
-0.025164
-0.300543
-0.279258
-0.059959
-0.249626
-0.111015
0.049080
-0.170398
0.026092
0.310767
-0.288506
-0.013101
0.119523
0.820210
0.375779
0.143816
0.179910
0.071285
-0.339884
0.538727
0.294412
-0.188730
0.044609
-0.143006
-0.006136
0.012624
-0.171345
-0.165209
0.479020
0.056356
-0.055139
0.079805
-0.058628
0.082997
0.365911
-0.226618
-0.267338
0.591267
0.141208
-0.257699
0.017420
-0.178578
-0.177334
0.426776
0.131155
0.023954
0.050078
-0.127260
0.118850
-0.080143
-0.000427
-0.029116
-0.047977
0.149050
0.288159
0.119960
0.323502
-0.032695
-0.323550
-0.212825
0.175482
-0.121217
-0.112873
-0.008348
-0.095682
-0.038170
-0.098506
-0.004823
-0.025147
0.555739
0.048679
-0.135864
-0.137812
-0.354699
-0.057944
0.181805
0.259555
-0.006573
-0.171940
-0.103006
-0.182929
-0.162641
0.004005
-0.024458
0.286314
-0.110256
-0.206295
-0.161328
-0.313006
-0.095665
0.100905
-0.207018
0.042913
0.055302
-0.021265
-0.124184
-0.029303
0.329346
-0.013359
-0.413189
-0.114177
-0.085311
0.283860
0.031661
0.215145
0.246523
-0.127270
-0.111086
-0.035281
-0.192608
-0.034882
-0.086635
0.280189
-0.030925
-0.286633
-0.146819
0.062887
-0.003425
0.311607
-0.049620
-0.343810
0.319296
-0.033685
0.263209
0.014884
-0.219051
-0.141496
-0.235781
-0.190043
-0.360784
0.212625
-0.036362
0.111285
0.134702
0.307166
0.083234
0.151301
-0.238730
-0.244447
-0.125679
-0.311498
-0.253473
0.062633
0.283318
-0.219195
-0.199486
-0.045872
-0.231419
-0.251915
0.027412
0.488640
0.082160
-0.150161
-0.211428
0.091469
0.129837
0.139756
0.146083
-0.047927
-0.204776
-0.094871
0.138115
0.167857
-0.309459
0.418159
-0.607457
0.023968
-0.144085
-0.006588
0.012033
-0.337040
-0.021175
0.254984
-0.218332
-0.024429
0.158602
0.094720
-0.038151
0.408099
-0.076531
-0.348591
-0.007642
-0.200413
-0.021773
-0.029657
0.886845
1.142262
-0.502878
0.047547
-0.297720
0.142743
-0.169739
0.009033
0.182914
0.167527
0.140388
-0.233815
0.088172
0.243668
-0.211681
0.331604
0.557611
0.103957
-0.225238
-0.496264
0.111550
0.053939
0.279331
0.083134
-0.003440
0.131555
0.071912
0.048767
-0.066841
0.122073
-0.036356
-0.060465
0.048403
-0.076229
0.072102
-0.097047
0.510965
0.295199
-0.169934
-0.064947
-0.133341
-0.064954
0.005430
-0.028344
-0.378465
-0.083918
-0.036618
0.069612
-0.331920
-0.133922
-0.025551
0.185629
0.133057
-0.278279
-0.006375
0.110359
0.046362
-0.012350
-0.224519
0.006865
-0.553466
-0.148219
-0.119115
-0.558508
-0.422265
0.158227
0.023548
-0.205484
0.107413
0.201098
0.060485
0.063527
-0.003073
-0.058815
0.042369
0.086855
0.081570
0.020425
0.354827
-0.106078
0.034645
-0.145789
-0.372403
-0.395797
0.183860
0.106337
0.323887
0.031781
-0.147812
0.065903
-0.012173
0.009698
0.201853
0.165328
-0.151391
0.407927
-0.168987
-0.284798
0.142285
0.455614
-0.018318
0.215628
0.049396
-0.320158
0.310364
0.090623
0.083746
0.004580
0.010857
0.048895
0.068124
-0.089672
0.077266
0.490584
-0.044480
0.076312
-0.096003
-0.304653
-0.130652
-0.116713
0.444059
0.490790
-0.839442
-0.631355
-0.410559
0.274036
-0.088275
-0.070978
0.256181
0.124367
0.007011
-0.130804
0.159961
0.041965
-0.056086
-0.042415
0.775818
-0.500128
0.015222
-0.241777
-0.069357
0.161376
-0.171355
-0.056981
0.109051
-0.011179
0.662230
-0.148251
-0.240164
-0.012628
-0.036107
-0.010140
0.230214
0.087339
0.072587
0.240917
0.335447
0.125432
-0.109802
-0.181046
-0.124217
-0.604448
-0.250324
0.711636
-0.162742
-0.282103
0.056114
0.168439
0.245219
0.290185
-0.531488
-0.048232
-0.167820
0.226510
0.705616
-0.277049
0.097851
0.054589
0.031024
0.106600
0.046681
-0.201256
0.333132
-0.111898
-0.141415
0.134007
-0.189060
-0.461288
0.243310
0.098166
-0.000562
-0.015653
0.018813
-0.573822
0.646786
0.181461
-0.239380
-0.180798
0.169642
-0.288226
-0.174447
-0.168804
-0.068792
-0.092798
-0.186511
0.184950
0.318538
0.147453
0.003633
0.038628
-0.356551
-0.069682
-0.280835
-0.230355
-0.133204
0.148496
0.037215
-0.006343
0.158185
0.186578
-0.201758
-0.189197
-0.337084
-0.386851
-0.104728
-0.015517
0.059235
0.218534
0.099881
-0.090849
-0.114861
-0.200924
-0.095028
-0.147241
-0.049816
-0.162520
0.024557
0.640000
0.230056
0.119944
-0.021359
0.037506
-0.066365
0.005346
0.079839
0.642999
0.341398
0.073160
0.021842
0.270111
0.004059
0.122724
-0.181738
-0.051977
0.201937
-0.149831
-0.364354
0.248351
-0.180199
-0.267299
0.307244
0.051609
0.009748
0.003357
-0.034924
-0.051418
0.178930
-0.009562
0.059238
0.009447
0.304004
1.137487
0.025858
-0.435509
-0.061849
0.095110
-0.038542
-0.104346
0.091604
-0.133889
-0.180100
-0.442525
-0.223678
0.223911
-0.067574
-0.380105
-0.334095
-0.166262
-0.155758
-0.299325
-0.266500
-0.039142
0.033160
-0.201030
0.560257
0.227800
0.018955
0.002757
-0.126080
0.078582
0.140895
0.071657
0.163304
0.382079
-0.130153
-0.025492
-0.199899
-0.306813
0.368996
-0.045662
-0.228701
0.276067
0.107750
-0.334783
0.641639
0.221987
-0.019596
-0.304187
-0.090702
-0.303453
0.122036
0.099948
-0.002386
-0.004355
0.063800
0.100892
0.063510
0.140800
0.017656
-0.130586
-0.244397
-0.309242
0.186365
0.223530
-0.116488
0.076741
0.350511
0.026690
-0.036197
-0.044454
-0.217554
-0.006631
-0.132650
-0.122929
-0.012024
0.288129
-0.093654
0.018565
0.106749
-0.095968
-0.177898
-0.276863
0.005355
-0.121623
-0.189707
-0.179666
-0.164573
0.259115
0.277638
0.305525
-0.162855
-0.366889
0.110534
0.093886
0.186079
0.682933
0.315823
-0.269118
0.192977
0.162562
-0.338872
-0.122299
0.067605
0.005431
-0.041572
0.113915
-0.150275
-0.024567
-0.045688
-0.090459
0.032950
-0.238119
-0.169509
-0.126555
-0.103010
-0.126334
-0.198155
-0.011268
0.118623
-0.157449
0.178353
0.349197
-0.044398
0.133836
-0.099858
0.390585
0.372357
-0.168535
0.195752
0.078802
0.294666
0.726124
0.380796
-0.076948
0.406701
0.383031
-0.136497
-0.369892
-0.396324
-0.362505
-0.149639
-0.196664
0.021798
0.534065
0.122759
-0.168891
0.178055
-0.101660
0.290045
-0.007215
-0.108725
0.164940
0.206231
-0.138693
0.026204
0.170789
-0.133457
-0.240381
0.258479
0.424706
0.171753
-0.130169
0.221875
0.240589
0.016241
0.120997
-0.003511
0.035834
-0.086811
-0.300440
0.054715
-0.154291
-0.168223
0.035897
0.086117
0.022933
0.056768
-0.157930
0.156834
-0.063888
-0.095050
-0.254734
0.111022
-0.029584
-0.051593
0.169950
0.005816
0.069113
0.152781
-0.041856
0.391485
0.210879
0.373548
0.089995
0.251199
0.181332
-0.151465
0.034141
-0.022429
0.013516
-0.111403
0.029364
-0.032718
-0.781231
-0.282734
-0.316793
0.244387
0.439647
-0.532029
0.149329
0.010116
-0.000068
-0.077476
-0.284881
-0.209007
0.065890
0.065302
-0.063938
0.202595
-0.134189
-0.011443
-0.131978
-0.091184
-0.018809
0.258929
0.060539
0.242187
0.015730
-0.180947
-0.043212
0.022197
0.300781
0.216573
0.136599
0.385649
-0.004461
-0.180027
-0.108889
-0.113009
-0.038919
0.003592
-0.213443
0.422088
-0.092230
0.113320
0.003781
-0.150866
-0.122917
-0.158753
-0.022643
-0.185764
0.949745
0.701948
-0.137888
0.882974
0.602702
-0.135888
-0.345326
-0.336434
0.028400
-0.567873
-0.602499
0.102240
0.672982
0.543559
-0.008970
0.145975
0.115280
-0.156072
0.047100
-0.336533
0.247589
-0.040468
0.317092
0.219565
-0.288080
-0.112389
-0.072514
0.648048
0.630676
0.182033
-0.038866
0.039682
0.228558
-0.282753
-0.041679
-0.118674
-0.012786
0.294326
-0.125198
-0.087843
-0.031343
-0.002708
0.002146
-0.150369
-0.339049
0.172472
0.198899
-0.166220
0.049261
-0.081497
-0.217556
0.132680
0.289673
-0.032897
0.004927
0.289796
0.128163
-0.043603
-0.193268
0.067132
0.300372
0.134014
-0.120596
0.019031
0.244732
-0.050473
0.163106
-0.167899
-0.000262
-0.031261
0.041540
0.017652
-1.583557
-0.654498
0.049725
0.202048
0.001356
-0.211260
-0.155367
-0.257598
-0.066013
-0.115199
-0.171804
-0.150362
0.538808
0.294218
-0.334005
-0.083212
0.058588
-0.072033
-0.101342
0.058698
-0.077449
0.241984
0.152057
-0.051546
-0.117570
-0.168953
-0.108113
0.263807
0.379861
0.348134
-0.269121
0.001536
-0.140342
-0.370672
0.044952
-0.069556
0.283031
0.004998
-0.180239
-0.069112
0.009219
-0.104450
-0.152971
0.079471
-0.131712
0.013794
0.029401
0.122226
-0.240033
-0.244805
-0.112191
-0.189375
-0.104215
-0.289010
0.075805
0.580952
0.618467
-0.051785
-0.377214
-0.644969
-0.202551
-0.156075
-0.659435
0.037132
-0.004534
-0.259089
0.263434
0.022961
-0.053881
-0.005385
-0.004364
0.123658
-0.180998
-0.218168
-0.184026
0.099473
0.245776
0.265967
0.155817
0.124944
-0.560490
0.097264
0.457327
0.853514
0.066449
-0.209869
-0.054827
-0.139943
-0.173717
-0.122511
0.291149
0.376348
0.379678
-0.001037
0.059701
-0.076876
0.026585
0.108443
0.175522
0.136110
-0.198486
-0.037478
-0.117284
-0.040373
-0.202047
-0.096161
-0.124081
-0.115521
-0.321026
-0.453091
-0.246393
-0.135067
-0.069672
0.067746
-0.040786
0.040413
-0.008737
-0.184387
0.247538
-0.021699
0.390368
0.838722
1.061998
-0.061875
0.148943
0.652777
-0.087902
-0.002500
-0.001876
0.204793
0.093304
0.098997
-0.003433
0.295466
0.120513
-0.130770
-0.090140
-0.000191
0.027384
0.054147
0.042649
0.120499
0.143346
0.172172
0.018326
0.104808
-0.126340
0.031409
0.036953
0.104876
-0.201308
-0.318629
-0.424753
-0.353388
-0.183526
-0.183608
-0.109385
-0.012206
0.208768
-0.018424
0.041206
0.069908
-0.191633
-0.049914
0.097322
0.101360
0.168518
0.041173
-0.081745
-0.024520
0.093110
-0.383283
-0.533526
-0.301933
0.028836
0.446644
0.548637
0.347559
-0.211165
-0.086362
-0.419100
-0.136562
-0.083456
0.161587
0.339502
0.224662
0.056464
0.414253
0.293616
0.081231
0.114368
-0.090825
-0.263968
-0.076590
-0.101541
-0.060389
0.016003
0.238223
-0.216576
-0.249582
-0.068701
0.086296
0.461016
0.669937
-0.057978
-0.021575
-0.131911
-0.325370
-0.168662
-0.112107
0.115271
0.102275
0.340408
0.271969
0.100371
0.122751
-0.278085
0.065298
0.053925
-0.198681
-0.138849
0.156988
0.205467
0.169111
0.007638
0.014216
0.169887
0.190731
-0.099690
-0.132508
-0.568198
0.076844
0.064180
-0.004474
-0.164498
0.176541
0.267264
-0.146774
0.229447
0.131012
0.388595
0.832398
0.580251
-0.271268
-0.248118
0.244206
0.126990
-0.188150
-0.107924
-0.032841
-0.112758
-0.120101
-0.067463
0.221386
0.193291
0.343585
0.004839
0.070752
-0.231631
-0.148970
0.085527
0.155195
-0.038886
-0.062337
0.042175
-0.125492
0.125984
0.218300
-0.031712
0.260819
-0.098540
-0.489136
-0.007720
-0.110286
0.058459
-0.032260
-0.330894
0.071271
-0.098821
-0.076946
-0.068126
-0.004342
-0.000532
0.141255
0.023281
-0.223861
-0.208193
-0.220553
-0.266544
-0.279346
-0.130126
-0.066076
-0.114887
-0.378051
-0.221232
-0.045551
0.192701
-0.000947
-0.193383
-0.160348
0.107996
0.181444
0.289602
-0.110490
-0.279072
0.245872
-0.187197
0.095495
-0.314560
0.102834
0.093757
0.123211
0.097144
-0.411433
-0.469262
0.441041
-0.052237
0.215323
0.621271
0.027776
-0.197571
0.123501
0.097409
-0.456037
0.146898
-0.137472
0.217699
-0.074195
-0.124951
-0.079371
0.020794
0.352947
0.047715
0.022660
-0.141547
-0.396920
0.873433
0.444263
0.330023
0.545579
0.225346
0.151033
0.021283
0.190223
-0.136370
-0.105599
0.123049
-0.119876
-0.116199
-0.296844
0.231301
0.133542
-0.194209
-0.027109
-0.030994
-0.057392
-0.259491
-0.185517
0.047112
-0.124276
0.080202
0.113713
0.203714
-0.215015
0.179818
0.434554
0.149830
-0.210698
0.051661
0.176733
-0.258117
-0.318422
0.060219
-0.091800
-0.165590
0.008466
0.082225
0.261394
0.116068
0.058181
-0.317014
0.036293
-0.079088
-0.523579
0.195285
0.118943
0.029899
0.072288
0.015980
0.030063
0.294679
-0.370832
-0.349797
0.017263
-0.037445
-0.224636
-0.302728
-0.268297
0.332410
0.025953
0.080814
0.065533
0.040809
0.129510
0.186752
0.187289
0.130729
0.054679
-0.008220
0.209671
-0.082947
-0.505795
-0.248215
-0.089774
-0.762954
-0.420837
0.054828
0.059295
-0.017820
0.018645
0.057280
0.121800
-0.238678
-0.055292
0.042495
0.216973
0.063995
0.270776
-0.633085
-0.029571
-0.152553
-0.149442
-0.048044
-0.148266
0.076858
0.233141
0.291122
0.212753
0.687523
0.031178
-0.514650
-0.176736
0.278626
-0.288969
-0.076200
-0.223643
0.406563
-0.061432
-0.162815
-0.122219
-0.194136
0.073873
-0.030452
0.236756
-0.156748
-0.285807
0.699759
0.563861
-0.109085
0.260696
0.146902
-0.385620
0.049450
-0.251307
-0.463859
-0.150464
-0.112330
0.115730
-0.337389
-0.322514
-0.290134
0.437047
0.228871
0.073078
0.099153
0.048887
-0.169463
-0.198228
0.225857
-0.067859
0.148227
0.277081
0.344854
-0.257333
-0.036687
-0.074490
0.042190
-0.233087
0.196569
0.028785
-0.116998
0.073343
-0.264584
-0.158902
-0.219672
-0.081396
0.141810
0.082424
-0.246052
0.313289
-0.018319
-0.129821
-0.060116
-0.219067
-0.101769
0.113077
-0.146295
0.247795
0.092324
0.245912
0.542973
0.130960
-0.338841
0.217082
0.070442
0.072140
-0.086435
-0.200958
0.001356
0.574887
0.099980
-0.331865
0.089011
-0.196302
-0.188276
-0.040750
0.088037
0.062103
-0.000471
-0.466203
-0.359247
-0.114992
-0.159243
-0.060037
0.045426
-0.443278
-0.275728
0.125164
0.692150
-0.199082
0.066094
-0.058116
-0.053415
0.061768
0.286593
0.272450
-0.240950
-0.016744
0.507949
-0.017376
-0.236221
-0.318836
-0.160690
-0.352810
-0.533745
0.249230
0.294747
0.211881
-0.170882
-0.052618
-0.197196
0.175365
-0.164531
0.182931
-0.046022
0.414505
-0.095191
0.136847
0.241264
0.041032
0.076450
0.185629
0.089715
0.289551
-0.242720
0.093323
-0.025262
0.071609
0.201596
-0.298471
0.014673
0.168132
0.101489
-0.197331
0.044287
-0.072279
0.005620
-0.104364
0.814482
0.371216
-0.607758
0.327988
0.161212
-0.281511
0.517551
0.545688
0.204811
0.249533
0.219270
-0.261857
0.085051
-0.169072
0.056811
0.144675
0.063197
-0.012051
-0.005011
0.183218
-0.053418
0.013020
-0.163954
0.265234
-0.310523
-0.128723
0.439283
-0.102160
-0.040962
-0.128647
-0.277608
-0.154078
-0.010137
0.003112
0.122864
0.004348
0.281425
0.334254
-0.021494
0.173774
0.125395
-0.008951
-0.093145
0.275047
0.144574
-0.148166
0.114723
-0.082194
0.113690
-0.358093
0.003610
-0.280938
-0.001664
0.146641
0.004063
0.013628
-0.038899
0.019347
-0.189757
-0.250822
-0.274627
-0.560601
-0.368109
0.135980
-0.276973
-0.282956
0.353853
0.073526
-0.312301
0.128459
0.624599
0.172879
-0.041760
0.247317
-0.114420
0.130075
-0.044028
0.092080
-0.185230
-0.082242
-0.108989
-0.168177
-0.291252
-0.300414
-0.163189
-0.140507
-0.150120
0.305011
0.181386
0.267812
-0.053668
-0.148168
0.210594
0.415979
-0.075367
-0.226886
-0.058411
0.209211
-0.327533
-0.101767
-0.132482
-0.017714
0.144662
0.061749
-0.204177
-0.190870
0.072863
0.017302
-0.442589
0.055905
0.484346
-0.130325
-0.325299
0.010146
-0.040202
0.177370
0.229750
-0.181015
-0.126437
0.404217
1.289898
0.912460
-0.234864
0.462299
0.433095
0.082129
1.372426
0.645356
-0.403001
0.491421
-0.135941
-0.633484
0.227198
-0.380934
-0.142594
0.329003
0.173887
0.258108
-0.131093
-0.108109
-0.272001
-0.131678
0.161896
0.181345
-0.004104
-0.189275
0.146855
-0.089301
0.253245
-0.028065
-0.326578
-0.197407
0.225807
0.123243
0.239701
-0.129776
-0.045269
0.180069
0.026234
-0.060949
0.004344
0.104260
-0.242852
-0.128228
0.458473
-0.460115
-0.232419
-0.065583
0.218745
-0.167233
-0.085527
-0.008384
-0.118884
-0.352317
0.204884
0.103798
0.031272
-0.065523
-0.147028
0.144730
0.197853
-0.063771
0.441185
0.101882
-0.015678
0.496487
0.175182
0.400400
0.340772
-0.120286
0.120410
0.104586
0.095260
0.327113
0.538379
-0.097493
0.034594
-0.222357
-0.227155
-0.292421
-0.007316
0.057851
-0.010171
0.249397
0.095740
-0.039483
-0.057616
0.194842
0.360902
0.916807
-0.224251
-0.062502
0.069270
0.022601
-0.080409
-0.298226
-0.333882
-0.128529
-0.178308
-0.048393
-0.225746
-0.245278
-0.173875
0.579570
0.752632
-0.098245
-0.110792
-0.107771
-0.146139
-0.264317
-0.277565
-0.030626
0.041278
0.186566
0.034561
0.153488
0.052266
0.153683
-0.061525
-0.075790
-0.021379
-0.389716
-0.285835
-0.073536
-0.130715
-0.223996
-0.024690
0.015131
0.112718
-0.028966
0.348453
-0.054907
0.041951
-0.433291
-0.567977
-0.376548
0.036694
-0.039630
-0.140503
-0.311229
-0.302270
-0.083375
-0.035098
0.240046
-0.218697
-0.025569
-0.005236
-0.264448
-0.146147
-0.249830
0.086999
0.051669
-0.127924
0.120983
0.079104
0.149052
0.227055
-0.075078
0.148465
-0.172230
-0.277054
-0.159855
0.210969
0.300809
0.012523
-0.128645
-0.161389
-0.231436
0.032259
-0.213683
-0.257604
0.069705
-0.059064
-0.053216
0.274051
0.003546
-0.150550
0.004335
0.177944
0.107702
0.452813
0.291137
0.461603
0.449791
0.181719
0.546593
0.021937
0.167822
0.380962
-0.051202
-0.009255
0.088038
-0.023620
0.292961
0.221292
0.186632
0.228651
-0.112724
0.055227
-0.375629
-0.086118
0.009893
0.320152
0.149229
0.037692
0.029874
0.006283
0.180169
0.478477
0.751045
-0.338147
-0.343769
0.022140
-0.315987
-0.271405
-0.115041
-0.323950
-0.036726
-0.234978
0.006834
0.131873
-0.052924
0.270041
0.403235
0.395720
-0.111420
-0.001441
0.141238
0.094651
-0.052316
-0.212986
0.079394
0.088626
-0.047057
0.009064
0.125600
0.441109
0.139995
-0.147392
0.001555
-0.041612
0.084415
0.134872
-0.238211
0.142835
-0.040002
0.123201
-0.097741
-0.065068
-0.494973
-0.207788
-0.196622
-0.573539
-0.610181
0.002957
-0.168578
-0.361990
-0.288081
-0.194852
-0.339068
-0.002249
0.092252
-0.183899
0.048987
0.116205
0.147136
0.171046
-0.233048
-0.035529
-0.014765
0.053484
0.095541
0.243361
-0.126015
-0.279422
0.154140
0.084159
-0.005925
-0.129160
0.082067
0.099368
0.232573
-0.075041
-0.161959
-0.243265
-0.046867
0.253803
0.079146
-0.044841
-0.321079
-0.265581
0.143200
-0.135963
0.016822
-0.011968
0.056788
-0.049618
0.183395
0.002847
0.038986
0.001251
0.034829
-0.057336
-0.016010
0.057722
0.046144
0.028512
-0.087054
-0.269990
0.028018
-0.024570
0.080989
0.035396
-0.239943
-0.015546
0.061812
0.206930
-0.173598
-0.052898
-0.030218
-0.225910
-0.072006
0.121040
0.089073
-0.128795
-0.358848
-0.065487
0.258431
0.124966
-0.054275
-0.075417
0.026118
-0.122434
0.013594
-0.055116
-0.182692
-0.210895
0.331820
0.100855
-0.002063
-0.022122
-0.198795
0.003017
0.018137
0.153743
-0.082267
-0.207598
-0.122811
0.101315
0.214013
-0.118103
0.168343
-0.083663
-0.211440
-0.187546
-0.182805
-0.095855
-0.223122
0.503466
-0.195670
0.098271
0.077070
-0.325673
0.310425
0.234280
-0.186538
0.035793
-0.009070
-0.021029
-0.186208
-0.014947
-0.062972
0.133044
-0.001813
-0.150576
0.267948
-0.135012
-0.088949
-0.024554
0.190992
-0.174385
-0.074642
0.199181
0.012218
-0.043589
0.137388
0.158227
-0.145485
0.278737
0.306748
-0.150881
0.001451
0.157871
0.069377
-0.014500
-0.306154
-0.248066
-0.019446
-0.113819
0.086042
-0.080160
-0.105132
-0.076572
0.092599
0.032533
-0.192559
-0.363099
0.043054
0.251722
0.107821
-0.127645
-0.179561
-0.194661
-0.116558
-0.457849
-0.164489
0.111189
-0.119237
0.047396
0.006308
0.086277
-0.004363
-0.045742
0.141687
0.076017
-0.170990
-0.029749
-0.236657
-0.279655
0.143420
-0.074729
-0.161454
0.007705
-0.201931
0.011360
0.069969
0.060221
-0.148510
-0.065183
-0.084594
-0.092467
0.075914
-0.253128
-0.093351
-0.057653
-0.241457
-0.061948
-0.018247
-0.054126
-0.180220
0.025353
-0.064923
0.046955
0.324077
0.113774
-0.066993
-0.019473
0.250473
-0.306911
0.183372
-0.166542
-0.200170
0.355615
0.242179
0.113751
0.290075
0.051276
-0.384481
0.181017
-0.130351
-0.293214
0.393277
0.016615
-0.162260
0.233390
-0.026284
-0.167944
-0.064878
0.551624
-0.125386
0.174588
-0.176760
-0.107162
0.004574
-0.052929
0.030832
0.020521
-0.066279
0.232809
-0.074377
0.161112
0.214020
0.025503
-0.102162
0.082700
0.149876
-0.016471
-0.036402
-0.203835
0.235609
-0.078113
-0.389124
-0.129105
-0.292382
0.041364
-0.042327
0.028765
0.030849
0.168470
0.019233
0.264609
0.506293
0.027521
0.154130
0.232269
-0.246905
-0.078102
0.178538
0.010225
0.176332
0.192541
-0.044017
-0.135115
-0.119580
0.025466
0.500175
-0.082066
-0.295137
0.116755
0.235478
0.226403
0.255958
0.206931
0.105211
0.281578
0.183683
0.054299
-0.080635
-0.047992
-0.001499
-0.016750
-0.174049
-0.236141
0.011369
0.145957
-0.007808
0.034738
-0.039468
-0.071780
-0.130597
0.013944
0.069476
-0.169554
-0.159983
0.125389
0.023894
0.012146
-0.014288
-0.354997
-0.172713
0.177358
-0.117982
-0.171852
-0.119024
-0.056958
-0.302821
0.010317
-0.162904
0.002744
0.151431
-0.050955
0.063094
0.221609
0.139723
0.103900
-0.209223
0.563812
-0.330187
-0.331090
0.403489
0.758514
-0.013076
0.135247
0.187209
0.276105
-0.030859
-0.045120
0.093039
-0.136692
0.059915
-0.249583
-0.277669
-0.205585
0.153599
0.058814
-0.095915
-0.040518
0.415712
-0.065270
-0.154089
0.016901
0.023016
-0.106760
-0.027022
-0.188443
-0.232721
0.055136
0.294049
0.039720
-0.285249
0.123527
0.262560
-0.049411
-0.133831
-0.018854
-0.046047
-0.099595
-0.208215
0.331538
-0.059671
0.034737
0.202349
0.558272
-0.167234
-0.098172
-0.177317
-0.097781
0.062983
0.005604
-0.042804
-0.394949
-0.094782
0.183819
-0.354685
-0.341938
-0.135159
0.557088
-0.018446
0.025654
0.090046
0.046592
0.048278
0.083961
-0.095501
0.021038
0.497250
0.393589
0.124804
0.036461
0.296871
0.085227
-0.065092
-0.176542
-0.204249
0.229053
0.155074
-0.149422
-0.002546
-0.147175
0.096130
-0.054385
0.002585
-0.108268
0.137267
0.102730
-0.035441
0.018448
-0.065929
0.138940
0.072549
-0.322727
-0.116568
0.188827
-0.019088
0.235838
-0.149618
-0.122033
0.066289
-0.395031
-0.116767
-0.043680
0.174449
-0.123492
0.057021
-0.132440
-0.135279
0.151028
0.186594
0.033338
0.151621
-0.043633
0.094615
0.148664
-0.128883
-0.099006
-0.061063
0.753148
-0.180098
0.107006
0.178915
0.460351
0.155296
0.293529
-0.325363
-0.149590
0.009963
-0.047370
0.143646
0.169424
0.025030
0.138366
-0.206586
0.088760
0.213399
-0.346440
-0.105548
-0.117678
0.504071
0.093552
-0.131331
0.092458
0.128579
0.192693
-0.150569
-0.311519
-0.095928
0.004633
-0.068221
0.132198
-0.057943
-0.019795
0.174577
0.024150
-0.174462
0.010718
0.010823
0.005704
0.062647
-0.121312
-0.195505
-0.278518
-0.116023
0.524726
-0.205743
-0.225587
0.046264
-0.049439
0.258425
-0.020720
-0.159724
-0.081176
-0.193690
-0.135131
-0.827043
-0.580301
0.091865
0.768115
0.071077
0.098413
0.034020
-0.114791
-0.004309
0.251384
-0.151100
-0.111501
0.574862
0.154966
-0.006478
-0.187130
-0.122218
0.005285
0.210354
-0.052991
0.034148
0.013513
-0.226563
-0.115561
0.095913
-0.084730
0.054804
0.319145
-0.000940
-0.225031
-0.177293
-0.254028
-0.009050
-0.017200
0.346057
0.658445
-0.262104
0.056247
0.228647
-0.321807
-0.133366
-0.133959
-0.162046
0.092672
0.190632
-0.078701
-0.133554
-0.009793
-0.208714
-0.243088
-0.130184
0.047738
0.050590
0.080182
-0.145550
-0.077128
-0.233422
0.030364
0.197211
0.083843
-0.164308
-0.012189
-0.141874
-0.158757
-0.096873
0.110001
0.162418
0.191819
-0.112891
-0.239517
-0.255114
-0.268802
0.102767
-0.005362
0.058276
0.016393
-0.018820
-0.170599
0.266838
0.201733
-0.077052
0.060519
0.022466
-0.161371
0.160891
0.083861
0.069594
-0.297964
0.098937
0.227163
0.078247
0.124131
0.444070
0.001462
0.241136
0.128788
0.097469
-0.127045
-0.317518
0.169562
0.024165
-0.171250
-0.089315
-0.191815
-0.198036
-0.236213
0.091929
0.182429
0.324731
0.402634
0.466516
-0.089473
-0.072669
-0.065582
-0.456674
-0.138253
0.276298
0.147159
0.184802
0.306343
0.256950
0.105364
-0.112064
-0.313169
-0.269695
-0.135126
0.228046
0.086641
-0.152955
0.168785
-0.235477
-0.416855
0.265121
-0.043110
-0.172947
0.517076
-0.069926
0.096784
0.164882
-0.046934
-0.003850
-0.038538
-0.012868
0.411491
0.067824
-0.087870
0.027081
0.717638
0.375812
0.145783
-0.126016
-0.277996
0.167917
-0.245950
0.415121
0.499966
-0.041851
0.074788
0.459925
0.043188
0.039680
-0.205271
-0.382168
-0.177106
0.164451
-0.369700
0.004082
0.182053
0.014341
-0.073776
0.055888
0.034195
-0.106938
-0.135647
-0.161159
-0.174713
-0.116456
-0.175597
-0.185751
-0.108429
-0.127651
-0.225348
-0.094394
-0.109932
0.054926
0.153333
0.419318
0.171807
-0.130456
-0.268811
-0.171707
-0.135111
-0.072546
0.072446
-0.065222
-0.292618
-0.153388
-0.143952
0.188692
0.012771
-0.147277
-0.001999
0.012641
-0.030066
-0.149450
0.000005
-0.093646
-0.520347
-0.271962
0.028631
-0.017748
0.025653
0.184662
0.225193
0.077386
0.073449
0.290717
-0.040146
-0.315861
-0.046394
0.026850
-0.093802
0.239215
-0.022702
0.194753
-0.343288
0.247467
0.280344
0.307255
0.330626
-0.121902
0.106265
-0.312657
-0.177996
-0.185027
0.123700
-0.046944
0.129428
0.256933
-0.049607
0.120402
0.241994
-0.139908
-0.373966
-0.033558
0.244393
-0.125151
0.238830
0.210631
0.217114
0.201897
-0.219794
0.228712
0.262049
0.131371
0.796314
-0.019059
-0.346254
0.065100
-0.171160
-0.163467
-0.065318
0.111958
0.085796
0.056505
0.016144
0.056470
0.002973
-0.307677
-0.101272
-0.006288
-0.227969
-0.181108
-0.054801
0.081196
0.240352
0.211655
0.081019
-0.095058
0.550158
0.245977
0.104490
-0.223394
0.079838
0.457950
-0.062031
-0.030639
1.122895
-0.279974
-0.281105
-0.078229
0.188786
-0.182785
-0.267140
-0.166298
-0.045099
-0.169816
0.082148
-0.089271
0.278506
0.021013
-0.247294
-0.269641
0.184553
-0.034835
0.050692
-0.082877
0.118574
0.680102
0.211443
0.237008
0.395137
-0.336644
-0.085299
0.037534
-0.121363
-0.081794
-0.020303
-0.062855
-0.053152
0.209242
0.154056
0.294671
0.412851
0.067876
-0.280271
-0.406532
-0.137641
0.039015
0.081615
-0.541160
-0.156713
0.174263
0.019650
-0.088574
-0.356907
0.165908
-0.127378
0.048971
0.055958
-0.237042
-0.174747
-0.042727
-0.174825
-0.008824
-0.012582
0.078599
-0.222750
0.135359
0.413372
-0.205297
0.057814
0.028273
0.219283
-0.193574
-0.170429
-0.088850
-0.126058
-0.317196
0.004307
-0.323169
-0.285253
-0.444636
0.103137
-0.157209
-0.041255
0.072192
-0.066071
-0.020154
0.151564
-0.003727
0.300275
0.054267
-0.369271
-0.179665
-0.195121
-0.317857
0.021488
-0.090158
-0.050793
-0.058419
0.185922
0.145124
0.199165
0.342810
0.098420
0.098703
0.170937
0.191091
0.083169
0.029838
-0.389203
-0.254132
-0.204411
-0.081525
-0.013368
0.418821
0.059206
0.232323
0.059533
-0.007727
0.211100
-0.249454
0.000845
0.572100
-0.270261
0.242988
0.803212
-0.091362
-0.074573
-0.081174
-0.033771
-0.052955
-0.251595
0.194033
0.043464
-0.001315
0.145034
0.009485
-0.026044
-0.120257
-0.018912
-0.048471
-0.068733
-0.165945
0.032647
-0.018995
-0.156543
0.437152
-0.319230
-0.219786
0.044821
0.161110
-0.323947
-0.024917
-0.265688
-0.035595
0.054345
-0.048885
0.134256
0.004561
0.431039
0.245475
0.110762
-0.152744
-0.311763
-0.410866
0.076088
-0.078912
0.058293
-0.004235
-0.022056
0.189840
0.063580
0.133156
-0.127378
0.018775
0.092421
-0.175465
0.121093
0.085894
0.156058
0.053448
-0.082977
-0.042322
0.094104
0.117963
-0.091116
0.587532
0.608697
-0.338772
-0.276346
-0.177082
-0.066863
-0.203993
-0.096447
0.075047
-0.073550
-0.154101
-0.064948
-0.030648
-0.167384
-0.313791
0.036260
-0.177823
-0.139673
-0.139153
-0.139556
-0.089230
-0.336927
-0.012298
0.334690
0.179675
-0.121541
-0.127556
-0.256630
0.100914
-0.078114
0.001960
0.119663
-0.131245
0.266587
0.205874
0.237202
0.045271
-0.082457
-0.026768
0.008453
0.110206
0.100726
-0.110858
0.483972
0.814443
0.203952
-0.083057
-0.210341
0.018954
-0.066344
0.035993
-0.028890
-0.147636
0.965077
0.261243
-0.079702
0.118102
0.181378
-0.095941
-0.082277
-0.232981
-0.118598
0.111636
0.313169
0.142471
0.070618
-0.153967
-0.153300
-0.183510
0.518184
-0.022942
-0.213111
-0.393161
-0.053826
0.366260
-0.297877
-0.092944
0.300794
-0.147925
-0.037053
0.052938
-0.252162
0.173608
0.136180
-0.455054
-0.124407
-0.232947
-0.165268
-0.037532
-0.348847
0.067603
-0.003004
-0.127359
-0.222918
-0.077559
-0.299267
0.028491
-0.146204
-0.270952
0.243468
0.145816
-0.028445
-0.059376
-0.053085
0.049910
0.048484
-0.256239
-0.352063
-0.084425
0.143102
0.168544
0.162046
-0.284377
-0.045774
-0.227539
-0.144392
0.363773
0.066298
0.079335
-0.151027
-0.042053
0.029961
0.060201
0.074027
-0.141707
-0.112485
-0.490385
0.441290
0.868399
0.185124
0.655226
0.635619
-0.174620
-0.229481
-0.498291
-0.457891
0.033299
-0.093314
0.009130
-0.209552
-0.241331
-0.130433
-0.153996
0.202116
-0.290537
-0.231945
-0.014168
0.138178
-0.156468
-0.176845
0.000013
0.112454
-0.071214
-0.232177
0.407509
0.256258
0.156183
0.215621
0.253403
0.013635
0.097989
0.203686
0.112932
0.313478
0.566214
0.167537
-0.073128
-0.104436
-0.338436
-0.378638
-0.168934
-0.063089
-0.138613
0.262669
0.236701
0.136341
0.061919
0.041803
0.007406
-0.011229
0.187141
-0.052211
0.162975
0.270623
0.270167
0.167184
0.008025
0.097571
-0.025961
-0.018374
-0.321248
-0.266551
-0.092803
-0.093300
0.252656
0.350252
0.035450
-0.117484
0.189112
-0.184993
0.139154
-0.009289
0.007320
-0.038847
-0.054333
-0.178150
-0.189250
-0.152884
-0.178890
-0.155176
-0.319672
-0.198154
-0.170880
0.141618
-0.107195
-0.019461
0.211620
-0.254934
-0.055308
0.028627
0.046952
-0.258635
-0.124005
-0.002473
-0.077453
0.150244
-0.021390
0.223349
0.160748
0.068917
0.054240
-0.229777
-0.114199
0.085961
-0.037600
-0.142037
0.119105
-0.153429
-0.121435
-0.070595
-0.467600
-0.347197
-0.047063
-0.050536
-0.210275
-0.091084
-0.435515
0.187286
0.700547
0.070231
0.260258
0.170897
-0.021129
-0.014851
0.030905
0.031336
0.151829
-0.116189
0.200106
0.046221
0.097670
-0.096060
-0.232460
0.101213
0.142324
0.326474
-0.169716
0.128385
0.041158
0.051811
0.280115
-0.085361
0.006269
-0.026255
0.198753
0.378155
-0.311816
-0.257968
-0.265433
-0.384100
-0.295475
-0.054948
-0.115627
-0.032872
0.111687
0.084750
0.173566
-0.061826
0.136692
0.299250
0.069894
-0.630040
-0.369885
-0.042913
0.149951
-0.114868
-0.533913
-0.096172
-0.173945
-0.349419
-0.001561
-0.224585
-0.279608
-0.062259
0.052902
0.181934
0.280593
0.135005
0.100717
0.166121
-0.153152
0.008854
0.030744
-0.133486
0.081640
-0.067384
-0.288160
-0.270460
0.132753
0.019287
-0.574528
-0.041941
0.583006
0.086821
0.380626
0.356242
-0.212240
-0.015362
0.095535
-0.096811
0.052777
0.217282
0.153759
-0.176070
-0.111943
-0.065446
0.037308
0.281214
0.796236
-0.183206
-0.183807
0.083324
-0.094647
-0.058367
-0.003688
-0.065966
-0.278741
0.080550
-0.061117
0.147722
0.059949
0.151742
0.295833
0.225268
-0.027936
0.084999
-0.042352
0.074921
-0.313818
0.838047
-0.373778
-0.145221
-0.407555
-0.057351
0.073879
0.032185
0.126717
0.102068
-0.382748
-0.029833
0.109605
-0.143447
-0.014612
-0.351424
0.045775
-0.070410
0.425623
0.670448
0.107420
-0.059123
0.060612
-0.139555
-0.055545
-0.206541
-0.160771
-0.039936
0.323955
-0.068121
-0.065864
-0.124406
-0.110022
0.058291
0.093364
-0.290835
0.027233
0.151597
-0.009317
-0.000988
0.165405
-0.132124
0.116832
0.119437
-0.075452
-0.019611
-0.144284
-0.154147
0.114042
-0.001421
0.196934
0.235005
-0.112147
-0.524990
-0.397411
-0.041395
0.038501
-0.065368
0.076385
0.149604
-0.146425
-0.417200
0.364797
0.166727
0.101345
0.042565
0.081758
0.157897
0.280439
0.211056
0.057667
-0.255667
-0.074697
-0.178809
-0.047690
-0.127829
-0.092219
-0.364114
-0.297577
0.260509
-0.073745
0.022069
-0.397508
-0.244283
0.350747
0.069253
-0.050285
0.037455
0.001927
-0.040188
-0.065847
-0.198594
-0.079196
-0.050207
0.043904
-0.102397
-0.055059
-0.049672
-0.070745
-0.071145
0.615521
-0.188283
0.201029
0.342762
0.032367
-0.008946
0.140813
-0.165148
0.027114
0.000004
-0.078330
-0.065846
-0.144162
0.081144
-0.012446
0.012931
-0.097023
-0.083242
-0.146509
-0.124100
-0.206784
0.927207
-0.588856
0.050644
0.045381
-0.151687
0.057113
0.081290
0.226106
0.121530
-0.186802
-0.057727
0.083097
-0.191705
0.031414
-0.315577
0.270472
-0.304667
0.084538
0.198865
-0.014991
-0.073957
0.020310
0.001601
-0.115039
0.127649
-0.134915
0.115195
0.381714
-0.243287
-0.102116
0.102967
-0.002163
0.140977
0.185318
0.150063
0.056579
-0.007975
0.091846
0.041978
0.021503
0.263762
-0.049205
-0.260873
0.103441
-0.014512
-0.455945
-0.209346
0.246009
0.477772
0.297028
-0.000453
-0.165276
0.063644
-0.231220
-0.102093
-0.223631
-0.108713
0.049126
0.169245
0.288950
-0.155467
0.009856
0.148046
-0.026291
0.045903
0.394904
-0.033252
0.216951
0.099116
-0.375117
-0.212598
0.152631
0.282825
-0.359952
-0.428537
-0.310133
-0.132978
-0.243214
-0.350379
0.173803
-0.035753
0.020374
-0.228563
-0.348692
0.062608
0.019063
-0.119777
-0.266997
-0.038219
0.437096
1.118070
0.121421
0.725254
0.843008
0.259153
0.155333
-0.075819
0.157796
0.093900
-0.238436
-0.117106
-0.266598
0.255324
0.206022
-0.219564
0.230737
0.045833
-0.207384
0.017765
-0.023783
0.018179
0.099423
0.150868
-0.275605
-0.402702
0.233219
-0.124759
-0.224297
-0.144030
-0.163049
0.239483
-0.216846
-0.106466
-0.284051
-0.047169
-0.520306
-0.235559
0.124553
0.206050
-0.070314
-0.011909
-0.223787
-0.257973
-0.074451
0.296354
-0.286529
0.095525
0.112160
0.110572
0.144349
0.187354
0.119875
0.550178
0.363917
-0.031677
0.314320
-0.249900
-0.126349
-0.069188
-0.393271
-0.010606
0.029527
0.014382
0.148102
-0.000820
-0.221075
-0.011956
0.152706
0.083765
0.035975
0.584496
0.185856
-0.003362
0.063135
-0.171498
-0.388570
-0.393360
-0.043827
0.599192
0.431096
0.155324
0.022911
0.269102
0.092700
-0.359186
-0.178220
-0.002238
0.059676
0.171890
-0.235943
-0.031273
-0.262734
0.030345
-0.012907
0.070617
-0.317317
-0.368725
-0.245511
-0.217331
-0.190602
-0.008976
-0.038201
-0.118594
-0.334623
-0.138753
0.067725
-0.158106
-0.148060
-0.344369
0.345535
0.396866
0.138477
0.421325
0.114096
0.033724
0.041949
0.023915
-0.148436
-0.566568
-0.164004
0.487426
0.270723
0.268820
0.145310
-0.143818
-0.252165
-0.158791
0.066176
0.277855
-0.068081
0.418011
-0.063592
-0.221569
0.260394
-0.154100
-0.020732
0.389096
0.274933
0.187402
-0.164968
-0.054324
0.072807
0.018248
-0.135477
-0.388657
0.211047
-0.037684
-0.107619
-0.276758
-0.189516
-0.114510
-0.218843
0.191179
-0.109275
0.311219
0.044144
-0.426772
-0.280468
0.284900
0.061955
0.175082
0.111533
-0.153617
0.023539
0.074164
-0.156344
0.144145
0.074571
0.255854
-0.248899
-0.139833
0.108091
0.411872
0.350707
-0.213344
0.129949
-0.225014
0.012124
-0.218494
-0.000694
-0.284950
0.126850
0.053962
-0.151566
0.401268
0.078022
-0.041619
0.072448
0.074260
0.115364
0.437220
-0.277672
-0.658012
-0.086206
0.069337
-0.084424
-0.245577
-0.265655
0.388940
-0.211336
0.138574
0.080751
-0.027595
-0.090131
0.046424
-0.208624
-0.121822
0.118763
-0.223879
-0.162551
-0.032589
-0.046450
-0.052974
-0.131591
-0.040684
-0.039594
0.051740
0.096592
0.201745
0.359397
-0.226707
0.308567
0.780127
-0.154705
0.092575
-0.113977
0.164391
-0.081781
0.081869
-0.163340
-0.037464
-0.225672
0.033308
-0.078696
-0.080814
0.220100
-0.185765
-0.096369
0.020125
-0.039470
-0.049507
0.019948
0.064862
-0.136040
-0.024381
0.069746
-0.007704
0.228615
0.173246
-0.160508
0.146440
-0.131393
-0.206366
0.109127
-0.154253
-0.208961
0.010025
0.099477
0.141741
0.017952
0.123381
-0.290830
0.018653
0.065739
0.336426
-0.129942
0.030701
-0.358779
-0.125212
0.018276
-0.176446
-0.201508
0.085164
-0.122441
-0.378538
-0.214173
0.026657
0.430931
0.138366
-0.067124
-0.060589
-0.153503
-0.075594
-0.066935
-0.077028
0.272217
0.157256
0.075063
0.017162
-0.036594
0.033939
0.172109
0.245803
0.086995
-0.012569
0.041162
0.089120
0.118757
-0.121332
-0.199665
-0.322234
-0.039060
-0.016859
-0.031625
-0.142328
-0.098076
0.282412
-0.110068
-0.035016
0.003107
0.603225
0.059168
-0.305817
0.260612
0.132962
-0.141666
-0.020081
0.156112
0.424471
-0.052596
-0.132223
-0.070920
-0.008268
-0.087945
-0.071096
-0.229988
0.054090
0.026793
-0.048706
-0.072933
0.007059
0.091323
0.031722
-0.178231
0.027994
-0.084783
-0.086623
0.293272
0.040195
0.351845
-0.422281
-0.184899
0.640973
-0.175295
-0.251185
-0.124269
-0.093618
-0.105232
0.192664
-0.130086
0.019346
0.115057
0.134362
0.018168
-0.107864
0.138260
-0.081375
0.087807
0.074891
0.121916
-0.020349
-0.037171
0.023611
-0.014041
-0.117138
-0.067626
0.031110
0.572815
0.199491
-0.162843
-0.191446
0.004456
0.327656
0.057591
-0.072641
-0.113278
-0.239582
-0.283956
-0.183802
0.076478
-0.042665
0.098563
-0.102629
-0.201714
0.210019
-0.084469
-0.036903
0.166614
-0.321371
-0.058570
0.046140
-0.225885
-0.015412
-0.048010
-0.277618
0.170445
0.272702
0.483330
0.024036
0.010297
-0.157003
-0.222164
0.048530
-0.152898
-0.182470
0.008053
-0.134535
-0.128567
0.219381
0.022397
0.186137
0.293398
-0.177366
-0.253117
0.029230
-0.107405
-0.110219
0.124729
0.249728
0.026451
-0.078386
0.091481
-0.141192
-0.266218
-0.206525
-0.079252
0.221756
-0.148218
-0.023823
-0.140613
-0.117396
0.022468
0.274261
-0.269713
-0.012427
0.183856
-0.010836
-0.032846
-0.013134
0.055929
-0.078193
0.268687
-0.229996
0.060448
0.356042
0.182797
0.149658
-0.066711
0.463696
0.061110
-0.161913
0.144441
0.032278
0.215288
-0.137564
-0.066108
0.022838
0.136848
-0.031508
0.159930
-0.019344
-0.080361
-0.084202
-0.020927
-0.039747
0.061831
-0.164594
0.524314
0.291479
0.083596
0.014605
-0.026757
0.124042
0.297071
0.225760
-0.302540
-0.247467
-0.199572
0.050574
0.024517
-0.102382
0.184091
0.024899
0.063602
-0.231960
-0.093266
-0.059315
0.288161
0.018979
-0.229358
-0.096532
-0.263567
-0.273899
0.099797
0.105361
0.022689
0.002410
0.028769
0.111527
-0.215064
0.209950
0.424671
0.171079
0.108743
-0.193157
0.035741
-0.030537
0.049820
0.024147
-0.127219
-0.283196
0.477082
-0.057655
0.150497
-0.206910
-0.147553
-0.101483
0.189661
0.660726
0.175029
-0.049783
0.433290
0.371306
0.285983
-0.006056
-0.215159
0.053473
0.112181
-0.194273
0.025428
-0.170531
-0.221498
0.018856
-0.084414
-0.216441
-0.204933
-0.086965
0.186079
-0.121918
-0.186136
-0.082829
0.077870
0.114474
0.079578
-0.233113
-0.238602
-0.601189
-0.039212
0.177254
0.009447
-0.225136
-0.107416
-0.057696
-0.066079
0.098177
0.142700
0.062884
0.081565
0.043068
0.037943
-0.039690
-0.159743
0.078913
0.034227
0.066099
0.089838
-0.013654
0.341085
0.147874
-0.216235
0.003627
0.009845
-0.042908
-0.021549
-0.028034
0.016657
0.061250
0.000472
0.053648
-0.027124
-0.018026
-0.040071
-0.050926
0.195051
0.056058
-0.068906
-0.152250
0.074491
0.048827
-0.250078
-0.056344
0.296148
-0.338580
-0.117525
0.152989
-0.016127
0.055910
-0.174761
0.111918
0.029361
-0.103148
0.036610
-0.043976
0.030358
0.219956
-0.033266
-0.053802
-0.025833
0.007798
0.163671
-0.037845
-0.053459
0.114780
0.193853
0.192631
-0.067781
-0.067900
-0.066417
0.031617
-0.021419
-0.189621
-0.070732
0.040576
0.018682
0.067536
0.141197
0.127011
-0.019145
-0.127076
-0.174767
-0.042376
0.101757
-0.370930
0.079563
-0.028670
-0.019894
0.115483
0.326582
0.466359
-0.251007
-0.105991
0.282111
-0.146260
-0.064397
-0.095081
-0.044369
-0.094229
-0.070994
-0.285325
0.008997
0.104892
0.025385
-0.017578
-0.094131
0.036998
-0.174710
0.007638
0.063314
-0.134485
0.120127
0.162942
0.033116
0.096187
0.136812
0.195897
-0.047383
-0.458679
0.002523
0.082427
0.079867
-0.029457
-0.074092
-0.968253
-0.019026
-0.060402
0.532344
0.124781
-0.029777
-0.143848
-0.121766
0.049846
0.435389
-0.214059
-0.265896
-0.310762
0.065475
0.128598
0.279300
0.144347
0.022661
0.048388
-0.072051
0.105092
0.102437
0.136739
-0.097654
-0.119689
-0.135829
-0.115325
-0.002037
0.441984
0.334409
-0.108326
-0.223321
-0.199357
0.317679
-0.064311
-0.177229
0.133687
0.214820
-0.020235
0.038696
0.127375
0.062314
-0.148331
0.041632
0.232043
-0.046745
0.085458
0.126123
0.069080
-0.023824
-0.059822
-0.134950
-0.054912
0.041289
-0.083511
-0.307624
-0.172619
0.029465
-0.268454
0.495163
0.856875
-0.023669
-0.461698
-0.065364
0.121337
-0.402157
-0.120939
-0.323173
0.012153
0.956865
-0.076597
0.218553
0.364729
0.259595
-0.384371
-0.118073
-0.157511
-0.137564
-0.475309
0.168823
0.158144
0.114983
0.034991
0.438429
0.337520
-0.214582
0.009843
0.122805
0.254849
0.232749
0.030339
-0.260611
-0.348205
-0.218687
-0.348656
0.043381
0.012973
-0.137101
-0.027954
-0.324465
-0.411547
-0.191698
-0.087043
0.019468
-0.005720
-0.051345
0.689737
0.523142
-0.058266
0.243484
0.072444
0.061510
-0.055275
0.267421
0.192654
0.230209
0.059655
0.183101
0.277555
0.105247
-0.405663
-0.087738
0.105474
0.389613
0.009637
-0.026130
-0.041111
-0.252062
0.046189
0.029341
-0.054059
-0.004677
0.018579
0.333640
0.252127
-0.103584
0.092298
0.115775
0.063932
0.185007
0.031446
0.040105
-0.124457
-0.165111
0.129497
0.163917
0.214849
0.074522
-0.114176
-0.058921
-0.154652
-0.073221
0.173952
-0.052421
-0.652115
-0.007186
0.069424
0.089663
-0.082010
-0.071229
0.332777
0.180167
-0.022208
0.081844
0.243405
-0.012026
0.226844
0.134122
0.152636
0.136218
0.023933
-0.095443
-0.036177
-0.128480
0.087513
-0.012938
0.059633
0.453974
-0.361498
-0.127479
0.455310
-0.011779
-0.280755
-0.023245
0.117045
-0.235672
0.282650
0.369639
0.114748
0.332056
-0.004256
-0.055451
0.112915
-0.184703
-0.288013
-0.051541
-0.191117
0.083783
0.167333
-0.282519
-0.237040
0.015496
0.027498
0.195349
0.206301
-0.492243
-0.177258
0.015578
-0.415340
0.103173
-0.175963
-0.035147
0.142280
0.100406
0.046119
0.185418
-0.084362
-0.055434
0.032584
0.155426
-0.270386
-0.203972
-0.135567
0.219657
0.059298
-0.035310
0.330287
0.158183
-0.113468
-0.292821
-0.213168
-0.218769
-0.395190
-0.023939
0.135241
-0.524799
-0.340109
-0.324107
-0.166709
-0.011971
0.210714
0.220621
0.460062
0.492962
-0.055887
-0.127033
-0.047977
0.352654
0.150397
-0.078324
0.007500
-0.063915
-0.061283
0.181873
-0.069936
0.055434
0.103104
0.003776
0.254959
0.094355
-0.046844
-0.091404
0.138414
-0.240839
-0.048366
0.397612
0.182630
0.342252
-0.030569
-0.032535
-0.181065
0.156460
-0.135801
-0.126910
-0.104082
0.123278
0.145284
0.089365
-0.254297
-0.069671
-0.275543
-0.142516
0.546714
0.129549
0.049135
-0.197059
0.112149
-0.257779
-0.264955
-0.077948
-0.188045
-0.204576
0.274470
-0.012165
0.006380
-0.052497
-0.193561
-0.316060
0.005206
-0.023267
-0.087982
0.125157
0.189973
0.172719
0.193600
0.064996
0.311884
-0.091277
-0.194108
-0.035993
0.258833
0.186550
0.058341
-0.109725
-0.115260
-0.172281
0.149847
-0.130650
0.024252
0.216101
-0.230703
0.057320
0.058722
0.099430
0.003273
0.023416
0.004823
-0.126152
-0.020718
0.080347
0.163822
-0.102705
-0.077977
-0.190001
0.069090
0.072348
-0.031747
0.053401
0.043420
-0.161249
0.472293
0.088854
-0.111576
0.120652
0.072768
0.334675
0.032737
0.023396
0.136390
-0.204198
0.141156
0.187592
0.172845
0.197570
-0.180390
-0.066689
0.007130
-0.118813
-0.442398
-0.138312
0.097418
-0.045799
0.240108
0.437940
-0.298377
-0.303592
-0.263327
0.151070
0.006596
-0.199864
-0.033988
-0.125023
0.118080
0.086016
-0.037688
-0.391471
0.176917
-0.060130
-0.159782
0.045786
-0.058937
-0.245450
0.123814
-0.198242
-0.233112
0.269835
0.200067
0.147833
-0.201121
-0.271599
-0.122114
0.449128
0.030942
0.159474
-0.068836
-0.020703
-0.086447
0.150882
0.090173
-0.111419
-0.010432
-0.040818
0.727310
0.042412
0.013116
0.163400
0.099736
-0.180899
-0.373818
0.233527
0.016672
0.025367
-0.131866
-0.146191
-0.064557
0.252241
0.023625
0.258235
-0.148570
-0.247020
-0.108090
0.059271
0.083257
-0.028119
-0.076811
0.133874
0.284734
0.223895
0.166622
0.063678
0.496637
0.097971
-0.216292
0.136980
-0.134049
-0.182344
0.179199
-0.044031
-0.082589
0.078420
0.096124
-0.134504
-0.143782
-0.077674
-0.031417
0.051817
0.131379
0.178118
0.060268
0.008717
0.181776
-0.085790
0.047110
0.187836
-0.077217
-0.138087
-0.088363
-0.019733
-0.039248
-0.123415
0.530501
0.155479
-0.205260
-0.090148
-0.156487
-0.006578
-0.037005
-0.283560
-0.110774
-0.127887
0.054792
-0.000749
-0.201187
-0.076032
-0.291374
-0.068917
-0.126449
0.184919
0.293177
-0.039119
0.244443
-0.078693
-0.100487
0.708037
0.404841
0.128463
-0.200687
0.226098
0.103431
-0.557367
0.293941
-0.582597
-0.689975
0.014303
-0.203123
-0.051020
0.041641
0.134801
0.111398
-0.167858
-0.268958
-0.223057
-0.168454
-0.191075
-0.285094
0.275860
-0.018149
0.193560
0.712176
0.250747
-0.202074
0.270191
0.000527
0.428127
0.204090
0.092016
-0.053560
0.369180
0.190469
-0.299476
-0.327594
-0.277854
-0.284386
-0.051813
-0.005677
0.155107
0.191607
-0.017465
0.090670
-0.262074
-0.276444
-0.159747
-0.061535
0.031890
0.095451
0.359362
-0.156349
-0.253622
-0.015440
-0.183585
0.236968
0.027486
-0.197726
-0.051329
-0.287629
-0.150928
0.011525
0.317386
0.355701
0.440561
0.307407
-0.549207
-0.490593
-0.241816
-0.082912
0.526510
0.033105
-0.150864
0.259741
0.008100
-0.146749
-0.120041
0.429974
0.540138
0.653698
0.033756
-0.164683
-0.142636
-0.102902
0.014596
-0.057782
0.179943
-0.158095
-0.072200
0.161930
-0.072815
0.008114
0.522182
0.104936
0.213538
0.055774
-0.470303
-0.250249
0.171906
0.055677
0.269635
-0.267776
-0.220745
0.374914
-0.071639
-0.011846
0.214655
0.108786
-0.008617
-0.356180
-0.256404
-0.393756
0.007225
0.110885
0.109821
0.315188
-0.533236
-0.231134
0.538812
-0.072517
-0.063710
-0.012755
0.213132
0.001546
-0.058408
0.200574
0.124373
-0.087192
-0.042047
-0.175787
0.202830
0.061754
-0.030123
0.033503
-0.163235
0.055586
0.005622
-0.267814
-0.263014
0.014555
-0.252600
-0.138497
0.044597
0.190887
0.172807
-0.156025
0.381161
0.133744
0.287585
-0.037107
-0.044735
0.116947
-0.137434
-0.373672
-0.448327
-0.141545
-0.318470
-0.017517
0.080517
0.140331
-0.119271
0.007442
0.210076
0.155704
-0.092958
-0.013076
-0.231619
0.224962
0.201767
0.042320
-0.215789
-0.185347
0.006507
-0.154805
0.060091
0.253017
0.008585
0.056529
0.041918
-0.239951
0.073770
0.066414
0.160104
0.153296
-0.116469
0.415789
0.005000
-0.208121
-0.309740
0.064022
0.249883
0.073325
0.071197
-0.198615
0.212172
0.004261
-0.386809
0.078867
0.211045
0.223104
0.028516
0.036793
0.102260
0.025229
0.162458
0.108839
-0.103999
-0.025296
0.063250
-0.114220
-0.152824
-0.090177
-0.004082
0.085856
0.105811
0.129109
0.010935
-0.269201
-0.058114
-0.168581
0.027549
-0.203960
-0.214613
-0.105230
0.075048
-0.049995
0.317243
0.259353
0.012546
-0.013232
0.120715
0.196791
0.249406
0.120510
-0.052831
-0.011027
0.101776
-0.030512
-0.235273
0.209845
0.197785
0.258125
0.412357
-0.292034
-0.026230
0.067606
0.019665
-0.190008
-0.291468
0.051288
0.545006
0.082508
0.192694
0.629939
-0.390590
0.055657
0.262941
-0.051740
0.054137
0.487614
-0.029650
0.041083
-0.007270
-0.185886
-0.114490
0.183624
0.039161
-0.051697
-0.121823
0.227568
0.213877
-0.068461
-0.379183
0.262517
0.305799
0.371288
0.089378
-0.356076
-0.239639
-0.150163
0.024669
0.063011
0.053674
0.058438
0.173005
0.046717
-0.085457
0.293763
-0.010279
-0.048480
0.078595
-0.007975
0.214139
-0.038205
-0.274941
0.104008
-0.083932
0.281815
0.000295
0.107210
-0.250047
-0.215584
0.015652
-0.008067
-0.162312
-0.170739
-0.196921
-0.063242
-0.290585
-0.263591
-0.351476
-0.067851
0.197755
-0.396746
-0.249505
0.090927
0.178697
0.037299
-0.450996
-0.253710
0.328182
0.056221
-0.148694
0.001628
-0.007227
-0.157196
-0.065250
-0.236729
-0.115260
0.185178
-0.217620
-0.526890
-0.094446
0.130194
0.268965
0.018087
0.099253
-0.176901
0.017672
0.619905
0.867840
0.399435
0.809122
0.110823
-0.275321
-0.204755
-0.237970
0.253322
-0.228918
-0.237873
-0.399202
-0.229061
-0.139221
0.105581
-0.150731
-0.050563
0.064434
0.117937
-0.033552
0.171068
0.012272
-0.294400
0.109563
0.132580
-0.028719
-0.254083
0.045725
0.151073
-0.340476
0.133805
0.121701
0.296314
0.061048
0.122988
-0.262322
0.322765
0.483670
0.190476
0.224141
-0.024638
-0.128403
0.031696
0.214468
-0.118575
0.048021
0.071778
-0.388958
0.096220
0.115960
-0.080253
0.059690
0.194444
-0.179545
0.163487
0.035375
-0.201056
0.074877
-0.032529
-0.105630
0.179756
0.085423
-0.172008
-0.043180
0.092796
0.126538
-0.037184
-0.034810
-0.005488
0.222467
0.130488
-0.121764
0.002153
-0.338102
-0.101393
-0.073206
0.159315
0.241556
0.235043
-0.311830
0.113621
-0.036404
-0.582298
0.069250
0.172112
-0.361735
-0.411728
-0.482549
-0.102217
-0.215168
-0.033809
-0.068905
0.000250
-0.180590
-0.346641
0.258681
0.011523
-0.239700
-0.139649
-0.109718
-0.285047
0.218060
0.163215
0.156215
-0.235729
0.054390
0.199291
0.215989
-0.247600
-0.296295
-0.037351
-0.270365
-0.006716
0.014275
0.117086
0.082154
-0.062368
-0.127453
-0.163307
-0.121101
0.273446
0.596089
0.490642
0.560466
0.130239
-0.127609
-0.138860
-0.088429
0.080869
0.135022
-0.024863
-0.035527
-0.157315
-0.027159
-0.032154
-0.288004
-0.580441
-0.427421
-0.083857
0.875465
0.354111
-0.362591
-0.713449
-0.363809
-0.124586
0.590702
-0.177003
-0.297402
0.269971
0.163097
-0.147671
-0.024914
0.195926
-0.390149
-0.435153
-0.144666
-0.163146
0.102382
0.392201
-0.148283
0.069759
-0.270457
-0.403297
0.024061
0.473871
-0.290343
-0.097000
-0.110332
-0.175519
0.878999
-0.093991
0.005963
-0.023442
-0.075916
-0.041782
-0.092478
0.097682
-0.045050
-0.031566
-0.116571
0.038393
-0.330118
0.389632
-0.293650
-0.384723
-0.010536
-0.393475
-0.084905
-0.157301
-0.001543
-0.101670
-0.156262
-0.139316
0.132205
0.152123
0.001861
0.097303
0.159560
0.019874
-0.236670
0.496419
-0.450499
-0.389525
-0.196073
-0.283485
0.332838
0.063258
-0.269256
0.203423
-0.164335
-0.049322
0.418989
-0.071753
-0.070601
-0.381069
0.496055
0.361171
0.455490
-0.134483
0.521855
0.345327
-0.170165
-0.142824
0.062916
0.292089
0.559867
0.874333
0.065774
-0.186291
0.043155
-0.221617
-0.133723
-0.382326
-0.149910
-0.177894
-0.249387
-0.046941
-0.042062
0.080022
0.138950
-0.313583
0.046048
0.170817
0.079449
0.097904
0.117486
0.101962
0.113734
0.553808
0.389111
-0.212235
0.411056
0.382089
0.231775
0.009624
-0.446074
0.095952
-0.126459
0.089299
0.441477
0.305635
-0.072972
-0.416272
-0.124749
-0.519733
0.298256
0.209185
-0.141081
0.278406
0.008033
0.207936
-0.138701
-0.040060
0.007545
-0.393809
-0.045178
0.118588
0.065820
0.143265
-0.075024
-0.207691
0.260670
0.265471
0.334912
0.034818
-0.399010
-0.210099
0.007289
-0.078134
0.404388
0.048385
-0.054548
-0.039670
0.254439
-0.236210
0.039725
0.163297
-0.156885
-0.022718
0.157150
-0.069675
-0.239759
0.698289
0.194936
-0.163097
-0.177976
-0.205133
-0.162879
-0.221256
-0.114438
-0.220871
-0.213805
0.145014
0.193478
0.071715
0.249194
-0.376334
-0.036747
-0.045470
-0.073705
0.503989
-0.053930
-0.078550
-0.072156
0.063039
0.009838
-0.224537
-0.374150
-0.069104
0.389502
0.112571
0.113002
-0.015189
0.408935
-0.091440
-0.110162
-0.095683
-0.215001
0.215550
0.140671
-0.000544
0.148509
-0.014803
-0.002292
-0.125223
-0.314416
-0.063376
-0.038961
0.486243
-0.122771
-0.193675
0.159937
0.200870
0.146400
-0.138912
0.004829
-0.035332
-0.394522
-0.177865
0.322322
0.162809
0.102232
0.116947
0.140623
0.181169
-0.193668
-0.282257
-0.185419
0.086134
0.032452
-0.153808
-0.212534
-0.201456
-0.080133
-0.197940
-0.098010
-0.101426
-0.184662
0.308413
0.439402
0.254989
0.102552
-0.052409
-0.114946
-0.101273
-0.405394
-0.134919
-0.136126
0.257408
0.252046
0.049153
-0.322534
0.080912
0.059392
-0.650548
0.161492
0.106549
0.162216
-0.048627
0.201196
-0.244795
-0.068467
-0.037456
-0.142929
-0.089941
-0.140086
0.181600
-0.212882
0.019240
-0.108095
-0.070326
0.103462
0.004720
0.028004
0.347626
0.878405
-0.130500
-0.037274
-0.056289
-0.249421
-0.172985
-0.353611
0.008519
0.346850
0.103774
0.161663
0.144866
-0.095800
-0.403548
-0.163899
-0.194277
-0.310614
0.872012
2.310792
-0.184588
-0.214346
-0.204400
-0.050941
0.133514
0.666778
0.070483
-0.060065
0.123386
-0.346306
-0.191531
0.276385
0.429690
0.151790
-0.080709
-0.558207
-0.088210
0.176666
0.278382
0.039076
-0.812428
0.193203
-0.284902
-0.131784
0.158482
0.246048
0.017327
-0.142596
0.262559
0.135585
-0.087607
0.233442
-0.048127
-0.033123
-0.506028
-1.257548
0.308608
0.163380
-0.156210
0.351316
0.181906
-0.010998
-0.260686
-0.010503
-0.092154
-0.241897
0.079013
-0.077782
-0.101403
-0.041581
-0.313006
-0.089466
0.292605
-0.191876
-0.144923
0.267777
0.116880
-0.042313
0.133779
-0.062240
0.199900
-0.115475
-0.281810
-0.025585
-0.133239
-0.050090
-0.092409
0.009546
0.178243
0.102203
0.021869
-0.283541
0.108336
-0.297303
0.230844
0.181587
0.145820
-0.198603
-0.033785
0.013689
-0.235151
0.187328
0.019383
-0.104210
-0.113935
0.126106
0.082587
0.017921
-0.141736
0.059577
-0.103327
0.082340
-0.092400
-0.002958
0.034608
0.211361
0.469812
-0.141675
-0.348023
-0.411919
0.238758
0.630594
-0.246358
-0.276978
-0.128204
-0.255601
-0.013283
0.220856
-0.200295
-0.099984
0.158908
-0.003756
0.249725
-0.054004
-0.064331
0.013451
0.055956
-0.562431
0.448578
1.221130
-0.482301
0.046252
0.094454
0.159118
-0.012306
-0.009891
0.248899
0.052669
0.034967
-0.126122
-0.037634
0.032234
0.288883
-0.146616
0.189469
-0.076858
0.175175
-0.078914
0.013879
0.124014
-0.240200
0.324742
0.028468
-0.156166
0.136938
0.252267
-0.229427
0.065863
-0.025068
-0.000749
0.193179
-0.269096
0.207832
-0.156831
-0.262149
-0.399386
-0.059480
0.082734
0.221235
0.128033
0.119837
-0.178559
-0.146783
-0.084355
0.005278
0.059446
-0.220655
-0.089669
-0.168187
0.033645
-0.029448
0.063439
0.127573
-0.041098
0.053346
-0.006223
-0.008856
0.266459
0.054978
0.092146
0.304791
0.099417
0.221785
0.023559
-0.182308
-0.006678
-0.128068
0.045319
0.301071
-0.150320
-0.309624
-0.240431
0.076562
-0.005957
-0.150722
0.160588
-0.195514
-0.544179
0.246192
0.157192
-0.612982
0.129378
0.053357
-0.268669
0.146662
0.371953
0.133213
-0.057331
-0.039638
-0.102657
0.154740
0.434097
-0.069354
-0.176872
0.030128
-0.006842
0.277885
0.261273
0.411175
0.510246
-0.297891
-0.340461
-0.160430
0.272186
0.112439
-0.106217
-0.357416
0.213133
0.122159
0.087182
0.056046
0.441586
0.068296
-0.029153
-0.177938
-0.187424
-0.118458
0.504714
0.088074
-0.187586
-0.106605
0.097849
-0.276703
0.174751
0.066000
0.120168
-0.153589
0.046287
-0.284421
0.202123
-0.201483
0.140432
0.004354
-0.059847
0.035723
-0.179267
0.044289
-0.244947
0.268297
-0.025316
-0.748232
-0.481535
-0.245660
0.587717
-0.133033
-0.072469
-0.133790
-0.363494
-0.083306
0.710662
-0.040495
-0.131670
0.579384
0.305331
0.331045
-0.375288
-0.103162
-0.085948
-0.213494
-0.168130
-0.095652
-0.021341
-0.051328
-0.180976
-0.442863
-0.183323
-0.001323
0.091874
0.195861
-0.123886
0.155219
-0.011991
0.113981
0.156165
-0.491177
-0.090033
0.604084
0.212295
0.207690
-0.053680
-0.128273
-0.217720
0.024191
0.080473
0.020140
-0.094800
0.269123
0.062645
-0.086501
-0.249447
-0.116095
-0.029352
-0.005292
0.173243
-0.226860
0.393899
-0.162359
-0.135991
0.449753
0.181934
-0.207202
0.159588
0.099226
0.051426
0.187872
0.025442
-0.185345
0.042135
-0.076723
-0.266848
0.052570
-0.055286
-0.162921
0.054038
0.084569
-0.102527
-0.037336
-0.132394
0.151238
0.169931
-0.273893
-0.039266
-0.138535
0.054911
0.013462
0.313931
-0.184860
-0.241324
0.365402
0.168467
-0.289755
0.014220
-0.183046
-0.191734
0.173541
0.260660
0.145911
0.474285
0.114300
0.329441
0.148442
-0.045735
-0.016868
-0.024435
-0.021915
-0.204678
0.019362
-0.016380
-0.188343
0.112783
-0.001105
0.126861
-0.277787
-0.147868
0.148314
-0.491680
0.081661
0.188457
0.917392
0.377377
-0.041165
-0.326244
-0.473788
0.320471
-0.073064
-0.112902
0.180098
-0.395315
-0.271032
0.466760
-0.326139
-0.072844
-0.008534
0.635398
0.384255
-0.174901
0.191731
-0.045713
0.225935
0.008849
-0.054656
0.038361
-0.047706
0.075320
0.071610
-0.253329
0.131783
0.182883
-0.015602
-0.151360
0.060089
-0.045194
-0.011801
0.227623
-0.500515
-0.070956
0.494912
-0.347239
-0.123654
-0.209463
0.510531
-0.886322
-0.091906
0.706709
-0.603877
-0.122563
0.100575
-0.314035
0.274242
-0.000269
-0.393110
0.445895
0.602432
-0.254917
0.127084
0.236613
0.101057
0.104239
-0.004547
-0.029091
-0.016979
0.198845
0.180468
-0.240464
-0.091355
0.201539
-0.273409
0.818129
-0.107024
0.094164
-0.436104
-0.463110
-0.187168
0.906491
-0.013011
-0.126779
-0.233494
-0.161067
0.026778
0.106940
0.100125
0.465171
0.363673
0.076818
-0.059392
-0.185838
-0.052872
-0.043924
-0.211655
-0.547081
-0.008492
-0.263176
0.011519
-0.015608
-0.356247
0.094745
0.071532
-0.127680
-0.421659
-0.113525
-0.449210
-0.293899
0.302408
0.276678
-0.036842
-0.061796
0.115296
0.148179
-0.064146
0.007234
0.035571
-0.096493
0.363961
-0.315893
0.160898
0.448916
0.380546
0.615480
0.164801
-0.177156
-0.251052
-0.079060
-0.044161
-0.129876
0.124533
-0.112452
0.325306
0.062458
-0.315977
-0.240488
-0.276341
0.094330
-0.058674
0.299533
0.233886
0.164273
0.142314
-0.109929
-0.141255
0.145174
0.127717
0.314030
-0.162556
-0.205371
-0.146913
-0.004216
-0.026010
-0.177646
0.345114
-0.341256
0.370656
0.009410
-0.105473
-0.162123
0.331695
0.162853
-0.434428
-0.162791
-0.248911
-0.343014
0.685404
-0.289125
-0.477138
1.327319
-0.055445
-0.432984
-0.060161
-0.145424
0.330299
0.187132
-0.516805
-0.256067
0.909971
0.310879
0.293585
0.009662
-0.200974
0.139730
-0.026457
0.043382
0.168536
-0.024375
0.298403
-0.052466
-0.095512
-0.301818
-0.201527
0.536910
-0.422907
-0.436242
-0.066392
-0.020546
0.192419
0.485004
-0.270985
-0.000593
0.269107
-0.066130
0.141539
0.041873
0.115634
0.189590
0.545026
-0.035257
-0.466178
0.008588
0.224209
-0.069734
-0.731852
-0.501197
0.015171
-0.327846
0.178562
0.237551
-0.046248
0.275739
0.049764
-0.176223
0.103698
-0.182567
-0.428199
-0.453316
0.271360
-0.222656
0.064360
0.319411
-0.028313
-0.032477
0.103974
-0.065644
0.176935
0.355967
0.451494
0.085474
-0.181750
0.438407
-0.085179
0.027642
-0.293750
-0.134009
-0.332830
0.219333
0.335122
-0.194343
-0.248321
-0.149907
0.009076
0.003246
0.031831
-0.073219
0.194106
-0.064031
0.134529
-0.219679
0.203618
0.054443
0.275219
0.084090
-0.357685
-0.222068
-0.059789
-0.210005
-0.303113
0.083768
0.286682
-0.128032
-0.028720
-0.266546
0.036007
-0.228298
-0.252012
0.019810
-0.054626
-0.186067
0.017067
-0.029561
-0.013235
0.457911
0.258926
0.466844
-0.207039
-0.147174
-0.005194
-0.161054
0.228915
-0.232552
-0.049853
-0.015846
-0.115649
-0.229856
0.297630
-0.311406
0.000424
0.043439
0.041199
-0.126464
0.172031
-0.201829
-0.192449
-0.120786
0.014447
-0.060648
-0.061975
-0.177870
-0.333912
-0.154103
0.404545
-0.164035
0.079895
-0.124324
-0.091149
-0.125483
0.268050
-0.337435
0.042851
0.620950
-0.059022
0.269191
0.143971
-0.350654
-0.103263
0.031835
-0.421445
0.274872
-0.081067
-0.070014
-0.057948
-0.139970
0.094576
0.100314
-0.112495
-0.107368
0.405335
0.489464
-0.081095
-0.225729
-0.458987
-0.049005
-0.087827
0.209507
-0.266956
0.084007
-0.193643
-0.341091
0.790709
1.190696
-0.787423
0.270807
0.986739
-0.490322
-0.125606
-0.032136
0.042727
-0.006355
-0.035080
-0.351763
0.004068
0.194032
-0.077593
0.064132
0.102978
0.096075
0.046277
-0.088378
-0.052949
0.066114
0.383982
0.215922
0.247821
0.131752
-0.232476
-0.186927
-0.073308
-0.207805
-0.187047
-0.110262
-0.076020
0.189715
-0.045677
-0.177301
0.027795
-0.055906
-0.245347
-0.087012
-0.331948
-0.054345
-0.053777
-0.325834
-0.071107
-0.141934
-0.098044
0.095688
0.326904
-0.020701
0.163173
0.036117
0.179130
0.081045
0.253517
0.176786
-0.002413
0.100857
-0.154185
-0.277834
0.124509
-0.368190
-0.156927
-0.289539
0.080876
-0.193770
0.340228
-0.260991
-0.035229
-0.097445
0.047369
0.061125
0.087862
-0.279136
-0.017156
-0.217488
0.236905
0.018351
0.028876
-0.147149
-0.028698
0.083188
0.019723
0.330179
0.161425
0.246972
-0.117382
-0.077266
0.317593
-0.301239
-0.322110
0.551761
0.052803
-0.011899
-0.098759
-0.353574
-0.126106
-0.015368
-0.056059
-0.059003
0.117805
0.127739
0.145468
0.303364
0.098165
-0.087330
-0.039375
-0.401487
0.233594
0.257309
-0.364891
-0.017111
0.040627
0.074969
0.164028
-0.022703
-0.207442
0.033842
-0.138973
-0.504279
0.468684
0.726058
-0.593122
0.461244
0.857134
-0.324055
0.076785
0.396131
0.414763
0.189702
-0.024883
0.041380
-0.237389
0.095095
-0.086975
-0.174838
0.015895
-0.100389
0.091637
-0.125298
-0.116065
0.136178
0.228134
0.282278
0.198629
0.356760
0.041233
-0.175390
0.153024
-0.022488
-0.155930
-0.277400
-0.236202
-0.186162
-0.107315
0.096580
0.032420
0.093076
-0.217788
-0.166767
-0.064019
-0.237192
-0.066443
-0.210654
0.137439
0.183927
0.160872
-0.241967
0.285368
-0.089010
0.042752
0.063287
0.135973
-0.170559
-0.098851
-0.147421
-0.197743
0.014166
-0.875945
-0.351748
0.006712
-0.116253
-0.021485
-0.057835
-0.262993
-0.220707
0.288762
0.946895
-0.098995
0.071911
0.120695
-0.196499
0.041247
0.028737
-0.083420
-0.043494
0.156991
0.004153
0.356881
0.510055
-0.059009
0.089921
0.308878
-0.483653
-0.063507
0.075994
-0.150674
-0.012219
-0.099256
-0.223944
-0.033339
0.493380
-0.006987
-0.015008
0.098726
-0.037902
0.069584
-0.196848
0.070461
-0.144478
-0.387833
0.042978
-0.051377
-0.014325
-0.447933
-0.088157
-0.127733
-0.329467
-0.366494
-0.467770
0.044304
-0.128110
0.046365
0.042407
-0.209087
0.305221
-0.219263
0.380977
0.630504
0.182975
0.185006
0.547635
0.084705
0.180463
0.913186
0.038439
-0.225635
0.111558
-0.205614
0.194292
0.537585
-0.046059
0.054603
-0.325507
-0.111479
0.005798
-0.041617
-0.107271
-0.188477
0.174590
-0.386994
-0.232618
-0.386096
-0.079465
-0.092068
0.114723
0.098696
0.150631
0.042668
-0.265949
-0.082379
-0.039318
-0.103341
0.007086
0.016903
-0.256339
-0.101809
-0.213600
-0.504107
0.065022
0.177650
0.149432
0.194950
0.667663
-0.072742
0.206280
-0.200776
0.082971
0.148885
0.026814
0.032366
0.333442
0.129915
0.168137
-0.050219
0.033376
-0.002071
-0.198360
-0.279469
0.027594
-0.031946
-0.186088
-0.312880
-0.494720
-0.391463
0.190529
0.418028
0.211655
-0.108221
-0.257552
-0.131537
-0.056913
-0.172422
-0.090704
-0.407418
-0.061703
0.090116
-0.134823
0.279245
0.335569
-0.068883
0.342728
0.351381
0.460420
0.341682
0.315929
0.258868
-0.117107
-0.293969
0.240995
0.137459
0.082942
-0.100855
-0.089891
-0.178532
-0.067551
-0.173859
0.387378
0.026373
-0.062595
-0.374404
0.028810
-0.005518
-0.010831
-0.158080
-0.092867
0.228633
0.016849
-0.165493
-0.532168
-0.229702
-0.191562
0.054712
0.029238
0.053371
0.074382
-0.048536
0.283689
0.473903
0.368764
0.164964
0.316926
0.442546
-0.023032
0.359508
0.268091
-0.048983
-0.218069
-0.056988
-0.192698
-0.047429
0.122655
0.140322
0.113933
-0.026614
-0.021309
-0.001717
-0.465408
-0.251259
-0.023715
0.111337
-0.071736
0.002482
-0.176044
-0.138904
-0.146888
0.252024
-0.179001
-0.088921
0.019321
0.023260
-0.160072
0.038739
0.108292
-0.034741
0.216976
0.073234
-0.268563
-0.025717
0.139535
-0.049333
-0.308699
-0.132091
0.456753
0.004783
0.129259
0.105784
0.069246
0.140510
-0.063629
0.026295
-0.406936
-0.225951
-0.072662
-0.101312
-0.021536
-0.101891
-0.056526
-0.176812
0.088729
0.143718
-0.192027
-0.160417
-0.022790
-0.106185
-0.140337
0.044195
-0.046044
-0.285808
-0.027679
0.122413
0.062944
-0.117860
-0.121245
0.063712
-0.112464
-0.305533
0.142360
0.163776
-0.018737
-0.052785
-0.071623
-0.147461
0.210738
-0.009101
-0.180453
-0.035746
-0.002531
-0.220840
0.165299
0.004396
-0.199533
0.593757
0.171965
-0.291381
-0.059297
-0.119838
-0.405543
-0.033040
0.170121
0.211282
0.125813
0.235143
0.019536
-0.163768
0.016817
-0.048343
-0.153825
-0.093849
-0.172443
-0.166003
-0.164818
-0.020612
-0.179687
-0.318007
0.096912
-0.156930
0.121750
0.138380
0.007393
-0.152906
-0.261155
0.114498
0.008190
-0.258525
0.114367
0.024292
-0.041288
0.041335
0.076432
0.300550
0.264876
0.214557
0.147484
-0.078933
0.210034
0.213286
-0.393574
0.380224
-0.086219
-0.001074
0.032094
-0.054340
-0.004456
0.156400
0.223886
0.069126
-0.108820
-0.252572
0.127151
0.117114
0.088231
-0.098686
-0.029139
0.017344
-0.025419
-0.063424
0.090819
-0.074059
0.125108
0.064299
-0.193701
0.047926
-0.126828
0.175997
0.011179
-0.070958
0.279832
0.001179
0.107516
-0.017705
-0.139738
-0.064259
0.026699
-0.039333
0.034826
0.140943
0.283718
-0.229019
0.249213
0.053713
-0.299593
-0.158868
-0.380967
-0.263537
-0.025405
-0.079297
-0.283607
0.074619
-0.025412
-0.044028
0.025210
0.060264
-0.149345
-0.013771
-0.161745
-0.339377
-0.106560
-0.192896
0.000702
-0.074990
-0.015656
-0.123364
0.336046
0.053066
-0.155621
0.155136
-0.013309
-0.281079
-0.191275
0.003606
-0.160097
0.587960
0.396501
-0.098072
0.099576
-0.067993
0.098136
0.373210
0.168287
0.093106
0.273819
0.103888
-0.038674
0.053673
-0.128814
-0.173522
-0.072221
0.062675
0.112401
-0.212628
-0.236524
-0.052911
-0.060473
-0.311220
0.260104
-0.061487
0.014452
0.135101
0.028611
0.047731
0.110811
-0.016216
0.029662
0.238972
-0.237510
-0.006635
0.163944
-0.019187
-0.078369
-0.271423
0.019999
0.022090
0.062450
0.038559
0.247762
0.399053
-0.673183
0.096404
-0.065189
-0.053533
-0.116635
-0.182718
0.028721
-0.000636
-0.200000
0.360422
0.101836
-0.223682
0.014575
0.190941
0.242814
-0.019446
-0.082586
-0.070153
0.043244
0.065515
-0.161027
-0.000048
0.087483
0.256123
-0.040329
0.001497
0.063319
-0.103391
-0.087392
0.117405
0.120926
0.210559
0.011740
-0.274809
-0.384488
-0.132652
0.046577
0.057836
0.089080
0.183041
-0.218304
-0.007505
-0.052563
-0.087872
0.113055
0.134839
-0.096345
-0.255287
-0.022723
-0.075038
0.271429
-0.013340
-0.241631
-0.198378
-0.032272
-0.023951
-0.356377
-0.119074
0.000300
-0.183502
0.031835
0.452160
0.569274
0.102997
-0.306949
-0.076644
-0.015220
0.058785
0.099613
0.009628
-0.115395
-0.069671
0.024508
-0.107537
0.011485
-0.115536
-0.173951
0.322005
-0.110071
-0.052488
0.289754
0.032567
0.495829
0.551872
0.077350
-0.350178
-0.446513
-0.125767
-0.010359
0.077755
-0.230642
-0.207758
0.109707
-0.104048
-0.245820
-0.154674
-0.004817
0.106048
-0.125283
0.035532
-0.136296
-0.353523
-0.076854
-0.164321
0.021234
0.104620
-0.158702
-0.008544
0.023617
-0.024682
0.068805
-0.027426
0.086751
0.138798
0.019405
0.138399
0.311222
-0.126457
-0.455141
-0.942512
-0.365069
-0.182473
0.559601
-0.039321
0.032504
-0.138299
0.060698
-0.136458
-0.004294
0.245453
0.147042
0.243609
-0.292607
-0.160143
-0.655561
-0.259553
-0.175334
0.068624
-0.048999
-0.086518
-0.166658
-0.073190
0.020226
0.262992
-0.057221
0.470775
1.049247
-0.168395
0.153298
-0.024628
-0.186873
0.173324
0.025890
-0.085074
0.399091
0.854990
0.060414
0.209337
-0.020548
0.241481
-0.081805
0.051438
0.309430
-0.056162
-0.247047
0.007176
-0.202331
-0.079189
0.191821
-0.437907
-0.028458
0.310768
-0.095270
-0.220897
-0.003613
0.162586
-0.427746
-0.048920
0.017422
-0.310310
-0.029722
0.406108
0.551196
0.076352
-0.249916
-0.260649
0.225520
0.038255
-0.098237
-0.252073
-0.239629
-0.144512
0.354222
-0.007184
0.101910
0.016216
-0.283661
0.051088
-0.184626
0.278608
-0.313197
0.273515
0.357434
0.075353
0.043120
-0.219557
-0.085483
-0.156001
0.015632
0.258289
-0.111569
0.011521
-0.094697
-0.152257
-0.068178
-0.069973
0.303081
0.279153
0.068592
0.078385
0.116641
0.006371
0.117924
0.118418
-0.261756
0.128149
0.017398
-0.036869
-0.093226
0.195598
-0.003615
-0.117817
0.203085
0.274513
0.014470
-0.184369
-0.099082
0.322481
-0.107384
0.015853
-0.246395
-0.249138
0.120860
-0.127274
0.086521
0.032580
-0.221600
-0.258105
0.187246
0.103862
-0.253039
-0.109216
0.005776
0.016553
-0.147520
-0.106533
-0.002695
0.117387
-0.026181
0.039588
-0.060889
-0.230094
0.181486
0.396473
-0.334318
0.130401
0.594495
-0.304000
-0.102163
-0.045615
-0.191096
0.080419
-0.202451
-0.341834
-0.117493
0.497982
-0.107961
-0.026644
-0.138152
0.001791
-0.081129
-0.036778
-0.244478
0.093039
-0.016359
-0.137793
0.068912
-0.074426
0.005435
0.361800
-0.149947
-0.102846
-0.084215
-0.012805
0.298179
0.056177
-0.044508
-0.104656
0.155571
-0.009934
-0.394904
0.130889
0.383714
0.077577
0.054210
0.104878
-0.005123
0.122003
0.136187
0.024679
-0.032444
0.010364
0.031580
0.218453
0.204702
0.492335
0.443683
0.669966
-0.170793
-0.128775
-0.078220
-0.249025
0.001598
-0.123333
0.053022
0.016351
-0.131190
-0.197110
-0.004161
0.227262
-0.326596
-0.007155
0.019500
-0.022930
-0.227558
0.053419
0.075507
0.090776
-0.250956
-0.013503
0.027740
-0.168243
-0.101902
-0.157633
-0.016324
-0.409574
-0.126960
-0.055971
-0.081131
0.076981
0.086086
-0.102769
0.094961
-0.059670
0.008375
-0.085696
0.264846
0.281405
-0.165996
-0.389004
-0.022069
0.098978
-0.034190
-0.077580
0.066739
-0.154486
0.198633
0.287875
0.171354
0.447737
0.129493
-0.266647
-0.092280
-0.134365
-0.195081
0.342954
0.782285
0.968121
-0.007362
0.034944
-0.039625
0.017031
0.292173
0.225037
-0.263045
-0.096684
0.232956
-0.239524
0.458974
-0.171470
-0.231443
0.088471
-0.148552
-0.520300
-0.252365
-0.206839
-0.033780
-0.049865
-0.014414
-0.004786
0.042896
-0.129533
-0.054355
0.086121
-0.200812
-0.354969
-0.106630
-0.035027
-0.282049
0.081661
-0.126796
0.331248
-0.150134
-0.165596
0.026619
0.173191
-0.097539
-0.057238
-0.014705
0.138706
-0.304092
-0.192667
0.272870
0.223839
0.160711
0.021761
-0.078006
0.020034
-0.000794
0.119746
0.210663
-0.153035
-0.043421
0.254208
-0.093317
0.931760
0.347724
0.254653
0.150810
0.196345
0.021808
-0.019807
-0.329291
-0.345705
-0.187818
-0.187542
-0.076136
0.194793
-0.023380
0.067905
0.094325
0.004205
-0.336631
0.016947
-0.297202
-0.117679
0.102594
-0.139775
-0.182464
0.086393
0.298299
0.120831
0.223844
0.070833
0.216685
-0.103544
-0.034625
0.053252
-0.285500
0.164706
0.305605
-0.118908
0.108774
-0.193715
0.115707
0.186929
-0.358571
-0.194460
-0.127766
-0.069371
0.071183
0.045555
-0.108965
-0.057404
-0.162893
-0.141115
0.058048
-0.024212
0.332625
0.656690
0.033525
-0.117097
-0.343981
-0.399406
-0.229133
-0.009067
0.195417
0.754129
0.001228
-0.197986
-0.066590
-0.011858
0.084070
-0.072325
0.083081
-0.287650
-0.332303
0.114098
0.184025
0.004751
0.262581
0.112079
-0.069008
-0.553967
-0.281605
-0.161606
0.051941
0.097841
-0.005298
0.071083
0.251337
0.075831
-0.051635
0.294385
0.374403
-0.082390
-0.278968
-0.141792
-0.061590
0.199613
-0.137462
-0.017179
0.081493
0.049985
-0.131499
0.009144
0.051153
-0.170014
-0.248688
0.079922
0.012999
0.021776
0.050951
0.004820
0.019493
-0.089514
0.086371
0.035769
-0.025718
-0.127565
-0.035774
-0.246773
-0.170013
0.033025
0.002563
0.082961
0.187095
0.025793
0.027205
0.043217
0.215824
0.132524
0.113467
0.037734
-0.009713
0.004450
-0.162718
-0.154818
-0.093222
-0.247548
-0.028860
-0.021273
0.016095
-0.020674
-0.117047
-0.029639
0.289971
0.288251
-0.054799
0.050398
-0.014971
0.040645
-0.000526
-0.042975
0.084893
0.045397
0.139941
0.119090
0.204831
0.238497
0.398770
0.132138
-0.085006
-0.115116
-0.073797
0.117984
-0.046655
-0.189414
0.122516
0.129004
0.148642
0.139816
-0.206832
-0.163128
0.145173
-0.046053
-0.099979
-0.022314
0.048381
0.123479
-0.013678
-0.184666
0.246023
0.310686
-0.080568
-0.058870
0.044571
0.078634
-0.020842
-0.219591
-0.095233
-0.113804
-0.015116
-0.092604
0.011458
0.061483
-0.117739
-0.054632
0.033714
0.037148
0.044231
0.044118
-0.005458
-0.164264
-0.116520
0.047377
0.126268
0.009409
0.027371
0.554349
0.554457
-0.094814
0.291424
0.424105
0.134339
-0.144427
-0.142817
-0.138723
-0.422326
-0.133451
-0.199566
-0.323730
-0.245597
-0.318000
-0.012819
0.071906
-0.032533
-0.039949
-0.342786
0.076991
0.138756
-0.048347
-0.208631
0.006502
0.009321
0.015208
0.525986
0.189520
0.038378
-0.268835
-0.016958
0.130163
0.012552
0.018116
-0.091724
0.341932
0.235732
-0.004831
-0.320009
-0.318288
-0.103583
0.204777
0.174025
-0.189032
0.095532
0.021316
-0.060364
0.192650
0.190225
-0.072883
-0.051076
-0.041349
0.030163
-0.000190
0.043073
-0.044021
0.320588
-0.021820
-0.067554
0.257363
0.073085
0.206620
0.039909
0.081522
0.081405
0.218542
-0.028816
0.024531
-0.004270
0.050346
0.051402
-0.255598
-0.227861
-0.036170
-0.070422
-0.307917
-0.073672
-0.058773
0.115265
0.014437
-0.289268
-0.111196
0.157760
-0.038299
0.000016
0.105538
0.007773
-0.137681
-0.011578
0.035624
0.173504
-0.128053
0.476331
0.321551
-0.007896
0.174288
-0.133593
-0.022025
0.262508
0.337637
0.233980
-0.301103
-0.076572
-0.046318
-0.020735
-0.219622
-0.012421
-0.019882
-0.059729
0.081285
-0.147960
0.103127
-0.102090
-0.211220
0.002946
0.110918
-0.116250
0.008198
-0.164137
-0.262682
-0.285830
-0.192751
-0.001449
0.047482
0.173777
0.022238
-0.347618
-0.097874
-0.148725
0.060526
0.024239
-0.218149
0.040798
0.113224
0.725391
0.394142
0.081057
0.225379
-0.280231
-0.433345
0.394505
0.319996
0.178125
-0.018843
0.136905
0.018083
-0.422541
-0.082097
0.048429
-0.063579
-0.266497
-0.410819
-0.237164
-0.081964
-0.010791
-0.291810
-0.385880
-0.123355
0.188961
-0.266758
0.001365
0.613223
0.125709
0.024996
-0.110500
0.064060
-0.167253
-0.095330
-0.148886
-0.180913
-0.161558
-0.163987
-0.097446
-0.033675
0.090779
-0.070944
0.166987
-0.225208
-0.072475
-0.311074
-0.077860
0.048248
-0.491113
-0.011607
0.256808
-0.388938
-0.121894
-0.355201
-0.393680
-0.070374
-0.007235
0.181100
0.176123
0.388933
0.070917
0.023620
0.273249
0.455640
-0.307536
0.236428
0.456171
-0.892398
1.041996
-0.129297
-0.079706
0.045913
0.186682
-0.062323
-0.045503
0.075422
0.190061
-0.274801
-0.108809
-0.219759
0.142994
-0.462964
-0.366780
-0.144645
0.051801
0.008436
0.051378
0.051951
0.237611
0.182512
0.321838
0.329564
-0.263063
-0.007134
-0.015522
0.101759
0.059630
0.046271
0.229549
-0.082974
0.109964
-0.005235
0.265289
0.267517
-0.038150
0.252966
0.247860
-0.267894
0.209554
0.021589
0.129975
-0.201599
0.030003
0.012691
-0.347648
0.033532
0.153763
0.028859
-0.039021
0.080394
1.084049
0.352040
0.027652
0.254351
-0.465004
0.055274
-0.033842
-0.284114
-0.091796
-0.394602
-0.059680
0.082805
-0.050950
-0.167483
-0.068591
0.348175
-0.003693
-0.158761
0.069673
0.184944
-0.065722
-0.044341
0.337186
-0.016282
0.516295
-0.023650
-0.124356
0.239607
-0.222724
-0.306968
0.085097
0.027087
0.006119
-0.221988
-0.096599
0.110290
0.113671
0.135519
0.321708
0.065295
0.061989
0.195442
0.070980
-0.031739
-0.024829
-0.410659
0.043294
-0.130992
-0.301570
0.130740
0.002870
-0.289060
-0.208711
-0.130372
-0.005162
0.094767
0.446660
-0.238166
-0.059606
0.274002
0.037169
0.025557
0.121654
0.314983
-0.103194
-0.142281
0.421709
-0.740251
1.277867
0.157437
-0.037451
-0.084205
-0.002037
-0.007756
0.047930
-0.343368
0.040381
-0.029513
-0.318564
-0.048073
0.039784
-0.389149
-0.071414
-0.174504
0.132393
0.268066
0.012545
0.174864
0.310054
-0.112432
0.224771
0.357492
-0.354121
-0.083898
0.251571
-0.233378
-0.328442
-0.238965
0.240004
-0.202477
0.035615
0.099423
-0.138468
0.023696
0.004811
-0.067165
-0.158103
-0.327526
-0.301345
-0.084421
0.291195
0.557187
0.000235
-0.364870
-0.073575
0.232781
0.330170
0.298517
-0.041578
-0.312501
0.204989
0.151306
-0.158504
-0.055311
-0.157197
-0.088196
-0.227069
-0.197333
0.282039
0.021263
0.045509
-0.084852
-0.290846
0.038578
0.065977
0.174616
-0.155665
-0.139200
0.493913
-0.047849
0.282206
-0.254840
-0.310114
-0.083555
-0.031377
0.180028
0.033328
0.145830
-0.143695
0.044529
0.209086
0.072638
-0.017463
-0.355903
-0.146231
-0.127146
-0.022821
-0.107326
0.174450
-0.120279
0.145224
0.170557
-0.075569
0.106670
0.176303
0.113267
0.539166
0.665277
0.017359
0.029121
-0.009167
-0.002036
-0.177421
-0.341448
-0.051378
0.215334
0.136237
0.369718
-0.634076
0.001103
0.066366
0.185229
-0.223194
0.028212
0.003328
0.050619
-0.064187
-0.020152
0.051313
-0.282653
0.124386
-0.158131
0.029786
0.025853
-0.026710
-0.026926
0.241105
0.092764
-0.203872
-0.129303
-0.113450
-0.054590
-0.204401
-0.371833
0.148247
0.164967
-0.089594
-0.335358
-0.059035
0.470415
0.187629
0.065266
-0.089913
-0.135400
0.108641
-0.437912
-0.155342
-0.215316
-0.160727
0.151949
0.073081
-0.206583
0.138036
0.050190
0.050080
-0.761735
-0.588603
0.220900
-0.526134
-0.346138
0.373613
0.366646
0.266566
-0.010148
-0.273235
-0.174159
-0.074536
1.065432
0.233919
-0.084984
0.030734
-0.166887
-0.071923
0.017835
0.054914
-0.212988
-0.253518
-0.401290
0.137501
0.075313
-0.028040
-0.164204
-0.678475
-0.324434
-0.282178
0.250614
-0.157980
-0.137770
1.627271
0.412138
-0.183044
-0.209684
0.022214
0.003628
0.159365
0.087394
0.192242
0.137493
0.070650
0.049033
-0.182411
0.000495
0.091352
-0.570079
-0.058308
0.211126
0.283511
-0.068565
0.276142
0.063668
-0.278144
-0.048828
-0.308104
-0.033660
-0.092267
-0.046470
0.093002
0.552601
-0.067688
-0.120112
-0.185191
-0.096151
-0.101407
0.031480
-0.362377
0.094288
0.274387
0.773342
0.110316
-0.211757
0.463191
0.287192
-0.251105
0.034511
0.187283
0.005527
-0.025334
-0.146089
0.012797
-0.091223
-0.139458
0.047304
-0.106805
0.014111
0.149532
0.009410
-0.120265
-0.071979
-0.034495
-0.008856
0.061230
0.086059
0.084766
0.230921
-0.257910
-0.215980
-0.118150
-0.072550
-0.220859
-0.205464
0.206390
-0.055524
-0.110475
0.023968
-0.433145
-0.595288
0.257374
-0.200554
0.072956
0.064482
-0.113116
0.126858
0.341169
0.203354
0.103391
-0.042349
0.129611
0.086515
-0.008209
0.062557
0.007454
-0.047009
-0.078930
-0.156971
0.052634
-0.150251
-0.045450
-0.048113
-0.108242
-0.041164
-0.090927
0.032737
-0.346750
0.056331
0.228781
-0.502808
0.124991
-0.052591
-0.054385
-0.068523
-0.151964
0.084137
-0.079910
0.131337
0.049545
0.051910
-0.053027
-0.204598
0.134068
-0.032381
0.180804
0.082290
0.177542
0.006347
0.188218
0.314385
-0.029395
0.098939
0.013450
-0.352224
-0.037256
-0.032974
-0.034406
-0.197503
0.064949
0.205536
0.182211
0.154757
0.109032
0.086772
-0.133765
-0.195543
-0.047727
0.415827
-0.087766
0.116272
-0.196042
-0.417674
0.283898
0.036627
-0.192579
0.265908
-0.042304
-0.276352
-0.005656
-0.050917
0.270274
0.040611
0.007674
-0.104234
0.161853
-0.102852
0.069262
-0.119484
0.140501
0.280227
-0.110984
0.014077
-0.311270
0.046757
-0.107883
0.030434
-0.303025
0.000934
-0.117180
-0.032551
0.184698
0.423140
-0.189041
0.323901
0.185017
0.016842
-0.002415
-0.275615
0.066203
0.033399
0.215043
0.130479
0.079693
0.025940
0.045733
-0.058835
0.069844
-0.280814
-0.099257
-0.247769
0.129450
-0.013129
-0.101861
-0.310233
-0.013112
0.129738
-0.000688
0.061338
0.065608
-0.326145
-0.193333
-0.066652
0.220002
0.032052
-0.164816
-0.035607
-0.178485
-0.274150
0.014929
-0.166704
0.129728
0.075560
-0.100979
-0.119810
-0.168515
0.058765
-0.237624
-0.097037
0.074006
-0.458236
-0.040713
0.010933
-0.027575
0.001848
0.109381
0.113426
-0.124754
0.015374
-0.097192
0.120913
0.133592
-0.033048
0.001510
-0.143400
-0.126000
-0.179300
0.086176
-0.037561
0.086777
0.395574
0.320766
0.170563
0.049758
0.163351
0.168844
0.048233
-0.127281
-0.020203
-0.027862
-0.366266
0.100110
0.055156
-0.046498
-0.033640
0.125267
-0.049411
-0.470508
-0.020359
-0.058764
0.112484
0.090672
-0.185353
0.020963
0.097750
-0.046729
0.068704
0.142281
-0.164575
-0.191234
-0.032889
0.092158
-0.178181
-0.043040
-0.092500
0.316183
0.095383
-0.156682
-0.262120
-0.004817
0.296211
0.100788
0.212520
0.015914
0.345486
0.223033
0.000172
0.242980
0.145995
-0.048456
0.051557
-0.015234
-0.173532
-0.226829
0.396381
0.171055
-0.152586
0.005258
-0.042632
-0.098999
-0.046432
-0.232045
-0.007063
0.068417
0.069609
-0.023227
-0.022555
0.131567
-0.075441
0.103911
0.017509
0.059629
-0.105312
-0.067697
-0.080995
-0.208724
0.096840
0.203548
0.108721
-0.033536
0.276316
0.735554
0.288949
0.050361
0.241282
-0.083923
-0.056728
0.093253
-0.085177
0.010278
0.220215
-0.116255
-0.178071
0.115698
0.028933
0.024458
0.103030
-0.212411
0.176744
-0.277973
-0.443106
0.033104
0.244003
0.150253
-0.110227
0.272563
0.151485
-0.141580
-0.071645
-0.132376
-0.343709
0.084502
0.104929
0.108399
0.167786
-0.338354
0.064765
0.031806
-0.094380
-0.088267
-0.217485
0.087581
-0.247381
-0.008393
0.052848
-0.222786
-0.068015
-0.015898
0.000192
-0.092359
-0.147932
0.167450
0.013087
-0.087378
-0.271132
-0.060312
-0.027946
-0.023800
0.164436
1.788596
-0.207678
-0.310719
-0.300777
-0.340387
-0.313836
0.297950
-0.130263
-0.326197
0.038932
-0.029451
0.129552
-0.187694
-0.075917
-0.096823
-0.124849
-0.466136
0.079317
-0.042902
0.084480
-0.065070
-0.422130
-0.043210
-0.161883
-0.001218
-0.015227
-0.278660
-0.025971
0.610253
-0.191381
-0.078126
0.095388
-0.258784
0.038168
-0.037661
-0.231696
-0.028506
0.179497
-0.196922
0.016449
0.115682
0.136283
0.332464
0.146293
0.232193
0.046320
-0.335694
0.039325
0.150709
-0.008002
-0.076350
0.072574
-0.212764
-0.108738
-0.112378
0.320419
-0.068628
0.139263
-0.043503
0.124175
0.144013
0.292080
0.668223
0.173083
0.064055
0.094814
-0.075235
-0.179450
-0.187142
-0.185189
-0.120903
0.232145
-0.192177
-0.211325
0.220554
0.020381
0.270961
0.326961
0.097233
0.232609
-0.410098
-0.140337
0.240199
0.235064
-0.054557
-0.122328
0.190089
-0.012775
-0.083339
-0.026992
-0.089082
0.049493
0.403597
-0.034460
0.053776
0.255173
-0.095587
0.186832
0.242885
-0.212977
-0.179270
-0.194916
-0.206557
0.039666
0.124061
-0.183960
-0.177244
0.115223
-0.130305
0.054249
-0.052695
-0.142365
0.115728
-0.072567
-0.090141
-0.210189
0.006376
-0.010506
-0.383339
-0.232285
0.936994
-0.528632
-0.183193
-0.017342
-0.016022
-0.024553
-0.094871
0.004807
-0.019535
0.041718
-0.231374
-0.058722
-0.171424
-0.220511
-0.172402
-0.321950
-0.292279
0.305439
0.273328
-0.070223
-0.026282
0.103733
-0.384122
-0.284342
0.286074
-0.013639
-0.066466
0.007129
0.406936
-0.038080
-0.302487
0.220228
0.096068
-0.069586
0.183089
0.008792
0.279018
-0.055294
-0.103376
-0.090532
0.205054
0.223161
0.034507
0.049080
0.007705
-0.141672
0.042297
0.216164
-0.009833
-0.174579
0.036564
0.047644
-0.105290
0.352772
0.138215
0.066090
-0.101624
-0.059426
0.167900
0.094144
0.095170
-0.047964
-0.116459
-0.069696
0.106765
-0.086944
-0.116167
0.057513
-0.221497
-0.004597
0.133495
-0.056142
0.497601
0.172654
-0.143603
0.028407
-0.475019
0.463088
0.648450
-0.193937
0.170290
0.576276
-0.250973
-0.281124
-0.399298
0.083463
0.144855
0.197691
-0.003001
-0.137097
-0.067695
-0.127392
-0.018706
0.523566
-0.032704
0.037631
-0.157313
-0.017123
0.108111
-0.264990
-0.367754
0.026844
0.182267
-0.107155
0.200228
0.092710
-0.046730
-0.178210
-0.379971
-0.025795
-0.037594
-0.046436
0.022882
0.367007
0.192322
0.212024
0.136436
-0.092068
-0.023186
-0.107777
-0.124813
-0.039895
0.023027
-0.083721
-0.283921
0.084342
0.434050
-0.132306
0.001959
-0.252221
0.014101
0.070644
-0.023819
0.128874
0.347874
-0.030830
-0.338111
-0.031531
0.182864
0.296607
0.481583
-0.315889
-0.026979
0.104786
-0.045630
-0.433363
0.015591
0.287714
-0.046118
0.088082
-0.027647
-0.187107
0.030494
-0.085457
0.196111
0.161070
-0.224367
0.180431
0.099123
-0.067340
-0.292040
-0.062314
0.034451
-0.138792
-0.012668
0.282451
-0.282017
-0.050370
-0.160668
0.007645
0.235425
0.270997
-0.368071
-0.047340
-0.110659
0.301544
0.061095
0.012159
0.124441
0.062849
-0.087845
0.407612
0.082645
-0.197290
0.013866
-0.112955
-0.151779
-0.079980
-0.197690
-0.333294
0.256729
-0.014031
-0.093519
0.054942
0.138262
-0.063977
-0.586240
0.176967
0.441587
-0.478588
-0.097618
-0.099158
0.064752
-0.137399
-0.189596
0.347707
-0.142894
-0.127062
0.202574
-0.173468
-0.341424
-0.098078
-0.097900
0.097222
0.097909
0.047829
-0.031052
-0.198123
-0.215509
0.077649
-0.160066
-0.128910
0.179188
0.170142
0.112868
0.196624
0.160862
-0.001086
0.220417
0.064648
-0.091132
0.078594
-0.064246
-0.039812
0.210863
-0.254886
-0.095917
-0.104584
0.125490
-0.060488
-0.079720
-0.219207
-0.259951
-0.010991
-0.287141
